svm_type epsilon_svr
kernel_type rbf
gamma 0.03125
nr_class 2
total_sv 1364
rho 0.0726147
SV
-1.976182469346612 0:0.72748538 1:0.53999603 2:0.81111111 3:0.066666667 4:0.63874346 5:0.55769231 6:0.87272727 7:0.52592593 8:0.20833333 9:0.71024434 10:0.38071728 11:0.62867351 12:0.46451613 13:0.048403088 14:4.545043e-016 15:0.91585223 16:0.27777778 17:0.071428571 18:0.92307692 19:0.16666667 20:0.65056696 21:0.27361667 22:0.84764535 24:1 25:0.71503875 26:1 27:0.19778154 28:0.36042077 29:0.69315043 30:0.16423506 31:0.6973873 32:0.53888183 33:0.074103918 34:0.0082452901 35:1 36:1 37:0.88888889 38:1 39:0.16666667 40:0.721587 41:0.80851064 45:0.066666667 46:0.75 47:1 48:0.33333333 49:0.2 50:0.33333333 51:0.66666667 53:0.25 54:0.45454545 55:0.28571429 57:0.18181818 59:0.66666667 61:0.33333333 
-8 0:0.63508772 1:0.44159389 2:0.42222222 3:0.066666667 4:0.21989529 5:0.55128205 6:0.81818182 7:0.46666667 8:0.125 9:0.5011528 10:0.38159491 11:0.36447768 12:0.21935484 13:0.27672643 14:0.08988764 15:0.21090696 16:0.22222222 17:0.21428571 18:0.23076923 19:0.16666667 20:0.3196536 21:0.3453235 22:0.32925631 24:0.099812191 25:0.55538685 26:0.56000288 27:0.49925155 28:3.9044381e-016 29:0.45657564 30:0.32882128 31:0.51251665 32:0.31325413 33:0.43661146 34:0.28960156 35:0.19136649 36:0.14285714 37:0.11111111 38:0.25 39:0.16666667 40:0.15593159 41:0.12765957 42:0.16666667 44:0.14285714 45:0.066666667 46:0.25 50:0.66666667 51:0.16666667 53:0.125 58:0.4 59:0.16666667 
8 0:0.4502924 1:0.25196507 2:0.11111111 3:0.92222222 4:0.14659686 5:0.42628205 6:0.69090909 7:0.18888889 8:0.20833333 9:0.52622157 10:0.057275377 11:0.70271627 12:0.1516129 13:0.32814325 14:0.04494382 15:0.20081258 16:0.33333333 17:0.21428571 18:0.15384615 20:0.30886414 21:0.28072575 22:0.37366982 23:1 24:0.11246857 25:0.39408264 26:0.54221467 27:0.31656902 28:0.2783478 29:0.38642538 30:0.27375575 31:0.50275487 32:0.32153683 33:0.059240678 34:0.087729037 35:0.2158155 36:0.14285714 38:0.16666667 40:0.18155162 41:0.19148936 42:0.083333333 44:0.28571429 45:0.13333333 47:0.11764706 48:0.33333333 51:0.33333333 55:0.42857143 58:0.2 61:0.33333333 
-8 0:0.68070175 1:0.50337435 2:0.42222222 3:0.066666667 4:0.21989529 5:0.55128205 6:0.81818182 7:0.46666667 8:0.20833333 9:0.5011528 10:0.54908174 11:0.24459105 12:0.21935484 13:0.27672643 14:0.26217228 15:0.21090696 16:0.16666667 17:0.14285714 18:0.23076923 19:0.16666667 20:0.36061489 21:0.42937403 22:0.32925631 24:0.099812191 25:0.55538685 26:0.56000288 27:0.49925155 28:0.63316478 29:0.45657564 30:0.43887437 31:0.38008051 32:0.31325413 33:0.43661146 34:0.40425684 35:0.19136649 36:0.095238095 38:0.25 39:0.16666667 40:0.1301969 41:0.10638298 42:0.16666667 44:0.14285714 45:0.066666667 46:0.25 50:0.33333333 51:0.16666667 53:0.125 58:0.4 59:0.16666667 
8 0:0.7497076 1:0.62663755 2:0.11111111 3:0.066666667 4:0.2460733 5:0.71474359 6:0.87272727 7:0.81111111 8:0.36458333 9:0.39343757 10:0.53994112 12:0.0093548387 13:0.0013411436 14:0.01835206 15:0.20194348 16:0.11111111 18:0.30769231 19:0.33333333 20:0.49835227 21:0.75335417 22:0.22275764 24:0.030981145 25:0.96714731 26:1 27:0.96017169 28:0.42094758 29:0.35212831 30:0.58200963 32:0.037995547 33:0.010585858 34:0.050207594 35:0.16424865 36:0.095238095 38:0.33333333 39:0.33333333 40:0.10341382 41:0.063829787 42:0.083333333 44:0.14285714 50:0.33333333 51:0.66666667 53:0.125 54:0.090909091 
8 0:0.70760234 1:0.54312227 2:0.11111111 5:0.84935897 6:0.97272727 7:0.51111111 8:0.10416667 9:0.59843112 10:0.49244761 11:0.27541276 12:0.17419355 13:0.27919366 14:0.08988764 15:0.094968167 16:0.11111111 17:0.071428571 18:0.30769231 19:0.33333333 20:0.39796536 21:0.45039067 22:0.37366982 23:0.11085093 24:0.20234647 25:0.70145957 26:1 27:0.58258278 28:0.51766837 29:0.56598287 30:0.27718732 31:0.62260739 32:0.023823235 33:0.65119618 34:0.01683502 35:0.19586408 36:0.14285714 38:0.33333333 39:0.33333333 40:0.13312912 41:0.12765957 44:0.28571429 47:0.11764706 49:0.2 51:0.33333333 54:0.090909091 56:0.5 57:0.090909091 58:0.2 59:0.16666667 
8 0:0.54269006 1:0.35545852 2:0.11111111 4:0.58900524 5:0.50961538 6:0.78181818 7:0.41481481 8:0.20833333 9:0.68876434 10:0.13506 11:0.71663271 12:0.55806452 13:0.74037088 14:0.10861423 15:0.52527086 16:0.38888889 17:0.21428571 18:0.38461538 19:0.16666667 20:0.53808148 21:0.52674977 22:0.25591999 23:0.11085093 24:0.30788246 25:0.70165904 26:0.86890302 27:0.54570799 28:0.4759944 29:0.72334425 30:0.34970337 31:0.70285791 32:0.30705801 33:0.76365469 34:0.26117648 35:0.37751283 36:0.19047619 37:0.11111111 38:0.41666667 39:0.16666667 40:0.25887036 41:0.19148936 45:0.13333333 46:0.25 49:0.2 51:0.5 53:0.375 54:0.090909091 55:0.28571429 56:0.5 61:0.33333333 
-4.88253337096792 0:0.62222222 1:0.4780786 2:0.42222222 4:0.48691099 5:0.45192308 6:0.72727273 7:0.38888889 8:0.40625 9:0.60264024 10:0.28925982 11:0.39574283 12:0.50967742 13:0.24765395 14:0.026217228 15:0.56313526 16:0.16666667 18:0.30769231 20:0.57539295 21:0.37217323 22:0.32925631 23:0.11085093 24:0.059323683 25:0.36805106 26:0.54221467 27:0.4646073 28:0.63192748 29:0.44802166 30:0.38107976 31:0.23546814 32:0.3099784 33:0.14974594 34:0.015210834 35:0.20702216 36:0.047619048 38:0.33333333 40:0.48843495 41:0.40425532 42:0.33333333 44:0.14285714 45:0.066666667 49:0.4 51:0.16666667 54:0.63636364 55:0.14285714 56:0.5 57:0.18181818 58:0.8 59:0.16666667 
-8 0:0.80935673 1:0.66313163 2:0.81111111 4:0.20942408 5:0.56410256 6:0.81818182 7:0.68888889 8:0.5 9:0.64197914 10:0.59747193 11:0.22853873 12:0.26774194 13:0.13484281 14:0.018726592 15:0.30971462 16:0.055555556 18:0.38461538 19:0.16666667 20:0.4156335 21:0.41782981 22:0.84764535 23:0.11085093 24:0.10961722 25:0.38932281 26:0.56000288 27:0.32312357 28:0.46035609 29:0.37554593 30:0.45667331 31:0.18034678 32:0.21164041 33:0.13457251 34:0.028912975 35:0.21875976 36:0.14285714 38:0.41666667 39:0.16666667 40:0.19319857 41:0.17021277 42:0.083333333 46:0.25 47:0.11764706 49:0.2 51:0.16666667 55:0.14285714 56:0.5 57:0.090909091 58:0.6 59:0.33333333 
8 0:0.65497076 1:0.49115146 2:0.11111111 3:0.066666667 4:0.27225131 5:0.58653846 6:0.93636364 7:0.4962963 8:0.45833333 9:0.65031856 10:0.38601577 11:0.44228803 12:0.21612903 13:0.05403788 14:0.056179775 15:0.36392829 16:0.22222222 18:0.38461538 19:0.16666667 20:0.48981103 21:0.39184478 22:0.369864 24:0.043801081 25:0.46267781 26:0.82897929 27:0.42255167 28:0.35178178 29:0.5389974 30:0.22790628 31:0.41717637 32:0.18392377 33:0.14622965 34:0.0089121651 35:0.26695285 36:0.095238095 38:0.41666667 39:0.16666667 40:0.30254235 41:0.27659574 42:0.083333333 44:0.14285714 45:0.13333333 46:0.25 47:0.058823529 49:0.2 50:0.33333333 51:0.33333333 54:0.090909091 55:0.14285714 57:0.36363636 58:0.4 59:0.16666667 
-8 0:0.32748538 1:0.32807438 2:0.42222222 3:0.14444444 4:0.84816754 5:0.49679487 6:0.72727273 7:0.11851852 8:0.10416667 9:0.63258897 11:0.62553947 12:0.50322581 13:0.10036459 14:0.018726592 15:0.805554 16:0.66666667 17:0.28571429 18:0.38461538 20:0.53479097 21:0.29458294 22:0.32925631 23:0.0046044956 24:0.13686701 25:0.29108899 26:0.32668836 27:0.44079713 28:0.40415327 29:0.52595569 30:0.33619254 31:0.40217535 32:0.3524032 33:0.018045716 34:0.0050700199 35:0.24605777 36:0.19047619 38:0.41666667 40:0.56812895 41:0.53191489 42:0.16666667 44:1 45:0.26666667 46:0.25 47:0.11764706 48:0.33333333 49:0.2 52:0.25 54:0.090909091 55:0.14285714 56:0.5 57:0.090909091 58:0.8 59:0.5 61:0.33333333 
-8 0:0.75906433 1:0.62306471 2:0.96666667 3:0.066666667 4:0.2565445 5:0.66346154 6:0.90909091 7:0.67407407 8:0.16666667 9:0.7974515 10:0.33850322 11:0.55202151 12:0.4483871 13:0.62286267 14:0.52808989 15:0.22242544 16:0.11111111 17:0.071428571 18:0.30769231 19:0.16666667 20:0.36605411 21:0.43733497 22:0.641011 24:0.091107282 25:0.65545476 26:0.69109986 27:0.54187162 28:0.36042077 29:0.66313953 30:0.33050619 31:0.55351742 32:0.14622549 33:0.63101387 34:0.18941753 35:0.18960308 36:0.14285714 37:0.11111111 38:0.33333333 39:0.16666667 40:0.10639518 41:0.10638298 42:0.083333333 45:0.13333333 47:0.11764706 50:0.33333333 51:0.33333333 57:0.090909091 59:0.33333333 
-8 0:0.49356725 1:0.32725405 2:0.32222222 4:0.09947644 5:0.42948718 6:0.69090909 7:0.24814815 8:0.20833333 9:0.57931737 10:0.24734465 11:0.41775783 12:0.32258065 13:0.20803732 14:0.13108614 15:0.17794315 16:0.16666667 17:0.071428571 18:0.15384615 20:0.24734429 21:0.19887661 22:0.39399324 23:0.11085093 24:0.19137466 25:0.28823564 26:0.54221467 27:0.34520202 28:0.28506521 29:0.51596105 30:0.23340833 31:0.62214564 32:0.21891582 33:0.25569243 34:0.0018182047 35:0.25512696 36:0.23809524 38:0.16666667 40:0.23252957 41:0.23404255 42:0.083333333 47:0.11764706 48:0.33333333 51:0.33333333 53:0.125 54:0.27272727 55:0.28571429 56:0.5 57:0.18181818 58:0.4 
8 0:0.53450292 1:0.25524017 2:0.11111111 4:0.09947644 5:0.16666667 6:0.45454545 7:0.40740741 8:0.20833333 9:0.33714705 10:0.29351219 12:0.0093548387 13:0.0013411436 14:0.01835206 15:0.12149559 16:0.16666667 17:0.071428571 18:0.076923077 20:0.27028587 21:0.31885949 22:0.37366982 23:0.11085093 25:0.35297435 26:0.45778533 27:0.54240936 28:0.3985803 29:0.32048848 30:0.32211768 32:0.037995547 33:0.010585858 34:0.050207594 35:0.093040554 36:0.047619048 38:0.083333333 40:0.079923337 41:0.085106383 42:0.083333333 44:0.14285714 45:0.13333333 51:0.16666667 54:0.090909091 56:0.5 57:0.18181818 61:0.33333333 
-8 0:0.61871345 1:0.44061135 2:0.11111111 3:0.066666667 4:0.63350785 5:0.53525641 6:0.72727273 7:0.54074074 8:0.20833333 9:0.76912337 10:0.34200836 11:0.71170389 12:0.65483871 13:0.48926385 14:0.13483146 15:0.49287948 16:0.33333333 17:0.071428571 18:0.23076923 20:0.44768823 21:0.42972871 22:0.369864 25:0.52131471 26:0.46106014 27:0.38854251 28:0.2801457 29:0.73226457 30:0.34512812 31:0.50143639 32:0.53072396 33:0.37069247 34:0.3168951 35:0.20347936 36:0.047619048 38:0.25 40:0.20060282 41:0.19148936 42:0.33333333 44:0.28571429 45:0.2 50:0.33333333 51:0.33333333 55:0.14285714 57:0.090909091 59:0.16666667 
-7.919158414471273 0:0.54736842 1:0.2768559 2:0.35555556 3:0.066666667 4:0.047120419 5:0.27564103 6:0.75454545 7:0.25555556 8:0.20833333 9:0.32856718 10:0.17985811 12:0.0093548387 13:0.0013411436 14:0.01835206 15:0.090081537 16:0.16666667 17:0.071428571 18:0.076923077 20:0.22144229 21:0.24022215 22:0.47677279 24:0.020910741 25:0.23013472 26:0.37875669 27:0.3651258 28:0.50939034 29:0.32257562 30:0.23370674 32:0.037995547 33:0.010585858 34:0.050207594 35:0.04801423 36:0.047619048 38:0.083333333 40:0.10469154 41:0.085106383 42:0.083333333 49:0.2 50:0.33333333 55:0.42857143 57:0.090909091 61:1 
-8 0:0.68187135 1:0.5 2:0.11111111 3:0.066666667 4:0.10994764 5:0.66025641 6:0.81818182 7:0.68888889 8:0.16666667 9:0.25316692 10:0.35132284 12:0.0093548387 13:0.0013411436 14:0.01835206 15:0.086339774 16:0.11111111 17:0.071428571 18:0.15384615 19:0.16666667 20:0.26670138 21:0.33896084 22:0.369864 24:0.048067063 25:0.43731135 26:0.56000288 27:0.51630565 28:0.39516758 29:0.14654275 30:0.32204827 32:0.037995547 33:0.010585858 34:0.050207594 35:0.052518282 36:0.095238095 38:0.16666667 39:0.16666667 40:0.064754447 41:0.063829787 42:0.083333333 45:0.13333333 46:0.25 47:0.058823529 50:0.33333333 52:0.25 58:0.2 59:0.16666667 
-8 0:0.50175439 1:0.34606987 2:0.35555556 4:0.09947644 5:0.61217949 6:0.87272727 7:0.17777778 8:0.10416667 9:0.69799688 10:0.010895875 11:0.70654179 12:0.29677419 13:0.46509692 14:0.026217228 15:0.21221937 16:0.33333333 17:0.21428571 18:0.30769231 19:0.33333333 20:0.49163516 21:0.41078786 22:0.47677279 23:0.11085093 24:0.071025062 25:0.79196915 26:1 27:0.30390067 28:0.45363869 29:0.64553818 30:0.28918848 31:0.55715547 32:0.22537171 33:0.21294822 34:0.034195137 35:0.17149827 36:0.14285714 38:0.33333333 39:0.33333333 40:0.30796449 41:0.25531915 45:0.2 47:0.058823529 49:0.2 51:0.5 53:0.125 54:0.18181818 55:0.28571429 56:0.5 57:0.090909091 58:0.4 61:0.33333333 
-2.892380874822651 0:0.42339181 1:0.11036125 2:0.41111111 4:0.19895288 5:0.073717949 6:0.20909091 7:0.12962963 8:0.16666667 9:0.29676142 10:0.12427011 11:0.32623749 12:0.21290323 13:0.36865223 14:0.25468165 15:0.16976153 16:0.27777778 17:0.14285714 18:0.076923077 20:0.18856665 21:0.17756062 22:0.26220726 23:0.11085093 24:0.10221818 25:0.27604396 26:0.35973966 27:0.28166875 28:0.39516758 29:0.37925688 30:0.20849285 31:0.38583548 32:0.49835268 33:0.44306211 34:0.64233844 35:0.16889992 36:0.095238095 38:0.083333333 40:0.11260361 41:0.10638298 45:0.2 50:0.33333333 51:0.16666667 54:0.18181818 55:0.14285714 56:0.5 57:0.18181818 
-5.869367330670411 0:0.61871345 1:0.39672489 2:0.41111111 3:0.066666667 4:0.28272251 5:0.44230769 6:0.46363636 7:0.45185185 8:0.16666667 9:0.58132188 10:0.34247574 12:0.0093548387 13:0.0013411436 14:0.01835206 15:0.26732659 16:0.16666667 17:0.071428571 18:0.15384615 20:0.32513212 21:0.40716101 22:0.26220726 25:0.53376558 26:0.67761354 27:0.57501564 28:0.2734283 29:0.50423284 30:0.44644626 32:0.037995547 33:0.010585858 34:0.050207594 35:0.11883669 36:0.047619048 38:0.25 39:0.16666667 40:0.10339744 41:0.085106383 42:0.083333333 44:0.28571429 49:0.2 50:0.33333333 51:0.16666667 55:0.14285714 57:0.090909091 58:0.2 60:0.5 
8 0:0.6994152 1:0.53069612 2:1 3:0.066666667 4:0.37696335 5:0.59935897 6:0.81818182 7:0.52592593 8:0.16666667 9:0.70427115 10:0.23286208 11:0.59776048 12:0.48387097 13:0.33094778 14:0.1835206 15:0.33351949 16:0.27777778 17:0.14285714 18:0.38461538 19:0.16666667 20:0.5070251 21:0.44480701 22:0.8012479 24:0.019955736 25:0.50962384 26:0.56000288 27:0.58781327 28:0.39516758 29:0.63064366 30:0.35775552 31:0.47382039 32:0.20214752 33:0.23740507 34:0.025776092 35:0.20532732 36:0.095238095 38:0.41666667 39:0.16666667 40:0.26344068 41:0.23404255 42:0.25 45:0.2 46:0.5 47:0.058823529 49:0.2 50:0.33333333 51:0.16666667 55:0.28571429 57:0.090909091 58:0.2 59:0.16666667 
-8 0:0.6619883 1:0.48303661 2:0.11111111 3:0.066666667 4:0.40314136 5:0.68910256 6:0.90909091 7:0.42962963 8:0.16666667 9:0.67600768 10:0.34200836 11:0.34637738 12:0.71612903 13:0.34009351 14:0.57677903 15:0.31492237 16:0.22222222 17:0.071428571 18:0.23076923 19:0.16666667 20:0.42266442 21:0.45250587 22:0.369864 24:0.068929218 25:0.45599073 26:0.69109986 27:0.38734467 28:0.39923376 29:0.53380773 30:0.3160779 31:0.4147634 32:0.26288384 33:0.31331514 34:0.17036719 35:0.16248256 36:0.095238095 38:0.25 39:0.16666667 40:0.17660453 41:0.14893617 42:0.25 44:0.14285714 45:0.13333333 50:0.33333333 51:0.33333333 53:0.125 54:0.090909091 58:0.2 59:0.16666667 
8 0:0.54269006 1:0.39868996 2:0.11111111 4:0.42670157 5:0.54166667 6:0.72727273 7:0.24074074 8:0.10416667 9:0.63063495 10:0.1366414 11:0.60217932 12:0.64193548 13:0.21680251 14:0.071161049 15:0.4071261 16:0.33333333 17:0.071428571 18:0.23076923 20:0.34794063 21:0.26205995 22:0.369864 23:0.11085093 24:0.071257682 25:0.34132051 26:0.62716882 27:0.2842146 28:0.51360218 29:0.5050863 30:0.308233 31:0.35064919 32:0.32528346 33:0.17357289 34:0.022400575 35:0.14472284 36:0.19047619 38:0.25 40:0.29766078 41:0.29787234 42:0.16666667 44:0.14285714 45:0.13333333 47:0.11764706 51:0.16666667 52:0.25 53:0.125 54:0.090909091 55:0.28571429 56:0.5 57:0.18181818 58:0.4 59:0.33333333 
-5.170378185752913 0:0.65614035 1:0.47925764 2:0.41111111 3:0.066666667 4:0.30890052 5:0.49679487 6:0.52727273 7:0.42962963 8:0.16666667 9:0.73712766 10:0.16295999 11:0.69343151 12:0.39032258 13:0.62431455 14:0.27340824 15:0.38477326 16:0.16666667 17:0.071428571 18:0.30769231 20:0.3614838 21:0.35555831 22:0.26220726 24:0.048608417 25:0.35853856 26:0.47854789 27:0.50181117 28:0.2734283 29:0.59925937 30:0.28185392 31:0.7700069 32:0.15340261 33:0.60989841 34:0.073150904 35:0.26573577 36:0.095238095 38:0.33333333 40:0.19106903 41:0.17021277 45:0.13333333 47:0.058823529 50:0.33333333 51:0.33333333 54:0.090909091 55:0.14285714 57:0.27272727 58:0.2 59:0.33333333 
-8 0:0.56491228 1:0.35757474 2:0.42222222 4:0.047120419 5:0.48717949 6:0.78181818 7:0.47037037 8:0.10416667 9:0.49711547 10:0.41009268 11:0.34380671 12:0.13870968 13:0.29412565 14:0.026217228 15:0.093292751 16:0.16666667 17:0.14285714 18:0.15384615 19:0.16666667 20:0.28899013 21:0.28695715 22:0.32925631 23:0.11085093 24:0.093337153 25:0.41340512 26:0.86890302 27:0.37436787 28:0.46035609 29:0.45388688 30:0.31829807 31:0.35658431 32:0.18485274 33:0.3890729 34:0.14509563 35:0.09864715 36:0.14285714 38:0.16666667 39:0.16666667 40:0.11979491 41:0.14893617 42:0.083333333 44:0.14285714 45:0.13333333 46:0.25 47:0.11764706 51:0.16666667 54:0.090909091 56:0.5 57:0.18181818 58:0.2 
-8 0:0.44444444 1:0.14251687 2:0.066666667 3:0.066666667 4:0.20942408 5:0.34615385 6:0.90909091 7:0.15925926 8:0.16666667 9:0.26875255 10:0.046572415 11:0.2904596 12:0.058064516 13:0.32836987 14:0.074906367 15:0.13844521 16:0.38888889 17:0.35714286 18:0.15384615 19:0.16666667 20:0.21506226 21:0.21634016 24:0.099812191 25:0.35053693 26:0.69109986 27:0.3164848 28:0.39516758 29:0.3714047 30:0.33649773 31:0.24761401 32:0.088218153 33:0.28813208 34:0.11480604 35:0.10097519 36:0.14285714 38:0.16666667 39:0.16666667 40:0.11325885 41:0.10638298 44:0.28571429 45:0.2 50:0.66666667 51:0.16666667 53:0.125 57:0.090909091 59:0.16666667 
-8 0:0.6748538 1:0.49966409 2:0.41111111 3:0.066666667 4:0.41099476 5:0.52884615 6:0.93636364 7:0.27037037 8:0.20833333 9:0.62578732 10:0.39330053 11:0.50980557 12:0.54193548 13:0.30546154 14:0.35205993 15:0.3002206 16:0.22222222 17:0.14285714 18:0.23076923 19:0.16666667 20:0.43107305 21:0.46291952 22:0.26220726 24:0.082852925 25:0.45340841 26:0.82897929 27:0.49140358 28:0.63192748 29:0.63419419 30:0.44084913 31:0.56402321 32:0.41741248 33:0.25651247 34:0.14354704 35:0.21499008 36:0.047619048 38:0.25 39:0.16666667 40:0.16595682 41:0.14893617 42:0.25 44:0.14285714 45:0.13333333 49:0.2 50:0.33333333 51:0.33333333 55:0.14285714 57:0.090909091 58:0.2 
6.359282823886966 0:0.61637427 1:0.39279476 2:0.92222222 4:0.11780105 5:0.61538462 6:0.97272727 7:0.14814815 8:0.10416667 9:0.32065415 10:0.30079695 12:0.0093548387 13:0.0013411436 14:0.01835206 15:0.12363174 16:0.16666667 17:0.14285714 18:0.23076923 19:0.16666667 20:0.25219908 21:0.28974006 22:1 23:0.11085093 24:0.13191189 25:0.48196217 26:0.52007915 27:0.16164824 28:0.28506521 29:0.32394985 30:0.32164421 32:0.037995547 33:0.010585858 34:0.050207594 35:0.12912742 36:0.19047619 37:0.11111111 38:0.25 39:0.16666667 40:0.08464109 41:0.085106383 44:0.14285714 45:0.066666667 47:0.058823529 48:0.33333333 49:0.2 51:0.16666667 53:0.125 56:0.5 57:0.090909091 59:0.16666667 
8 0:0.91111111 1:0.88799127 2:0.7 3:0.066666667 4:0.09947644 5:0.99679487 6:1 7:0.91111111 8:0.16666667 9:0.56544932 10:0.70176805 12:0.0093548387 13:0.0013411436 14:0.01835206 15:0.083561376 16:0.055555556 17:0.071428571 18:0.46153846 19:0.83333333 20:0.50195944 21:0.69185 22:0.46798374 24:0.079193933 25:0.86873698 26:0.69788231 27:0.8202673 28:0.2734283 29:0.48831062 30:0.51821494 32:0.037995547 33:0.010585858 34:0.050207594 35:0.12057549 36:0.095238095 38:0.5 39:0.83333333 40:0.13173672 41:0.085106383 42:0.083333333 46:0.25 47:0.058823529 49:0.6 50:0.33333333 51:0.16666667 55:0.14285714 59:0.16666667 
-1.197665543042192 0:0.6994152 1:0.53231441 2:0.96666667 3:0.066666667 4:0.23036649 5:0.41666667 6:0.6 7:0.60740741 8:0.44791667 9:0.44100074 10:0.34899422 12:0.0093548387 13:0.0013411436 14:0.01835206 15:0.24038032 16:0.11111111 18:0.23076923 20:0.29989791 21:0.36653436 22:0.641011 25:0.34319665 26:0.41111769 27:0.44734494 28:0.2801457 29:0.32798035 30:0.30285499 32:0.037995547 33:0.010585858 34:0.050207594 35:0.10883245 36:0.047619048 38:0.25 40:0.11040854 41:0.085106383 42:0.083333333 45:0.066666667 46:0.25 49:0.2 50:0.33333333 55:0.14285714 57:0.090909091 58:0.4 59:0.16666667 
-8 0:0.74853801 1:0.56296943 2:0.11111111 3:0.066666667 4:0.79057592 5:0.71474359 6:0.90909091 7:0.42592593 8:0.20833333 9:0.81354633 10:0.25264314 11:0.60142244 12:0.32580645 13:0.054306286 14:4.0469828e-016 15:0.78655199 16:0.38888889 17:0.14285714 18:0.76923077 19:0.5 20:0.85080278 21:0.54953528 22:0.369864 24:0.41867109 25:0.56406673 26:0.69109986 27:0.48495703 28:0.36042077 29:0.65042193 30:0.35185923 31:0.58371933 32:0.47523805 33:0.092310825 34:0.078419774 35:0.67401598 36:0.28571429 37:0.22222222 38:0.83333333 39:0.5 40:0.48607607 41:0.40425532 44:0.14285714 45:0.26666667 46:0.25 47:0.23529412 49:0.2 50:0.33333333 51:0.83333333 53:0.125 54:0.18181818 55:0.14285714 59:0.5 61:0.33333333 
8 0:0.54736842 1:0.36069869 2:0.42222222 4:0.42670157 5:0.78205128 6:0.97272727 7:0.30740741 8:0.10416667 9:0.63188981 10:0.27832048 11:0.53691749 12:0.39677419 13:0.50506872 14:0.11985019 15:0.45722104 16:0.33333333 17:0.21428571 18:0.38461538 19:0.33333333 20:0.41613468 21:0.39586159 22:0.32925631 23:0.11085093 24:0.1625829 25:0.57507772 26:0.82897929 27:0.42230936 28:0.12335411 29:0.58809221 30:0.49625691 31:0.41015541 32:0.065148194 33:0.19291908 34:0.0086284103 35:0.31904016 36:0.19047619 37:0.11111111 38:0.41666667 39:0.33333333 40:0.25100744 41:0.19148936 44:0.14285714 45:0.26666667 48:0.66666667 49:0.4 51:0.33333333 56:1 58:0.2 59:0.16666667 
-1.274430966115305 0:0.73216374 1:0.58197697 2:0.11111111 3:0.066666667 4:0.10994764 5:0.57051282 6:0.97272727 7:0.6962963 8:0.36458333 9:0.63624239 10:0.55989068 11:0.36054387 12:0.19354839 13:0.40727782 14:0.23220974 15:0.12964928 16:0.055555556 18:0.30769231 19:0.33333333 20:0.3151472 21:0.36282656 22:0.25591999 24:0.077328621 25:0.32150879 26:0.73780605 27:0.4504338 28:0.42094758 29:0.46440706 30:0.38322925 31:0.35120904 32:0.0067457 33:0.40424994 34:0.010012717 35:0.12862209 36:0.14285714 38:0.33333333 39:0.33333333 40:0.11563411 41:0.10638298 46:0.5 47:0.11764706 49:0.2 50:0.33333333 54:0.090909091 55:0.14285714 57:0.090909091 58:0.2 59:0.16666667 
8 0:0.7625731 1:0.62008734 2:0.11111111 3:0.066666667 4:0.37696335 5:0.68589744 6:0.90909091 7:0.59259259 8:0.5 9:0.82342754 10:0.30242181 11:0.68684112 12:0.31290323 13:0.76434991 14:0.093632959 15:0.30017871 16:0.16666667 18:0.30769231 19:0.16666667 20:0.46801232 21:0.54436935 22:0.37366982 24:0.06481644 25:0.58622277 26:0.69109986 27:0.55919043 28:0.74694936 29:0.60467887 30:0.45198585 31:0.5335508 32:0.24986462 33:0.44070271 34:0.22685633 35:0.17248232 36:0.047619048 38:0.33333333 39:0.16666667 40:0.15948629 41:0.12765957 42:0.25 44:0.14285714 45:0.13333333 46:0.25 49:0.2 50:0.33333333 51:0.16666667 58:0.2 59:0.16666667 
-8 0:0.68654971 1:0.50873362 2:0.92222222 3:0.066666667 4:0.29319372 5:0.46794872 6:0.6 7:0.52222222 8:0.4375 9:0.35679833 10:0.4906733 12:0.0093548387 13:0.0013411436 14:0.01835206 15:0.25311348 16:0.11111111 18:0.23076923 20:0.37246362 21:0.52815574 22:1 24:0.06481644 25:0.42012705 26:0.5497774 27:0.6155432 28:0.78281864 29:0.42164907 30:0.6699181 32:0.037995547 33:0.010585858 34:0.050207594 35:0.13779021 36:0.047619048 38:0.25 40:0.1022999 41:0.063829787 42:0.083333333 45:0.066666667 46:0.25 50:0.33333333 51:0.16666667 55:0.14285714 59:0.16666667 61:0.66666667 
8 0:0.59649123 1:0.35938865 2:0.41111111 3:0.066666667 4:0.14397906 5:0.46474359 6:0.51818182 7:0.47407407 8:0.20833333 9:0.52024838 10:0.40488112 12:0.0093548387 13:0.0013411436 14:0.01835206 15:0.11620407 16:0.16666667 17:0.071428571 20:0.16217516 21:0.14480308 22:0.26220726 24:0.031558348 25:0.25363673 26:0.16938349 27:0.37654911 28:0.4759944 29:0.33282515 30:0.32776516 32:0.037995547 33:0.010585858 34:0.050207594 35:0.035930907 36:0.14285714 37:0.11111111 40:0.063280149 41:0.085106383 42:0.16666667 50:0.33333333 52:0.5 53:0.25 55:0.14285714 57:0.18181818 
-8 0:0.60935673 1:0.38100437 2:0.92222222 3:0.066666667 4:0.26439791 5:0.43910256 6:0.93636364 7:0.27037037 8:0.16666667 9:0.35875235 10:0.2791356 12:0.0093548387 13:0.0013411436 14:0.01835206 15:0.16970569 16:0.27777778 17:0.28571429 18:0.23076923 19:0.16666667 20:0.39197235 21:0.51477265 22:1 24:0.025213624 25:0.49177322 26:0.82897929 27:0.4801891 28:0.39516758 29:0.49544936 30:0.36921101 32:0.037995547 33:0.010585858 34:0.050207594 35:0.10048171 36:0.095238095 38:0.25 39:0.16666667 40:0.10339744 41:0.085106383 42:0.083333333 44:0.28571429 45:0.13333333 49:0.2 50:0.33333333 51:0.33333333 53:0.125 
8 0:0.59415205 1:0.39536446 2:0.11111111 3:0.066666667 4:0.31675393 5:0.70512821 6:0.93636364 7:0.36296296 8:0.10416667 9:0.51032069 10:0.43796823 11:0.20630117 12:0.21290323 13:0.090167799 14:0.02247191 15:0.31824528 16:0.27777778 17:0.14285714 18:0.30769231 19:0.16666667 20:0.32233617 21:0.3282545 22:0.22275764 24:0.23172872 25:0.58615968 26:0.82897929 27:0.39481317 28:0.3564318 29:0.49517094 30:0.39719235 31:0.31883614 32:0.13170896 33:0.21585987 34:0.004067852 35:0.29157192 36:0.28571429 37:0.22222222 38:0.33333333 39:0.16666667 40:0.18618747 41:0.14893617 47:0.058823529 49:0.2 50:0.33333333 51:0.33333333 53:0.375 54:0.090909091 55:0.14285714 56:0.5 58:0.2 59:0.16666667 
-5.29658482457621 0:0.64444444 1:0.43995633 2:0.11111111 4:0.14659686 5:0.58653846 6:0.75454545 7:0.37777778 8:0.20833333 9:0.46674035 10:0.56437943 12:0.0093548387 13:0.0013411436 14:0.01835206 15:0.19091366 16:0.16666667 17:0.071428571 18:0.23076923 20:0.37891522 21:0.49375089 22:0.37366982 23:0.11085093 25:0.46267781 26:0.54221467 27:0.64565571 28:0.3985803 29:0.51087121 30:0.62850325 32:0.037995547 33:0.010585858 34:0.050207594 35:0.15392292 36:0.047619048 38:0.25 40:0.10380697 41:0.085106383 42:0.083333333 44:0.14285714 45:0.066666667 46:0.25 49:0.2 51:0.16666667 54:0.090909091 55:0.14285714 56:0.5 57:0.090909091 
8 0:0.7497076 1:0.5915471 2:0.45555556 4:0.23036649 5:0.75320513 6:0.97272727 7:0.58148148 8:0.10416667 9:0.72972383 10:0.25772968 11:0.65650491 12:0.080645161 13:0.30751768 14:0.011235955 15:0.22954596 16:0.16666667 17:0.14285714 18:0.30769231 19:0.16666667 20:0.35296726 21:0.34576439 22:0.16867106 23:0.11085093 24:0.16937338 25:0.46307035 26:0.52007915 27:0.48399534 28:0.3564318 29:0.47154592 30:0.34664999 31:0.55240526 32:0.15770794 33:0.36219609 34:0.0023259755 35:0.15470073 36:0.19047619 37:0.11111111 38:0.33333333 39:0.16666667 40:0.16155031 41:0.17021277 42:0.25 45:0.066666667 46:0.25 47:0.11764706 49:0.2 53:0.125 55:0.14285714 56:0.5 57:0.090909091 59:0.33333333 
-0.2832999784431641 0:0.43157895 1:0.32562525 2:0.45555556 3:0.066666667 4:0.047120419 5:0.41025641 6:0.50909091 7:0.3962963 8:0.16666667 9:0.48734539 10:0.16503318 11:0.35801747 12:0.4 13:0.097721731 14:0.19101124 15:0.17032 16:0.27777778 17:0.071428571 20:0.15410624 21:0.10368061 22:0.16867106 24:0.056249214 25:0.20717722 26:0.084429332 27:0.30290435 28:0.2734283 29:0.29350467 30:0.24286351 31:0.21954982 32:0.13621786 33:0.075278869 34:0.019122403 35:0.037619952 36:0.23809524 40:0.28011663 41:0.34042553 42:0.41666667 45:0.066666667 47:0.23529412 50:0.33333333 54:0.36363636 55:0.57142857 57:0.18181818 58:0.2 
-8 0:0.76842105 1:0.66157205 2:0.96666667 4:0.047120419 5:0.62179487 6:0.94545455 7:0.73703704 8:0.52083333 9:0.51254347 10:0.70009973 12:0.0093548387 13:0.0013411436 14:0.01835206 15:0.12254272 18:0.23076923 19:0.16666667 20:0.24891162 21:0.30713728 22:0.641011 23:0.11085093 24:0.0397405 25:0.254865 26:0.38219972 27:0.46561722 28:0.28506521 29:0.30729984 30:0.52532438 32:0.037995547 33:0.010585858 34:0.050207594 35:0.038265688 36:0.095238095 38:0.25 39:0.16666667 40:0.083494414 41:0.063829787 42:0.16666667 48:0.33333333 54:0.090909091 56:0.5 57:0.090909091 59:0.5 
8 0:0.69122807 1:0.52183406 2:0.7 3:0.066666667 4:0.11780105 5:0.69230769 6:0.52727273 7:0.34444444 8:0.44791667 9:0.65525917 10:0.37080502 11:0.31129918 12:0.71935484 13:0.17796596 14:0.64419476 15:0.25423043 16:0.055555556 18:0.23076923 20:0.2933397 21:0.26406303 22:0.46798374 24:0.064904314 25:0.50039894 26:0.42284354 27:0.24593698 28:0.2801457 29:0.53009753 30:0.32283213 31:0.47187703 32:0.48853613 33:0.31142734 34:0.39216231 35:0.20853331 36:0.19047619 38:0.25 40:0.17868493 41:0.19148936 42:0.083333333 45:0.066666667 47:0.17647059 49:0.2 50:0.33333333 51:0.16666667 54:0.18181818 57:0.18181818 58:0.4 59:0.16666667 
7.139105690210209 0:0.52865497 1:0.40535409 2:0.92222222 4:0.64659686 5:0.7275641 6:0.90909091 7:0.074074074 8:0.10416667 9:0.70110877 10:0.26264234 11:0.5906098 12:0.73548387 13:0.037379907 14:0.014981273 15:0.69648442 16:0.55555556 17:0.42857143 18:0.61538462 19:0.33333333 20:0.7240302 21:0.50160391 22:1 23:0.11085093 24:0.30800703 25:0.80108327 26:1 27:0.33031419 28:0.40008708 29:0.75716002 30:0.34696229 31:0.69576155 32:0.80914099 33:0.097732443 34:0.053909419 35:0.49881327 36:0.28571429 37:0.11111111 38:0.66666667 39:0.33333333 40:0.44708908 41:0.36170213 44:0.57142857 45:0.13333333 47:0.058823529 48:0.33333333 49:0.2 51:0.83333333 53:0.375 54:0.18181818 55:0.14285714 56:0.5 59:0.33333333 
-6.571792920155743 0:0.55672515 1:0.44707122 2:0.96666667 4:0.78010471 5:0.54166667 6:0.72727273 7:0.35925926 8:0.20833333 9:0.66161626 10:0.19951416 11:0.55426213 12:0.45483871 13:0.11741983 14:0.059925094 15:0.71695242 16:0.61111111 17:0.35714286 18:0.46153846 20:0.69005043 21:0.39556024 22:0.641011 23:0.11085093 24:0.15468727 25:0.43728305 26:0.62716882 27:0.46899237 28:0.53938218 29:0.54413499 30:0.23748 31:0.41925171 32:0.19303779 33:0.053326599 34:0.029418179 35:0.28556246 36:0.14285714 38:0.5 40:0.55307473 41:0.4893617 42:0.25 44:0.14285714 45:0.4 47:0.11764706 51:0.33333333 52:0.75 54:0.090909091 55:0.57142857 56:0.5 57:0.090909091 59:0.66666667 61:0.33333333 
8 0:0.41988304 1:0.3066126 2:0.11111111 4:0.54450262 5:0.43910256 6:0.87272727 7:0.14074074 8:0.20833333 9:0.57002418 10:0.046572415 11:0.6187137 12:0.58387097 13:0.33840078 14:0.037453184 15:0.48380431 16:0.55555556 17:0.28571429 18:0.30769231 19:0.16666667 20:0.5556914 21:0.41267565 22:0.37366982 23:0.11085093 24:0.0034470214 25:0.48713633 26:1 27:0.3380089 28:0.47021638 29:0.63964634 30:0.2620336 31:0.55466174 32:0.6602671 33:0.4682108 34:0.041653901 35:0.33650647 36:0.047619048 38:0.33333333 39:0.16666667 40:0.35578089 41:0.31914894 42:0.16666667 44:0.28571429 45:0.26666667 51:0.66666667 55:0.57142857 56:0.5 57:0.18181818 58:0.4 
8 0:0.4374269 1:0.29878189 2:0.11111111 4:0.69109948 5:0.42948718 6:0.90909091 7:0.074074074 8:0.10416667 9:0.55092459 10:0.046572415 11:0.56836479 12:0.75806452 13:0.30688199 14:0.2247191 15:0.53995867 16:0.61111111 17:0.5 18:0.38461538 19:0.16666667 20:0.50802806 21:0.40728115 22:0.369864 23:0.11085093 24:0.11963348 25:0.46143976 26:0.69109986 27:0.40893926 28:0.3564318 29:0.61053076 30:0.33308739 31:0.55458018 32:0.62611478 33:0.36381465 34:0.041886253 35:0.35169496 36:0.19047619 37:0.11111111 38:0.41666667 39:0.16666667 40:0.33890836 41:0.27659574 42:0.083333333 44:0.14285714 45:0.33333333 49:0.2 50:0.33333333 51:0.5 53:0.25 55:0.28571429 56:0.5 58:0.2 59:0.16666667 
-8 0:0.51929825 1:0.36244541 2:0.14444444 4:0.31675393 5:0.65384615 6:0.90909091 7:0.28148148 8:0.20833333 9:0.46566128 10:0.12247676 11:0.59024088 12:0.19354839 13:0.012439213 14:0.018726592 15:0.41473528 16:0.33333333 17:0.21428571 18:0.38461538 19:0.33333333 20:0.4061949 21:0.33436709 22:0.0046044956 23:0.11085093 24:0.21605821 25:0.57843935 26:1 27:0.35403134 28:0.18512989 29:0.47173583 30:0.18876475 31:0.54574608 32:0.31636579 33:0.22764859 34:0.066120525 35:0.33008126 36:0.28571429 37:0.22222222 38:0.41666667 39:0.33333333 40:0.31022508 41:0.25531915 44:0.14285714 45:0.066666667 47:0.058823529 48:0.66666667 49:0.2 51:0.5 53:0.25 54:0.090909091 55:0.28571429 56:0.5 58:0.4 59:0.16666667 
-8 0:0.58128655 1:0.36626638 2:0.42222222 3:0.066666667 4:0.28534031 5:0.57371795 6:0.81818182 7:0.27037037 8:0.125 9:0.51327495 10:0.38159491 11:0.44746468 12:0.070967742 13:0.37335769 14:0.082397004 15:0.27756059 16:0.27777778 17:0.21428571 18:0.23076923 19:0.16666667 20:0.25854258 21:0.26333375 22:0.32925631 24:0.099149669 25:0.48482917 26:0.56000288 27:0.40557274 28:3.9044381e-016 29:0.41937759 30:0.32882128 31:0.45728775 32:0.16597709 33:0.37822258 34:0.1001676 35:0.13080372 36:0.19047619 37:0.11111111 38:0.25 39:0.16666667 40:0.16118992 41:0.12765957 42:0.083333333 45:0.13333333 46:0.25 49:0.2 50:0.66666667 53:0.25 58:0.4 59:0.16666667 
-8 0:0.77309942 1:0.68804585 2:0.7 3:0.066666667 4:0.17277487 5:0.64102564 6:0.84545455 7:0.88518519 8:0.44791667 9:0.39475387 10:0.54171112 12:0.0093548387 13:0.0013411436 14:0.01835206 15:0.13270691 16:0.055555556 18:0.23076923 19:0.16666667 20:0.37040387 21:0.5800003 22:0.46798374 25:0.6595261 26:0.69788231 27:0.69836997 28:0.2801457 29:0.30908118 30:0.52757688 32:0.037995547 33:0.010585858 34:0.050207594 35:0.10419619 36:0.047619048 38:0.25 39:0.16666667 40:0.050535662 41:0.042553191 42:0.16666667 44:0.14285714 46:0.25 49:0.2 50:0.33333333 51:0.16666667 57:0.090909091 
8 0:0.77660819 1:0.63973799 2:0.42222222 3:0.066666667 4:0.23298429 5:0.84615385 6:0.81818182 7:0.66296296 8:0.16666667 9:0.85593247 10:0.2791356 11:0.70298012 12:0.26129032 13:0.70214321 14:0.13857678 15:0.19518597 16:0.16666667 17:0.14285714 18:0.38461538 19:0.33333333 20:0.4423632 21:0.50995715 22:0.32925631 24:0.081775706 25:0.64376389 26:0.56000288 27:0.6030654 28:0.39923376 29:0.68304811 30:0.33499884 31:0.54627025 32:0.09316359 33:0.51672636 34:0.0065117931 35:0.092762525 36:0.095238095 38:0.41666667 39:0.33333333 40:0.18019199 41:0.12765957 42:0.083333333 44:0.14285714 45:0.066666667 46:0.5 50:0.33333333 52:0.25 53:0.125 58:0.2 59:0.5 
8 0:0.47251462 1:0.2139738 2:0.11111111 3:0.066666667 4:0.41099476 5:0.3525641 6:0.50909091 7:0.34444444 8:0.16666667 9:0.62842634 10:0.046572415 11:0.71801313 12:0.35806452 13:0.75538141 14:0.14606742 15:0.32720876 16:0.38888889 17:0.28571429 18:0.15384615 20:0.30765598 21:0.32922687 22:0.369864 24:0.10395701 25:0.46720391 26:0.50659283 27:0.56089343 28:0.39516758 29:0.65009835 30:0.31561544 31:0.6055021 32:0.33045475 33:0.53616605 34:0.32890472 35:0.17023223 36:0.14285714 38:0.25 39:0.16666667 40:0.15614455 41:0.12765957 42:0.083333333 45:0.2 49:0.2 50:0.33333333 51:0.16666667 53:0.25 55:0.28571429 60:0.5 
8 0:0.81754386 1:0.67295696 2:0.42222222 3:0.066666667 4:0.14659686 5:0.84294872 6:0.75454545 7:0.54444444 8:0.20833333 9:0.78275498 10:0.47054988 11:0.44682318 12:0.32258065 13:0.38904874 14:0.29962547 15:0.16354853 16:0.11111111 17:0.071428571 18:0.30769231 20:0.51199982 21:0.5286499 22:0.32925631 24:0.082852925 25:0.74544899 26:0.54221467 27:0.4774376 28:0.2801457 29:0.75924307 30:0.42920288 31:0.46465652 32:0.68194703 33:0.4067649 34:0.70938402 35:0.27237334 36:0.095238095 38:0.33333333 40:0.18405792 41:0.17021277 42:0.33333333 45:0.066666667 47:0.058823529 49:0.2 50:0.33333333 51:0.5 55:0.14285714 57:0.090909091 58:0.2 
-8 0:0.78362573 1:0.67379913 2:0.92222222 3:0.066666667 4:0.2565445 5:0.74038462 6:0.94545455 7:0.53333333 8:0.4375 9:0.84571784 10:0.43012916 12:0.0093548387 13:0.0013411436 14:0.01835206 15:0.25894951 16:0.055555556 18:0.30769231 19:0.33333333 20:0.39350088 21:0.51723356 22:1 24:0.071335204 25:0.71705162 26:1 27:0.2993533 28:0.42586709 29:0.66982698 30:0.39850568 32:0.037995547 33:0.010585858 34:0.050207594 35:0.11796469 36:0.095238095 38:0.33333333 39:0.33333333 40:0.12423418 41:0.085106383 42:0.16666667 44:0.14285714 48:0.33333333 50:0.33333333 51:0.33333333 54:0.090909091 59:0.33333333 
-8 0:0.44327485 1:0.26187227 2:0.42222222 4:0.19895288 5:0.5 6:0.5 7:0.074074074 8:0.10416667 9:0.42091907 10:0.010895875 11:0.43447987 12:0.37096774 13:0.23694468 14:0.018726592 15:0.27264604 16:0.38888889 17:0.35714286 18:0.23076923 20:0.38031474 21:0.34009165 22:0.32925631 23:0.11085093 24:0.019955736 25:0.39603899 26:0.47854789 27:0.2842146 28:0.3564318 29:0.53420591 30:0.3290918 31:0.49767632 32:0.16356504 33:0.21883289 34:0.083562426 35:0.19156999 36:0.14285714 37:0.11111111 38:0.25 40:0.25038496 41:0.21276596 44:0.14285714 45:0.26666667 51:0.33333333 53:0.25 54:0.090909091 56:0.5 57:0.090909091 58:0.6 59:0.16666667 
8 0:0.70643275 1:0.54267566 2:1 3:0.066666667 4:0.39005236 5:0.47115385 6:0.87272727 7:0.6 8:0.20833333 9:0.75803379 10:0.20229111 11:0.75710206 12:0.090322581 13:0.85376305 14:0.11235955 15:0.31492237 16:0.22222222 17:0.14285714 18:0.38461538 19:0.33333333 20:0.47953852 21:0.60343313 22:0.8012479 24:0.082852925 25:0.61387302 26:1 27:0.74908399 28:0.5468566 29:0.66782122 30:0.37493894 31:0.67654958 32:0.0014342459 33:0.76891847 34:0.0031808996 35:0.24195659 36:0.047619048 38:0.41666667 39:0.33333333 40:0.16430233 41:0.10638298 44:0.14285714 46:0.25 49:0.4 50:0.33333333 51:0.33333333 55:0.42857143 58:0.2 
-1.440076728460177 0:0.61754386 1:0.48527962 2:0.45555556 3:0.066666667 4:0.45287958 5:0.55128205 6:0.75454545 7:0.41851852 8:0.20833333 9:0.66509389 10:0.23053346 11:0.48265418 12:0.58387097 13:0.10966441 14:0.059925094 15:0.66467944 16:0.33333333 17:0.14285714 18:0.46153846 20:0.63929854 21:0.34885888 22:0.16867106 24:0.10439788 25:0.41569009 26:0.42284354 27:0.33147347 28:0.46035609 29:0.5747524 30:0.28585952 31:0.53101267 32:0.52231337 33:0.0036104139 34:0.010793012 35:0.33785188 36:0.23809524 38:0.58333333 40:0.59668119 41:0.53191489 42:0.16666667 44:0.28571429 45:0.066666667 47:0.17647059 49:0.8 50:0.33333333 51:0.16666667 52:0.25 53:0.125 54:0.27272727 55:0.28571429 57:0.27272727 58:0.8 59:0.16666667 60:0.5 61:0.33333333 
-8 0:0.74385965 1:0.57462111 2:0.92222222 4:0.36125654 5:0.78846154 6:0.90909091 7:0.34074074 8:0.20833333 9:0.78857054 10:0.25234425 11:0.5693892 12:0.4516129 13:0.48237413 14:0.15355805 15:0.40261644 16:0.22222222 17:0.071428571 18:0.46153846 19:0.5 20:0.66459026 21:0.59402891 22:1 23:0.11085093 24:0.040354059 25:0.8491788 26:1 27:0.43331124 28:0.63192748 29:0.77230192 30:0.40933626 31:0.63451424 32:0.30952695 33:0.31091676 34:0.013576535 35:0.15363486 36:0.047619048 38:0.5 39:0.5 40:0.3076041 41:0.23404255 42:0.16666667 44:0.14285714 45:0.13333333 51:0.66666667 54:0.18181818 55:0.14285714 56:0.5 57:0.090909091 58:0.2 59:0.33333333 
8 0:0.60818713 1:0.4217093 2:1 3:0.066666667 4:0.15706806 5:0.45512821 6:0.97272727 7:0.25555556 8:0.16666667 9:0.56256987 10:0.27127211 11:0.21601594 12:0.49354839 13:0.063871145 14:0.27715356 15:0.21417402 16:0.22222222 17:0.071428571 18:0.23076923 19:0.16666667 20:0.21318277 21:0.18501392 22:0.8012479 24:0.089839959 25:0.1883128 26:0.52007915 27:0.26394331 28:0.18021039 29:0.34042259 30:0.20394224 31:0.24998513 32:0.27221806 33:0.14079424 34:0.080296335 35:0.072073075 36:0.23809524 37:0.11111111 38:0.25 39:0.16666667 40:0.17906169 41:0.17021277 42:0.083333333 44:0.14285714 47:0.058823529 49:0.2 50:0.66666667 53:0.25 57:0.18181818 58:0.2 59:0.33333333 61:0.33333333 
-0.4837215406985796 0:0.62222222 1:0.38864629 2:0.11111111 4:0.20942408 5:0.55448718 6:0.90909091 7:0.21481481 8:0.40625 9:0.16624669 10:0.23444347 12:0.0093548387 13:0.0013411436 14:0.01835206 15:0.16070032 16:0.16666667 18:0.23076923 19:0.33333333 20:0.36787323 21:0.51994412 22:0.22275764 23:0.11085093 24:0.051464955 25:0.6296814 26:1 27:0.45823388 28:0.65894478 29:0.18982953 30:0.37678407 32:0.037995547 33:0.010585858 34:0.050207594 35:0.07151534 36:0.095238095 38:0.25 39:0.33333333 40:0.10133342 41:0.063829787 45:0.13333333 51:0.33333333 53:0.125 54:0.18181818 56:0.5 59:0.16666667 
-8 0:0.6502924 1:0.50031192 2:0.92222222 3:0.066666667 4:0.53141361 5:0.59615385 6:0.90909091 7:0.29259259 8:0.20833333 9:0.73448865 10:0.24708922 11:0.68281109 12:0.41612903 13:0.18664956 14:0.0037453184 15:0.71156316 16:0.38888889 17:0.071428571 18:0.69230769 19:0.5 20:0.779361 21:0.4581748 22:1 24:0.12473299 25:0.70298473 26:0.86890302 27:0.30390067 28:0.41820759 29:0.63881912 30:0.40966449 31:0.64421867 32:0.3646992 33:0.14042499 34:0.00042289472 35:0.41706168 36:0.23809524 37:0.11111111 38:0.75 39:0.5 40:0.58157783 41:0.46808511 42:0.083333333 44:0.14285714 45:0.13333333 46:0.25 47:0.058823529 49:0.2 50:0.33333333 51:0.66666667 53:0.25 54:0.45454545 55:0.14285714 56:0.5 57:0.27272727 58:0.2 59:0.5 
8 0:0.68070175 1:0.50722204 2:0.41111111 4:0.10994764 5:0.57051282 6:0.63636364 7:0.47407407 8:0.48958333 9:0.54883112 10:0.38533106 11:0.38318775 12:0.53225806 13:0.17842661 14:0.19850187 15:0.26495309 16:0.055555556 18:0.30769231 19:0.16666667 20:0.25550548 21:0.24548814 22:0.26220726 23:0.11085093 24:0.082282453 25:0.22345896 26:0.16964774 27:0.40333878 28:0.53199217 29:0.32229788 30:0.42411644 31:0.17700077 32:0.1751281 33:0.047519003 34:0.047854264 35:0.055812142 36:0.14285714 38:0.16666667 40:0.14944468 41:0.14893617 43:0.33333333 45:0.066666667 47:0.11764706 54:0.18181818 56:0.5 57:0.090909091 58:0.2 59:0.33333333 61:0.33333333 
-8 0:0.75672515 1:0.60547531 2:0.92222222 4:0.37434555 5:0.61858974 6:0.97272727 7:0.43703704 8:0.10416667 9:0.81829699 10:0.36606084 11:0.60224778 12:0.31935484 13:0.35168087 14:0.34082397 15:0.33562772 16:0.16666667 17:0.071428571 18:0.38461538 19:0.33333333 20:0.50395682 21:0.55318232 22:1 23:0.11085093 24:0.0087049089 25:0.60713136 26:1 27:0.37934727 28:0.51766837 29:0.64466327 30:0.46708293 31:0.41461943 32:0.34739344 33:0.1204032 34:0.1209869 35:0.092410898 36:0.047619048 38:0.41666667 39:0.33333333 40:0.19567212 41:0.14893617 42:0.083333333 44:0.28571429 45:0.066666667 49:0.2 51:0.33333333 56:0.5 57:0.090909091 58:0.4 59:0.33333333 
8 0:0.64912281 1:0.48598023 2:0.11111111 4:0.14136126 5:0.59935897 6:0.87272727 7:0.34074074 8:0.20833333 9:0.62374034 10:0.28682522 11:0.31162524 12:0.26451613 13:0.076024724 14:0.074906367 15:0.29948062 16:0.22222222 17:0.071428571 18:0.30769231 19:0.16666667 20:0.56887277 21:0.45883849 22:0.37366982 23:0.11085093 24:0.082852925 25:0.64999527 26:1 27:0.42566714 28:0.3985803 29:0.61223487 30:0.29045241 31:0.54972359 32:0.31458143 33:0.22245126 34:0.0024684573 35:0.20067035 36:0.095238095 38:0.41666667 39:0.33333333 40:0.30329588 41:0.27659574 42:0.25 44:0.14285714 45:0.13333333 47:0.058823529 51:0.5 54:0.090909091 55:0.14285714 56:0.5 57:0.27272727 59:0.16666667 60:0.5 61:0.33333333 
-8 0:0.64444444 1:0.46036278 2:0.92222222 3:0.066666667 4:0.31413613 5:0.51923077 6:0.90909091 7:0.54074074 8:0.16666667 9:0.74141559 10:0.2351907 11:0.76108124 12:0.14193548 13:0.48440356 14:0.16104869 15:0.23239417 16:0.27777778 17:0.21428571 18:0.23076923 19:0.16666667 20:0.34380357 21:0.35484077 22:1 24:0.0087049089 25:0.38212185 26:0.69109986 27:0.46839216 28:0.39923376 29:0.55447948 30:0.37275444 31:0.41033492 32:0.17269337 33:0.14920904 34:0.08633049 35:0.052810487 36:0.047619048 38:0.25 39:0.16666667 40:0.1761131 41:0.14893617 42:0.25 44:0.14285714 45:0.066666667 50:0.33333333 51:0.16666667 55:0.42857143 58:0.2 59:0.33333333 
-7.017263612975455 0:0.77076023 1:0.59028384 2:0.11111111 4:0.29581152 5:0.75 6:0.90909091 7:0.56666667 8:0.40625 9:0.73302968 10:0.32525968 11:0.48136287 12:0.5516129 13:0.11207868 14:0.014981273 15:0.49449905 16:0.16666667 18:0.53846154 19:0.33333333 20:0.63782554 21:0.49541484 22:0.37366982 23:0.11085093 24:0.31167547 25:0.6042127 26:0.69109986 27:0.27740626 28:0.36042077 29:0.65815968 30:0.28251725 31:0.66085262 32:0.59843912 33:0.21766262 34:0.058716395 35:0.56007463 36:0.23809524 37:0.11111111 38:0.58333333 39:0.33333333 40:0.34760672 41:0.29787234 42:0.083333333 44:0.14285714 46:0.25 47:0.11764706 48:0.33333333 51:0.66666667 52:0.25 53:0.125 54:0.18181818 55:0.14285714 56:0.5 57:0.18181818 59:0.33333333 
5.120395407523766 0:0.65847953 1:0.47850185 2:0.41111111 4:0.047120419 5:0.46153846 6:0.5 7:0.41851852 8:0.23958333 9:0.58555932 10:0.32036606 11:0.30319826 12:0.4483871 13:0.24253491 14:0.46441948 15:0.22329108 16:0.055555556 18:0.15384615 20:0.20405204 21:0.18176571 22:0.26220726 23:0.11085093 24:0.06367133 25:0.27571735 26:0.42284354 27:0.13103794 28:0.2429167 29:0.34896449 30:0.16075561 31:0.19516936 32:0.49462876 33:0.17525322 34:0.4215521 35:0.17655663 36:0.23809524 37:0.33333333 38:0.16666667 40:0.12896832 41:0.14893617 42:0.16666667 47:0.11764706 48:0.33333333 51:0.16666667 53:0.125 56:0.5 57:0.090909091 58:0.6 59:0.16666667 
-8 0:0.65847953 1:0.44732533 2:0.11111111 4:0.33769634 5:0.6025641 6:0.93636364 7:0.42222222 8:0.10416667 9:0.39475387 10:0.54171112 12:0.0093548387 13:0.0013411436 14:0.01835206 15:0.25695298 16:0.16666667 17:0.071428571 18:0.23076923 19:0.16666667 20:0.33003085 21:0.49875045 22:0.369864 23:0.11085093 24:0.0082543574 25:0.51454395 26:0.82897929 27:0.45950409 28:0.51360218 29:0.30908118 30:0.52757688 32:0.037995547 33:0.010585858 34:0.050207594 35:0.089507022 36:0.047619048 38:0.25 39:0.16666667 40:0.060970416 41:0.042553191 45:0.2 49:0.2 51:0.16666667 56:0.5 57:0.090909091 59:0.16666667 
-8 0:0.45964912 1:0.12947598 2:0.11111111 4:0.12041885 5:0.21153846 6:0.2 7:0.34074074 8:0.10416667 9:0.39171999 10:0.21423311 12:0.0093548387 13:0.0013411436 14:0.01835206 15:0.13632302 16:0.22222222 17:0.14285714 18:0.076923077 20:0.20322068 21:0.21088567 22:0.37366982 23:0.11085093 24:0.084632244 25:0.25847782 26:0.32996316 27:0.45070512 28:0.42586709 29:0.37804882 30:0.48157827 32:0.037995547 33:0.010585858 34:0.050207594 35:0.11327168 36:0.095238095 38:0.083333333 40:0.085198047 41:0.085106383 42:0.083333333 44:0.42857143 46:0.25 48:0.33333333 54:0.18181818 55:0.14285714 56:0.5 
8 0:0.5625731 1:0.32294561 2:0.41111111 3:0.066666667 4:0.19109948 5:0.47115385 6:0.93636364 7:0.074074074 8:0.20833333 9:0.48407187 10:0.17900491 11:0.34710827 12:0.35806452 13:0.39215066 14:0.42322097 15:0.12798783 16:0.27777778 17:0.28571429 18:0.23076923 19:0.33333333 20:0.34471147 21:0.40609745 22:0.26220726 24:0.073070797 25:0.62402203 26:0.86890302 27:0.37946496 28:0.46035609 29:0.43411129 30:0.4300364 31:0.24732245 32:0.15737369 33:0.28780527 34:0.20375681 35:0.091895029 36:0.095238095 38:0.25 39:0.33333333 40:0.10734528 41:0.10638298 44:0.14285714 45:0.26666667 46:0.25 47:0.058823529 49:0.2 50:0.33333333 51:0.16666667 57:0.090909091 
8 0:0.69356725 1:0.52183406 2:0.45555556 3:0.066666667 4:0.11780105 5:0.69230769 6:0.97272727 7:0.64074074 8:0.16666667 9:0.49127159 10:0.67149598 12:0.0093548387 13:0.0013411436 14:0.01835206 15:0.13776109 16:0.11111111 17:0.14285714 18:0.23076923 19:0.16666667 20:0.25579194 21:0.31944527 22:0.16867106 24:0.14217661 25:0.50039894 26:0.52007915 27:0.52335298 28:0.2734283 29:0.28014375 30:0.49098571 32:0.037995547 33:0.010585858 34:0.050207594 35:0.17174855 36:0.14285714 38:0.25 39:0.16666667 40:0.072699276 41:0.063829787 47:0.058823529 49:0.2 50:0.33333333 51:0.16666667 53:0.125 55:0.14285714 57:0.090909091 58:0.2 59:0.16666667 
-8 0:0.59532164 1:0.42153384 2:0.42222222 3:0.066666667 4:0.29319372 5:0.46153846 6:0.5 7:0.48888889 8:0.40625 9:0.73771568 10:0.21425215 11:0.64819813 12:0.3516129 13:0.50623849 14:0.059925094 15:0.41631297 16:0.22222222 18:0.30769231 20:0.36072967 21:0.32038438 22:0.32925631 24:0.015598952 25:0.38727437 26:0.32668836 27:0.35040109 28:0.35178178 29:0.48685763 30:0.23076048 31:0.51016293 32:0.24256619 33:0.2514558 34:0.027922903 35:0.11270192 36:0.095238095 38:0.33333333 40:0.25040134 41:0.21276596 44:0.42857143 45:0.066666667 46:0.25 47:0.058823529 50:0.33333333 54:0.090909091 57:0.090909091 58:0.6 59:0.5 61:0.33333333 
-6.666887092338008 0:0.50643275 1:0.32819323 2:0.14444444 3:0.066666667 4:0.19371728 5:0.48397436 6:0.6 7:0.2 8:0.36458333 9:0.54250635 10:0.18278452 11:0.55219731 12:0.4 13:0.033331415 14:0.11235955 15:0.28343851 16:0.22222222 18:0.23076923 20:0.26933153 21:0.22841597 22:0.0046044956 24:0.32626543 25:0.43917848 26:0.41111769 27:0.31839601 28:0.42094758 29:0.55912866 30:0.17131863 31:0.62139875 32:0.68030399 33:0.041629052 34:0.064912847 35:0.41470032 36:0.23809524 38:0.25 40:0.21107034 41:0.21276596 42:0.083333333 44:0.28571429 46:0.5 47:0.058823529 48:0.33333333 50:0.66666667 51:0.16666667 53:0.125 54:0.18181818 57:0.27272727 
-8 0:0.56608187 1:0.39082969 2:0.7 3:0.066666667 4:0.29842932 5:0.49038462 6:0.52727273 7:0.35925926 8:0.20833333 9:0.58843877 10:0.19412873 11:0.59546638 12:0.24516129 13:0.49235124 14:0.014981273 15:0.35442031 16:0.22222222 17:0.071428571 18:0.23076923 20:0.42047561 21:0.3805031 22:0.46798374 24:0.10221818 25:0.48909475 26:0.5497774 27:0.42400039 28:0.42094758 29:0.54454612 30:0.33951904 31:0.55343565 32:0.18264583 33:0.36084161 34:0.013849235 35:0.24264765 36:0.14285714 38:0.25 40:0.25334993 41:0.21276596 42:0.083333333 44:0.14285714 45:0.066666667 49:0.2 50:0.33333333 51:0.33333333 53:0.25 54:0.090909091 57:0.18181818 58:0.4 61:0.66666667 
-8 0:0.62339181 1:0.46648472 2:0.7 4:0.59162304 5:0.66346154 6:0.55454545 7:0.44074074 8:0.20833333 9:0.71048478 10:0.14388268 11:0.5366441 12:0.43225806 13:0.17588548 14:0.048689139 15:0.70407964 16:0.33333333 17:0.14285714 18:0.46153846 20:0.67456285 21:0.52498806 22:0.46798374 23:0.11085093 24:0.22585805 25:0.61541504 26:0.5497774 27:0.606899 28:0.47021638 29:0.66032983 30:0.29451847 31:0.5021707 32:0.5874853 33:0.16530925 34:0.028351501 35:0.42340377 36:0.14285714 38:0.5 40:0.38151558 41:0.29787234 42:0.083333333 45:0.33333333 47:0.058823529 49:0.4 51:0.5 53:0.125 54:0.27272727 56:0.5 58:0.2 59:0.16666667 61:0.33333333 
6.467960521608233 0:0.4994152 1:0.19628821 2:0.96666667 4:0.20942408 5:0.14423077 6:0.40909091 7:0.14444444 8:0.20833333 9:0.46260604 10:0.26937278 12:0.0093548387 13:0.0013411436 14:0.01835206 15:0.19235173 16:0.27777778 17:0.21428571 18:0.15384615 20:0.28313193 21:0.33954142 22:0.641011 23:0.11085093 24:0.10221818 25:0.3017323 26:0.5497774 27:0.39282017 28:0.4759944 29:0.45948958 30:0.51420994 32:0.037995547 33:0.010585858 34:0.050207594 35:0.11270443 36:0.14285714 37:0.11111111 38:0.16666667 40:0.10739442 41:0.085106383 44:0.14285714 45:0.13333333 51:0.16666667 53:0.25 54:0.090909091 56:0.5 59:0.16666667 61:0.33333333 
-8 0:0.66783626 1:0.47925764 2:0.92222222 3:0.066666667 4:0.20942408 5:0.44871795 6:0.5 7:0.51851852 8:0.36458333 9:0.42648002 10:0.30684267 12:0.0093548387 13:0.0013411436 14:0.01835206 15:0.22734 16:0.11111111 18:0.23076923 20:0.34102169 21:0.43274296 22:1 24:0.097410841 25:0.4425996 26:0.45778533 27:0.45344281 28:0.42094758 29:0.34730369 30:0.2964687 32:0.037995547 33:0.010585858 34:0.050207594 35:0.19160544 36:0.095238095 38:0.25 40:0.10826262 41:0.085106383 44:0.14285714 45:0.066666667 47:0.058823529 50:0.33333333 51:0.33333333 54:0.090909091 58:0.4 59:0.16666667 
8 0:0.61871345 1:0.46568933 2:0.11111111 3:0.066666667 4:0.65706806 5:0.55769231 6:0.84545455 7:0.46296296 8:0.20833333 9:0.61740141 10:0.34053295 11:0.36054247 12:0.32903226 13:0.081577244 14:0.033707865 15:0.56603932 16:0.38888889 17:0.14285714 18:0.46153846 19:0.16666667 20:0.58161675 21:0.43255154 22:0.22275764 24:0.19147045 25:0.58652159 26:0.69788231 27:0.48674102 28:0.4759944 29:0.58756573 30:0.3840553 31:0.3402084 32:0.43394955 33:0.044345431 34:0.019205387 35:0.38142479 36:0.19047619 37:0.11111111 38:0.5 39:0.16666667 40:0.36574059 41:0.31914894 42:0.16666667 44:0.14285714 45:0.2 46:0.5 49:0.2 50:0.33333333 51:0.33333333 53:0.375 57:0.27272727 58:0.4 59:0.16666667 
8 0:0.70994152 1:0.54279476 2:0.96666667 3:0.066666667 4:0.45811518 5:0.55769231 6:0.57272727 7:0.57407407 8:0.20833333 9:0.69076884 10:0.26864459 11:0.76044 12:0.21290323 13:0.6085128 14:0.16479401 15:0.48133307 16:0.22222222 17:0.071428571 18:0.38461538 20:0.3184353 21:0.29099869 22:0.641011 24:0.11879386 25:0.28090155 26:0.19412897 27:0.44308021 28:0.46035609 29:0.48691405 30:0.28894969 31:0.57687539 32:0.22910158 33:0.37678197 34:0.15918374 35:0.20216391 36:0.14285714 38:0.33333333 40:0.21033319 41:0.19148936 42:0.083333333 43:0.16666667 45:0.066666667 47:0.058823529 49:0.4 50:0.33333333 53:0.125 55:0.28571429 57:0.18181818 58:0.2 59:0.33333333 
8 0:0.56959064 1:0.3636211 2:0.92222222 4:0.20942408 5:0.43910256 6:0.90909091 7:0.27777778 8:0.20833333 9:0.5832254 10:0.19071052 11:0.52777968 12:0.28387097 13:0.528348 14:0.037453184 15:0.21910254 16:0.22222222 17:0.071428571 18:0.23076923 19:0.16666667 20:0.35445411 21:0.36803092 22:1 23:0.11085093 24:0.051464955 25:0.33379846 26:0.69109986 27:0.36249856 28:0.46035609 29:0.38222335 30:0.33392818 31:0.32178966 32:0.4630227 33:0.24050749 34:0.10764508 35:0.12837541 36:0.095238095 38:0.25 39:0.16666667 40:0.16733283 41:0.14893617 44:0.14285714 45:0.13333333 47:0.058823529 51:0.33333333 54:0.090909091 55:0.14285714 56:0.5 57:0.090909091 58:0.4 59:0.16666667 
-8 0:0.61871345 1:0.46255459 2:0.45555556 3:0.066666667 4:0.55759162 5:0.48076923 6:0.93636364 7:0.41851852 8:0.16666667 9:0.76829891 10:0.22004245 11:0.74240485 12:0.23548387 13:0.16037885 14:0.0037453184 15:0.55999386 16:0.33333333 17:0.071428571 18:0.46153846 19:0.16666667 20:0.45762032 21:0.35035117 22:0.16867106 24:0.17525279 25:0.49678996 26:0.82897929 27:0.36591363 28:0.39516758 29:0.69381673 30:0.31868141 31:0.69807037 32:0.32725976 33:0.19820254 34:0.013278875 35:0.33947012 36:0.23809524 38:0.5 39:0.16666667 40:0.30925859 41:0.29787234 42:0.083333333 44:0.28571429 45:0.2 46:0.5 47:0.17647059 48:0.33333333 49:0.2 50:0.33333333 51:0.16666667 55:0.14285714 57:0.090909091 58:0.2 59:0.33333333 
-8 0:0.70292398 1:0.53452511 2:0.92222222 4:0.2382199 5:0.64102564 6:1 7:0.44444444 8:0.23958333 9:0.79147832 10:0.24565728 11:0.90182498 12:0.3516129 13:0.44846926 14:0.093632959 15:0.36751647 16:0.11111111 18:0.38461538 19:0.16666667 20:0.44180025 21:0.40196079 22:1 23:0.11085093 24:0.21983309 25:0.52569463 26:0.65795858 27:0.34238389 28:0.2429167 29:0.58531509 30:0.25579687 31:0.74527821 32:0.35532969 33:0.35516961 34:0.05614932 35:0.23800484 36:0.23809524 37:0.11111111 38:0.41666667 39:0.16666667 40:0.2630803 41:0.21276596 42:0.083333333 46:0.25 47:0.058823529 48:0.33333333 49:0.4 51:0.16666667 53:0.25 54:0.18181818 56:0.5 57:0.090909091 58:0.2 59:0.16666667 61:0.33333333 
-8 0:0.59649123 1:0.31713974 2:0.14444444 3:0.066666667 4:0.14659686 5:0.40384615 6:0.46363636 7:0.40740741 8:0.16666667 9:0.39475387 10:0.54171112 12:0.0093548387 13:0.0013411436 14:0.01835206 15:0.18151737 16:0.11111111 17:0.071428571 18:0.15384615 20:0.21607427 21:0.26941526 22:0.0046044956 24:0.10280866 25:0.38952939 26:0.42284354 27:0.46036255 28:0.39516758 29:0.30908118 30:0.52757688 32:0.037995547 33:0.010585858 34:0.050207594 35:0.21564159 36:0.14285714 38:0.16666667 40:0.041444157 41:0.042553191 45:0.13333333 46:0.25 47:0.058823529 48:0.33333333 50:0.33333333 51:0.16666667 58:0.2 
8 0:0.49824561 1:0.15720524 2:0.11111111 3:0.066666667 4:0.20942408 5:0.24679487 6:0.90909091 7:0.07037037 8:0.16666667 9:0.021114253 10:0.039287661 12:0.0093548387 13:0.0013411436 14:0.01835206 15:0.11856361 16:0.27777778 17:0.21428571 18:0.15384615 19:0.16666667 20:0.16436184 21:0.15588871 22:0.369864 24:0.03301743 25:0.27294301 26:0.69109986 27:0.21517025 28:0.2734283 29:0.062643399 30:0.21595819 32:0.037995547 33:0.010585858 34:0.050207594 35:0.13133442 36:0.14285714 38:0.16666667 39:0.16666667 40:0.084575566 41:0.063829787 45:0.2 48:0.33333333 50:0.66666667 51:0.16666667 55:0.14285714 59:0.16666667 
-6.782766290143885 0:0.82573099 1:0.67248908 2:0.81111111 3:0.066666667 4:0.20942408 5:0.86217949 6:0.94545455 7:0.45185185 8:0.5 9:0.74556406 10:0.49022497 11:0.53368563 12:0.22258065 13:0.50409255 14:0.074906367 15:0.2951385 16:0.055555556 18:0.46153846 19:0.33333333 20:0.48071162 21:0.46517343 22:0.84764535 24:0.18253067 25:0.57641172 26:0.82897929 27:0.38953359 28:0.62521008 29:0.55434976 30:0.41493301 31:0.53167589 32:0.3909956 33:0.2499032 34:0.0036585992 35:0.26775943 36:0.095238095 38:0.5 39:0.33333333 40:0.26057399 41:0.19148936 46:0.25 47:0.058823529 49:0.4 50:0.33333333 51:0.16666667 54:0.090909091 55:0.14285714 57:0.090909091 58:0.8 59:0.33333333 
-8 0:0.66783626 1:0.50605399 2:0.42222222 3:0.066666667 4:0.38219895 5:0.66987179 6:0.90909091 7:0.44814815 8:0.16666667 9:0.7974515 10:0.09750318 11:0.70230158 12:0.27096774 13:0.33964996 14:0.0074906367 15:0.41720652 16:0.33333333 17:0.21428571 18:0.53846154 19:0.5 20:0.69579426 21:0.50009357 22:0.32925631 24:0.091107282 25:0.56963093 26:0.69109986 27:0.47655326 28:0.39516758 29:0.66313953 30:0.31407239 31:0.53876939 32:0.38031196 33:0.028510969 34:0.030247681 35:0.43903419 36:0.095238095 38:0.58333333 39:0.5 40:0.42499099 41:0.34042553 42:0.083333333 45:0.26666667 46:0.25 50:0.33333333 51:0.66666667 53:0.125 55:0.14285714 57:0.27272727 58:0.6 59:0.33333333 61:0.33333333 
8 0:0.61637427 1:0.39279476 2:0.42222222 4:0.43193717 5:0.45192308 6:0.75454545 7:0.51851852 8:0.10416667 9:0.54584453 10:0.39330053 12:0.0093548387 13:0.0013411436 14:0.01835206 15:0.3138892 16:0.22222222 17:0.14285714 18:0.15384615 20:0.28344644 21:0.34004778 22:0.32925631 23:0.11085093 24:0.0082543574 25:0.36672537 26:0.37119396 27:0.49458501 28:0.51360218 29:0.37631159 30:0.47990109 32:0.037995547 33:0.010585858 34:0.050207594 35:0.051170491 36:0.047619048 38:0.16666667 40:0.097582151 41:0.085106383 42:0.16666667 45:0.2 49:0.2 55:0.14285714 56:0.5 58:0.2 59:0.16666667 
-8 0:0.65964912 1:0.43855271 2:0.11111111 3:0.066666667 4:0.2460733 5:0.47435897 6:0.69090909 7:0.60740741 8:0.5 9:0.39475387 10:0.54171112 12:0.0093548387 13:0.0013411436 14:0.01835206 15:0.17910198 16:0.11111111 18:0.15384615 20:0.29829445 21:0.48554507 22:0.37366982 24:0.082852925 25:0.49511568 26:0.54221467 27:0.61884528 28:0.75101555 29:0.30908118 30:0.52757688 32:0.037995547 33:0.010585858 34:0.050207594 35:0.17604758 36:0.047619048 38:0.16666667 40:0.026095076 41:0.021276596 42:0.083333333 44:0.28571429 46:0.25 50:0.33333333 51:0.16666667 58:0.2 
-8 0:0.59181287 1:0.40205864 2:0.42222222 4:0.41099476 5:0.31730769 6:0.81818182 7:0.45185185 8:0.10416667 9:0.67505391 10:0.19718554 11:0.53059002 12:0.40645161 13:0.3660507 14:0.32209738 15:0.34826315 16:0.33333333 17:0.28571429 18:0.38461538 19:0.33333333 20:0.47777081 21:0.48928695 22:0.32925631 23:0.11085093 24:0.0082543574 25:0.44309022 26:0.56000288 27:0.65955404 28:0.51360218 29:0.58313183 30:0.45895349 31:0.30431505 32:0.32317276 33:0.15091562 34:0.15589654 35:0.11090476 36:0.047619048 38:0.41666667 39:0.33333333 40:0.2279101 41:0.17021277 44:0.28571429 45:0.2 46:0.5 49:0.2 55:0.14285714 56:0.5 58:0.2 59:0.33333333 61:0.33333333 
-8 0:0.50175439 1:0.4225243 2:0.11111111 3:0.066666667 4:0.80628272 5:0.70512821 6:0.87272727 7:0.29259259 8:0.20833333 9:0.6978999 10:0.18654508 11:0.66705538 12:0.48064516 13:0.10369889 14:0.048689139 15:0.83136937 16:0.61111111 17:0.071428571 18:0.61538462 19:0.5 20:0.80349518 21:0.4341343 22:0.37366982 24:0.25400032 25:0.74801307 26:1 27:0.22056399 28:0.2783478 29:0.72662568 30:0.35034384 31:0.72119762 32:0.32495079 33:0.084721354 34:0.0056990368 35:0.50731535 36:0.23809524 38:0.66666667 39:0.5 40:0.59764768 41:0.53191489 42:0.25 44:0.57142857 45:0.26666667 46:0.25 47:0.17647059 48:0.33333333 50:0.33333333 51:0.83333333 54:0.27272727 55:0.42857143 58:0.2 59:0.33333333 
-8 0:0.52982456 1:0.24737991 2:0.41111111 4:0.31675393 5:0.37820513 6:0.55454545 7:0.31851852 8:0.10416667 9:0.31447685 10:0.1568708 12:0.0093548387 13:0.0013411436 14:0.01835206 15:0.25255501 16:0.16666667 17:0.071428571 18:0.15384615 20:0.16586534 21:0.1507442 22:0.26220726 23:0.11085093 24:0.068028592 25:0.39016401 26:0.46106014 27:0.40472514 28:0.18512989 29:0.23980053 30:0.20088993 32:0.037995547 33:0.010585858 34:0.050207594 35:0.16503932 36:0.23809524 37:0.33333333 38:0.16666667 40:0.068636766 41:0.085106383 44:0.28571429 47:0.058823529 48:0.66666667 49:0.2 51:0.16666667 53:0.125 56:0.5 57:0.090909091 
-8 0:0.66549708 1:0.4930131 2:0.42222222 3:0.066666667 4:0.14136126 5:0.65705128 6:0.90909091 7:0.45185185 8:0.20833333 9:0.63760839 10:0.50556613 11:0.35715049 12:0.28387097 13:0.29325917 14:0.0074906367 15:0.22391936 16:0.11111111 17:0.071428571 18:0.23076923 19:0.16666667 20:0.3278287 21:0.30108083 22:0.32925631 24:0.06196229 25:0.49048854 26:0.69109986 27:0.32994462 28:0.42586709 29:0.48710662 30:0.36754222 31:0.41801413 32:0.17551375 33:0.30298628 34:0.13165422 35:0.13197577 36:0.14285714 38:0.25 39:0.16666667 40:0.24232546 41:0.19148936 42:0.25 48:0.33333333 50:0.33333333 51:0.16666667 53:0.125 54:0.27272727 55:0.14285714 58:0.4 59:0.33333333 
-6.208260875540445 0:0.57894737 1:0.39606987 2:0.7 4:0.19895288 5:0.46153846 6:0.50909091 7:0.3 8:0.48958333 9:0.46881966 10:0.34621726 11:0.21962 12:0.71935484 13:0.073257869 14:0.41947566 15:0.26355691 16:0.16666667 18:0.076923077 20:0.23239573 21:0.19865053 22:0.46798374 23:0.11085093 24:0.16585315 25:0.34132051 26:0.46106014 27:0.18228224 28:0.28506521 29:0.33932004 30:0.1878307 31:0.46172976 32:0.42673876 33:0.23777753 34:0.18314494 35:0.17960525 36:0.23809524 37:0.11111111 38:0.083333333 40:0.15462111 41:0.19148936 42:0.25 44:0.14285714 45:0.066666667 47:0.11764706 48:0.33333333 51:0.16666667 52:0.25 53:0.125 56:0.5 57:0.090909091 58:0.4 
-8 0:0.60467836 1:0.44213974 2:0.11111111 4:0.61780105 5:0.61858974 6:0.94545455 7:0.28888889 8:0.20833333 9:0.68454106 10:0.24450518 11:0.64680371 12:0.3 13:0.37608229 14:0.056179775 15:0.54548755 16:0.38888889 17:0.21428571 18:0.46153846 19:0.33333333 20:0.52534206 21:0.44093648 22:0.369864 23:0.11085093 24:0.088962476 25:0.70663373 26:1 27:0.29095561 28:0.45363869 29:0.58202682 30:0.23875239 31:0.56230922 32:0.2763917 33:0.38027845 34:0.11638569 35:0.29456764 36:0.14285714 38:0.5 39:0.33333333 40:0.30060938 41:0.25531915 45:0.26666667 47:0.11764706 51:0.5 55:0.42857143 56:0.5 57:0.090909091 59:0.5 61:0.33333333 
-6.039409213841082 0:0.65964912 1:0.47598253 2:0.11111111 3:0.066666667 4:0.27225131 5:0.59935897 6:0.78181818 7:0.56296296 8:0.16666667 9:0.80293364 10:0.22350413 11:0.77053683 12:0.11935484 13:0.83820036 14:0.13108614 15:0.28669161 16:0.22222222 17:0.14285714 18:0.30769231 19:0.16666667 20:0.45204387 21:0.52294524 22:0.369864 24:0.1498043 25:0.64333766 26:0.86890302 27:0.63063032 28:0.39923376 29:0.7477227 30:0.28841139 31:0.7435578 32:0.12353213 33:0.70821485 34:0.062752077 35:0.23338085 36:0.14285714 38:0.33333333 39:0.16666667 40:0.14772467 41:0.12765957 42:0.083333333 44:0.28571429 45:0.066666667 46:0.25 47:0.058823529 49:0.2 50:0.33333333 51:0.33333333 53:0.125 54:0.090909091 
8 0:0.53450292 1:0.30076419 2:0.11111111 3:0.066666667 4:0.53403141 5:0.35897436 6:0.49090909 7:0.34444444 8:0.20833333 9:0.69097296 10:0.23489181 11:0.56273369 12:0.82580645 13:0.60925106 14:0.68913858 15:0.42577907 16:0.33333333 17:0.14285714 18:0.23076923 20:0.36861965 21:0.41101892 22:0.37366982 24:0.082852925 25:0.44344982 26:0.46106014 27:0.503051 28:0.18021039 29:0.74188475 30:0.23449206 31:0.72748377 32:0.6213978 33:0.72082287 34:0.70473803 35:0.25051536 36:0.095238095 37:0.11111111 38:0.25 40:0.14395702 41:0.12765957 44:0.14285714 45:0.26666667 47:0.058823529 49:0.2 50:0.33333333 51:0.33333333 55:0.14285714 58:0.2 
-3.388729517598968 0:0.59766082 1:0.41703057 2:0.35555556 3:0.066666667 4:0.28272251 5:0.37179487 6:0.72727273 7:0.51481481 8:0.45833333 9:0.58327189 10:0.39586553 11:0.30199225 12:0.6483871 13:0.15910959 14:0.4494382 15:0.29425891 16:0.16666667 18:0.23076923 20:0.37916906 21:0.35618557 22:0.47677279 24:0.0034470214 25:0.46934232 26:0.47854789 27:0.48605659 28:0.35178178 29:0.43059837 30:0.41702544 31:0.27414532 32:0.35267619 33:0.012460635 34:0.23565991 35:0.15534602 36:0.047619048 38:0.25 40:0.21721325 41:0.19148936 42:0.083333333 44:0.14285714 45:0.13333333 46:0.25 50:0.33333333 51:0.16666667 54:0.090909091 57:0.27272727 58:0.4 59:0.16666667 61:0.33333333 
-8 0:0.47251462 1:0.2768559 2:0.11111111 3:0.066666667 4:0.41884817 5:0.34615385 6:0.49090909 7:0.28148148 8:0.10416667 9:0.62931545 10:0.044243794 11:0.68989958 12:0.38064516 13:0.71179539 14:0.08988764 15:0.39573327 16:0.33333333 17:0.14285714 18:0.23076923 20:0.29109009 21:0.26164847 22:0.22275764 24:0.05250599 25:0.36427855 26:0.46106014 27:0.39997186 28:0.2801457 29:0.52442413 30:0.25323189 31:0.5757308 32:0.28310753 33:0.46034126 34:0.041737782 35:0.15014268 36:0.14285714 38:0.25 40:0.2255676 41:0.19148936 44:0.14285714 45:0.2 50:0.33333333 51:0.16666667 53:0.125 54:0.18181818 56:0.5 57:0.18181818 58:0.2 59:0.33333333 
-8 0:0.66666667 1:0.51135371 2:0.7 4:0.2513089 5:0.76282051 6:0.90909091 7:0.34074074 8:0.36458333 9:0.80873103 10:0.18590383 11:0.61350499 12:0.30322581 13:0.10720489 14:0.0037453184 15:0.47954596 16:0.33333333 18:0.53846154 19:0.33333333 20:0.7027912 21:0.39188696 22:0.46798374 23:0.11085093 24:0.25098541 25:0.58537254 26:0.69109986 27:0.36173127 28:0.2801457 29:0.63409121 30:0.31335006 31:0.5226998 32:0.43359132 33:0.07663661 34:0.025011577 35:0.38782615 36:0.23809524 38:0.58333333 39:0.16666667 40:0.55087966 41:0.5106383 42:0.41666667 43:0.33333333 44:0.57142857 47:0.11764706 50:0.33333333 51:0.5 53:0.125 54:0.27272727 56:0.5 57:0.27272727 58:0.2 59:0.33333333 60:1 
-8 0:0.76842105 1:0.6033024 2:1 3:0.066666667 4:0.21727749 5:0.71474359 6:1 7:0.44444444 8:0.16666667 9:0.71704598 10:0.44726367 11:0.49160304 12:0.25806452 13:0.1353869 14:0.033707865 15:0.1986485 16:0.16666667 17:0.14285714 18:0.30769231 19:0.16666667 20:0.50535128 21:0.46590834 22:0.8012479 24:0.18004661 25:0.4589309 26:0.65795858 27:0.47098644 28:0.39923376 29:0.54185101 30:0.42741685 31:0.50378216 32:0.38646821 33:0.094669791 34:0.10474786 35:0.19510527 36:0.14285714 38:0.33333333 39:0.16666667 40:0.24309537 41:0.21276596 42:0.33333333 44:0.14285714 45:0.066666667 47:0.058823529 49:0.6 50:0.33333333 51:0.16666667 53:0.125 54:0.090909091 58:0.2 61:0.33333333 
-8 0:0.63391813 1:0.39574236 2:0.066666667 3:0.066666667 4:0.42931937 5:0.43910256 6:0.46363636 7:0.55185185 8:0.45833333 9:0.39475387 10:0.54171112 12:0.0093548387 13:0.0013411436 14:0.01835206 15:0.34050039 16:0.16666667 18:0.15384615 20:0.2510011 21:0.33970476 24:0.023317271 25:0.49442461 26:0.46106014 27:0.5598864 28:0.35178178 29:0.30908118 30:0.52757688 32:0.037995547 33:0.010585858 34:0.050207594 35:0.1521356 36:0.095238095 38:0.16666667 40:0.054450742 41:0.042553191 42:0.083333333 44:0.28571429 49:0.2 50:0.66666667 51:0.16666667 58:0.2 
-8 0:0.75906433 1:0.62306471 2:0.7 3:0.066666667 4:0.31937173 5:0.74038462 6:0.94545455 7:0.38888889 8:0.48958333 9:0.74924981 10:0.36492778 11:0.67481658 12:0.035483871 13:0.76111774 14:0.048689139 15:0.23328772 16:0.11111111 18:0.30769231 19:0.33333333 20:0.35050368 21:0.41457504 22:0.46798374 25:0.71572593 26:1 27:0.11633392 28:0.18021039 29:0.53574969 30:0.44313677 31:0.4646941 32:0.067412527 33:0.53145336 34:0.088044959 35:0.083057438 36:0.14285714 37:0.22222222 38:0.33333333 39:0.33333333 40:0.10783671 41:0.10638298 42:0.083333333 45:0.066666667 47:0.11764706 50:0.33333333 51:0.33333333 55:0.14285714 57:0.090909091 59:0.33333333 
8 0:0.62339181 1:0.39082969 2:0.11111111 3:0.066666667 4:0.073298429 5:0.59935897 6:0.78181818 7:0.56296296 8:0.16666667 9:0.30165554 10:0.41652422 12:0.0093548387 13:0.0013411436 14:0.01835206 15:0.11956886 16:0.16666667 17:0.14285714 18:0.23076923 19:0.16666667 20:0.39270591 21:0.56436656 22:0.37366982 24:0.0082543574 25:0.68751403 26:0.86890302 27:0.77793848 28:0.39516758 29:0.3756734 30:0.61178222 32:0.037995547 33:0.010585858 34:0.050207594 35:0.16487743 36:0.047619048 38:0.25 39:0.16666667 40:0.096189759 41:0.063829787 44:0.14285714 45:0.13333333 46:0.25 50:0.33333333 51:0.33333333 54:0.090909091 58:0.2 
8 0:0.73684211 1:0.55510917 2:0.92222222 3:0.066666667 4:0.44502618 5:0.66346154 6:0.90909091 7:0.38148148 8:0.20833333 9:0.8037581 10:0.27795908 11:0.70477696 12:0.43225806 13:0.14800084 14:0.10486891 15:0.56379147 16:0.33333333 17:0.071428571 18:0.61538462 19:0.33333333 20:0.66208358 21:0.4280014 22:1 24:0.43432449 25:0.6042127 26:0.69109986 27:0.19062414 28:0.35178178 29:0.82705659 30:0.22769933 31:0.90517185 32:0.63586887 33:0.2475666 34:0.17719348 35:0.56544714 36:0.38095238 37:0.33333333 38:0.66666667 39:0.33333333 40:0.41639092 41:0.40425532 42:0.083333333 44:0.42857143 47:0.23529412 49:0.2 50:0.33333333 51:0.83333333 53:0.375 57:0.27272727 58:0.4 59:0.33333333 
8 0:0.58830409 1:0.34563319 2:0.11111111 4:0.073298429 5:0.47435897 6:0.69090909 7:0.48148148 8:0.10416667 9:0.37770847 10:0.29340622 12:0.0093548387 13:0.0013411436 14:0.01835206 15:0.10488105 16:0.16666667 17:0.071428571 18:0.23076923 19:0.16666667 20:0.31268053 21:0.38711416 22:0.22275764 23:0.11085093 24:0.075927335 25:0.57429428 26:0.73780605 27:0.61747482 28:0.3918629 29:0.41741866 30:0.30267278 32:0.037995547 33:0.010585858 34:0.050207594 35:0.11513946 36:0.14285714 38:0.25 39:0.16666667 40:0.094387839 41:0.085106383 44:0.14285714 46:0.75 47:0.058823529 53:0.125 54:0.090909091 55:0.14285714 56:0.5 58:0.2 
8 0:0.86432749 1:0.6220524 2:0.42222222 3:0.066666667 4:0.34031414 5:0.79807692 6:0.97272727 7:0.55925926 8:0.40625 9:0.74314733 10:0.37606004 11:0.49815558 12:0.28709677 13:0.081925285 14:0.041198502 15:0.47322127 16:0.22222222 18:0.61538462 19:0.5 20:0.77372985 21:0.42995696 22:0.32925631 24:0.23208964 25:0.59531915 26:0.73780605 27:0.48780755 28:0.53199217 29:0.52844743 30:0.37489678 31:0.40492159 32:0.33012261 33:0.08309535 34:0.047191209 35:0.38463021 36:0.19047619 38:0.66666667 39:0.5 40:0.54840612 41:0.5106383 42:0.5 44:0.14285714 45:0.2 46:0.5 47:0.17647059 49:0.2 50:0.33333333 51:0.33333333 54:0.18181818 57:0.27272727 58:0.6 59:0.5 
8 0:0.73450292 1:0.57330006 2:0.96666667 4:0.2565445 5:0.67948718 6:0.94545455 7:0.54074074 8:0.20833333 9:0.79705343 10:0.40210416 11:0.610697 12:0.33548387 13:0.4793775 14:0.097378277 15:0.25238747 16:0.16666667 17:0.071428571 18:0.38461538 19:0.33333333 20:0.50583134 21:0.52155623 22:0.641011 23:0.11085093 24:0.020910741 25:0.52627312 26:0.69109986 27:0.59635574 28:0.5468566 29:0.52253224 30:0.59192824 31:0.16238531 32:0.48684089 33:0.029403937 34:0.36626155 35:0.17967436 36:0.047619048 38:0.5 39:0.5 40:0.23080955 41:0.17021277 42:0.083333333 44:0.14285714 51:0.33333333 55:0.28571429 56:0.5 57:0.18181818 59:0.5 60:0.5 61:0.33333333 
8 0:0.54736842 1:0.2768559 2:0.32222222 3:0.066666667 4:0.047120419 5:0.28525641 6:0.72727273 7:0.25555556 8:0.20833333 9:0.3313315 10:0.24505949 12:0.0093548387 13:0.0013411436 14:0.01835206 15:0.063316765 16:0.16666667 17:0.14285714 18:0.076923077 20:0.19924544 21:0.2044856 22:0.39399324 24:0.0034470214 25:0.20231495 26:0.23331452 27:0.45218129 28:0.35178178 29:0.27212405 30:0.30109084 32:0.037995547 33:0.010585858 34:0.050207594 35:0.018106298 36:0.047619048 38:0.083333333 40:0.097401959 41:0.085106383 42:0.083333333 45:0.13333333 50:0.33333333 54:0.090909091 55:0.14285714 57:0.090909091 58:0.2 59:0.16666667 61:0.33333333 
8 0:0.78128655 1:0.61681223 2:0.7 4:0.047120419 5:0.53205128 6:0.51818182 7:0.62592593 8:0.65625 9:0.60510347 10:0.56008359 11:0.22529373 12:0.12580645 13:0.082560726 14:0.097378277 15:0.16266894 18:0.076923077 20:0.32947139 21:0.28893107 22:0.46798374 23:0.11085093 24:0.1192215 25:0.40981649 26:0.42284354 27:0.37611883 28:0.46035609 29:0.44337945 30:0.44435027 31:0.23010305 32:0.24854796 33:0.069856146 34:0.1752984 35:0.17480515 36:0.19047619 38:0.083333333 40:0.15113193 41:0.21276596 42:0.5 47:0.17647059 51:0.16666667 52:0.25 56:0.5 57:0.18181818 58:0.2 61:0.33333333 
-8 0:0.51111111 1:0.32008734 2:0.42222222 3:0.066666667 4:0.19371728 5:0.60576923 6:0.69090909 7:0.37037037 8:0.16666667 9:0.4912211 10:0.3586076 11:0.16822422 12:0.66774194 13:0.050965105 14:0.50561798 15:0.19795041 16:0.33333333 17:0.21428571 18:0.15384615 20:0.31704479 21:0.28950622 22:0.32925631 24:0.094554303 25:0.5226404 26:0.54221467 27:0.27180029 28:0.2734283 29:0.46767906 30:0.46054958 31:0.10965077 32:0.43581952 33:0.04360893 34:0.43551787 35:0.18567103 36:0.14285714 38:0.16666667 40:0.17632605 41:0.19148936 42:0.16666667 44:0.28571429 45:0.13333333 47:0.11764706 50:0.33333333 51:0.33333333 55:0.28571429 58:0.4 
-8 0:0.68304094 1:0.51528384 2:0.11111111 3:0.066666667 4:0.77748691 5:0.74038462 6:0.97272727 7:0.34814815 8:0.20833333 9:0.69493148 10:0.2116056 11:0.46740594 12:0.46451613 13:0.14996578 14:0.029962547 15:0.65508768 16:0.33333333 17:0.071428571 18:0.53846154 19:0.33333333 20:0.53808995 21:0.45233864 22:0.22275764 24:0.12976709 25:0.64923959 26:0.69788231 27:0.44857388 28:0.57944415 29:0.54292325 30:0.38551487 31:0.23626841 32:0.53416474 33:0.11234493 34:0.071887476 35:0.22781034 36:0.14285714 38:0.58333333 39:0.33333333 40:0.32116764 41:0.25531915 44:0.14285714 45:0.26666667 46:0.5 47:0.058823529 49:0.4 50:0.33333333 53:0.125 54:0.090909091 57:0.090909091 58:0.2 59:0.5 
8 0:0.66549708 1:0.48015085 2:0.11111111 3:0.066666667 4:0.073298429 5:0.75 6:0.90909091 7:0.42222222 8:0.20833333 9:0.53829723 10:0.4911026 11:0.098146856 12:0.20967742 13:0.11184478 14:0.25093633 15:0.12850441 16:0.16666667 17:0.071428571 18:0.30769231 19:0.33333333 20:0.35140537 21:0.41589477 22:0.25591999 24:0.01215193 25:0.69713293 26:0.86890302 27:0.51605265 28:0.35178178 29:0.62748076 30:0.34093987 31:0.50207696 32:0.077737874 33:0.57335515 34:0.10132586 35:0.13899849 36:0.095238095 38:0.33333333 39:0.33333333 40:0.12431609 41:0.10638298 44:0.14285714 46:0.5 47:0.058823529 50:0.33333333 51:0.16666667 55:0.28571429 57:0.090909091 58:0.2 59:0.16666667 
8 0:0.65730994 1:0.47699026 2:0.11111111 3:0.066666667 4:0.34816754 5:0.54807692 6:0.97272727 7:0.64814815 8:0.20833333 9:0.76094157 10:0.36258012 11:0.81156009 12:0.24516129 13:0.60603652 14:0.11985019 15:0.33689825 16:0.22222222 17:0.071428571 18:0.30769231 19:0.16666667 20:0.45384116 21:0.49111665 22:0.37366982 24:0.06481644 25:0.51318281 26:0.52007915 27:0.7405645 28:0.75101555 29:0.59568686 30:0.57169794 31:0.44166086 32:0.19785062 33:0.23460612 34:0.12140598 35:0.1317893 36:0.047619048 38:0.33333333 39:0.16666667 40:0.19691708 41:0.14893617 42:0.083333333 44:0.42857143 45:0.066666667 46:0.25 49:0.4 50:0.33333333 58:0.2 59:0.16666667 61:0.66666667 
-8 0:0.67368421 1:0.47223955 2:0.71111111 4:0.04973822 5:0.53205128 6:0.73636364 7:0.59259259 8:0.10416667 9:0.39475387 10:0.54171112 12:0.0093548387 13:0.0013411436 14:0.01835206 15:0.066095164 16:0.055555556 17:0.071428571 18:0.076923077 20:0.22042191 21:0.30644013 22:0.5667134 23:0.11085093 24:0.051374152 25:0.25774283 26:0.31826868 27:0.58649994 28:0.51766837 29:0.30908118 30:0.52757688 32:0.037995547 33:0.010585858 34:0.050207594 35:0.019448352 36:0.095238095 38:0.083333333 40:0.015152508 41:0.021276596 44:0.14285714 47:0.058823529 52:0.5 54:0.090909091 56:0.5 59:0.16666667 
8 0:0.66081871 1:0.46069869 2:0.96666667 3:0.066666667 4:0.22774869 5:0.45512821 6:0.97272727 7:0.64074074 8:0.16666667 9:0.53365772 10:0.72849151 12:0.0093548387 13:0.0013411436 14:0.01835206 15:0.17780353 16:0.16666667 17:0.14285714 18:0.23076923 19:0.16666667 20:0.24622139 21:0.3023248 22:0.641011 25:0.29769795 26:0.52007915 27:0.58100294 28:0.2734283 29:0.27764473 30:0.48782573 32:0.037995547 33:0.010585858 34:0.050207594 35:0.034653049 36:0.047619048 38:0.25 39:0.16666667 40:0.074353766 41:0.063829787 44:0.28571429 49:0.2 50:0.33333333 55:0.14285714 57:0.18181818 59:0.33333333 
8 0:0.68421053 1:0.50436681 2:0.45555556 3:0.066666667 4:0.32984293 5:0.60576923 6:0.49090909 7:0.74444444 8:0.36458333 9:0.39775782 10:0.54575046 12:0.0093548387 13:0.0013411436 14:0.01835206 15:0.34615492 16:0.11111111 18:0.23076923 20:0.23043133 21:0.27407844 22:0.16867106 24:0.019815804 25:0.33500594 26:0.16964774 27:0.5299564 28:0.42094758 29:0.19376645 30:0.38176229 32:0.037995547 33:0.010585858 34:0.050207594 35:0.062562153 36:0.095238095 38:0.25 40:0.069570488 41:0.063829787 44:0.28571429 47:0.058823529 50:0.33333333 54:0.090909091 57:0.090909091 59:0.5 
8 0:0.43508772 1:0.35231441 2:0.11111111 3:0.066666667 4:0.64397906 5:0.60576923 6:0.97272727 7:0.32962963 8:0.16666667 9:0.70444694 10:0.1117738 11:0.84540505 12:0.39032258 13:0.26113389 14:2.078104e-016 15:0.6222216 16:0.55555556 17:0.35714286 18:0.46153846 19:0.16666667 20:0.52281093 21:0.33831076 22:0.22275764 24:0.1771804 25:0.53922507 26:0.52007915 27:0.26903398 28:0.2379972 29:0.63269607 30:0.35392012 31:0.64165727 32:0.45965286 33:0.12866493 34:0.0036478532 35:0.40647103 36:0.33333333 37:0.33333333 38:0.5 39:0.16666667 40:0.4864037 41:0.40425532 44:0.57142857 47:0.058823529 49:0.4 50:0.66666667 51:0.33333333 53:0.5 54:0.090909091 55:0.14285714 57:0.090909091 58:0.4 59:0.33333333 61:1 
-8 0:0.69005848 1:0.52248908 2:0.71111111 4:0.31413613 5:0.53525641 6:0.94545455 7:0.27037037 8:0.20833333 9:0.68466636 10:0.27127211 11:0.53373893 12:0.30967742 13:0.20348632 14:0.037453184 15:0.38096169 16:0.27777778 17:0.071428571 18:0.30769231 19:0.16666667 20:0.4935166 21:0.37924737 22:0.5667134 23:0.11085093 24:0.19087068 25:0.41119026 26:0.54221467 27:0.37543887 28:0.18021039 29:0.58381823 30:0.32147987 31:0.55469367 32:0.45775867 33:0.28849514 34:0.14292038 35:0.21038105 36:0.19047619 37:0.11111111 38:0.41666667 39:0.16666667 40:0.32991515 41:0.29787234 42:0.33333333 44:0.14285714 45:0.2 47:0.11764706 50:0.33333333 51:0.16666667 52:0.25 56:0.5 58:0.2 59:0.5 60:0.5 61:0.33333333 
8 0:0.63508772 1:0.43370385 2:0.42222222 3:0.066666667 4:0.09947644 5:0.50320513 6:0.87272727 7:0.54444444 8:0.20833333 9:0.55890228 10:0.37228043 11:0.37058132 12:0.016129032 13:0.418579 14:0.026217228 15:0.12867195 16:0.11111111 17:0.071428571 18:0.23076923 19:0.16666667 20:0.36358181 21:0.43371647 22:0.32925631 24:0.1850711 25:0.46143976 26:1 27:0.54615215 28:0.42094758 29:0.60802673 30:0.37093252 31:0.54826238 32:0.014547131 33:0.62512358 34:0.020047248 35:0.1895557 36:0.14285714 38:0.25 39:0.16666667 40:0.12644563 41:0.10638298 45:0.066666667 46:0.25 47:0.058823529 50:0.33333333 51:0.33333333 53:0.125 54:0.090909091 57:0.090909091 58:0.2 61:0.33333333 
7.303577647767068 0:0.58128655 1:0.33384279 2:0.45555556 4:0.41361257 5:0.28205128 6:0.45454545 7:0.44444444 8:0.20833333 9:0.40658829 10:0.19019967 12:0.0093548387 13:0.0013411436 14:0.01835206 15:0.35467162 16:0.22222222 17:0.071428571 18:0.15384615 20:0.25604622 21:0.29593389 22:0.16867106 23:0.11085093 24:0.10883273 25:0.30400738 26:0.45778533 27:0.48191666 28:0.57537796 29:0.2254327 30:0.39282136 32:0.037995547 33:0.010585858 34:0.050207594 35:0.14929254 36:0.14285714 38:0.16666667 40:0.071323264 41:0.085106383 42:0.083333333 45:0.2 47:0.058823529 51:0.16666667 53:0.125 56:0.5 57:0.090909091 59:0.16666667 
-6.926140335955138 0:0.63625731 1:0.46827639 2:0.11111111 4:0.76439791 5:0.51602564 6:0.90909091 7:0.44444444 8:0.20833333 9:0.68495329 10:0.10944518 11:0.74672059 12:0.52580645 13:0.55027331 14:0.071161049 15:0.64941919 16:0.38888889 17:0.14285714 18:0.46153846 19:0.16666667 20:0.61991249 21:0.55171689 22:0.25591999 23:0.11085093 24:0.082852925 25:0.58158588 26:0.69109986 27:0.55990352 28:0.67531328 29:0.66364264 30:0.42753946 31:0.70857401 32:0.31613775 33:0.5261832 34:0.029153669 35:0.43753285 36:0.047619048 38:0.5 39:0.16666667 40:0.28947024 41:0.23404255 42:0.083333333 44:0.14285714 45:0.26666667 51:0.66666667 55:0.28571429 56:0.5 57:0.18181818 59:0.33333333 
3.612159814118643 0:0.83391813 1:0.70524017 2:0.42222222 3:0.81111111 4:0.12041885 5:0.67628205 6:0.90909091 7:0.54814815 8:0.69791667 9:0.66018561 10:0.59565415 11:0.34264002 12:0.25806452 13:0.20549916 14:0.11235955 15:0.29346308 18:0.38461538 19:0.16666667 20:0.50846676 21:0.55876764 22:0.32925631 23:0.84764535 25:0.495968 26:0.69109986 27:0.51312386 28:0.70356357 29:0.56697727 30:0.43997246 31:0.33976643 32:0.23070514 33:0.35435696 34:0.03416503 35:0.11183814 38:0.41666667 39:0.16666667 40:0.2124955 41:0.14893617 42:0.083333333 44:0.14285714 46:0.25 51:0.16666667 54:0.090909091 57:0.090909091 58:0.6 59:0.5 61:0.33333333 
-8 0:0.65380117 1:0.4937617 2:0.41111111 4:0.40837696 5:0.62820513 6:0.78181818 7:0.54814815 8:0.16666667 9:0.72651496 10:0.27477725 11:0.67424848 12:0.28387097 13:0.25070214 14:0.0074906367 15:0.47276053 16:0.27777778 17:0.071428571 18:0.38461538 19:0.16666667 20:0.51548499 21:0.38185106 22:0.26220726 23:0.11085093 24:0.21360641 25:0.66496399 26:0.86890302 27:0.43432649 28:0.39923376 29:0.6495548 30:0.29059326 31:0.70015595 32:0.38247529 33:0.36159404 34:0.039532586 35:0.40985381 36:0.23809524 37:0.11111111 38:0.41666667 39:0.16666667 40:0.33599253 41:0.31914894 42:0.16666667 44:0.28571429 46:0.5 47:0.11764706 49:0.2 50:0.33333333 51:0.33333333 52:0.25 53:0.125 55:0.14285714 56:0.5 57:0.18181818 58:0.6 
-8 0:0.59532164 1:0.31468341 2:0.11111111 3:0.066666667 4:0.073298429 5:0.41025641 6:0.81818182 7:0.27037037 8:0.16666667 9:0.39475387 10:0.54171112 12:0.0093548387 13:0.0013411436 14:0.01835206 15:0.080447895 16:0.16666667 17:0.071428571 18:0.15384615 19:0.16666667 20:0.21718508 21:0.27165074 22:0.369864 24:0.11735125 25:0.31637457 26:0.56000288 27:0.26304668 28:0.2379972 29:0.30908118 30:0.52757688 32:0.037995547 33:0.010585858 34:0.050207594 35:0.075247206 36:0.19047619 37:0.22222222 38:0.25 39:0.16666667 40:0.048733742 41:0.042553191 45:0.066666667 46:0.25 47:0.058823529 50:0.33333333 53:0.25 59:0.16666667 60:0.5 
-8 0:0.39883041 1:0.36135371 2:0.11111111 4:0.45811518 5:0.43910256 6:0.69090909 7:0.25555556 8:0.20833333 9:0.66908073 10:0.10944518 11:0.69979632 12:0.26774194 13:0.10160592 14:0.011235955 15:0.55255222 16:0.55555556 17:0.28571429 18:0.30769231 20:0.58234527 21:0.32724832 22:0.37366982 23:0.11085093 24:0.11121557 25:0.40084067 26:0.54221467 27:0.28247977 28:0.42586709 29:0.54007559 30:0.18806975 31:0.51435204 32:0.41608429 33:0.11509523 34:0.0094729301 35:0.3808064 36:0.14285714 38:0.33333333 40:0.52049274 41:0.5106383 42:0.5 44:0.71428571 45:0.066666667 46:0.25 48:0.33333333 49:0.2 51:0.33333333 53:0.125 54:0.18181818 55:0.42857143 56:0.5 57:0.45454545 61:0.33333333 
-8 0:0.63976608 1:0.47770627 2:0.11111111 4:0.2408377 5:0.68589744 6:0.69090909 7:0.36296296 8:0.40625 9:0.56737101 10:0.36907418 11:0.32348848 12:0.38064516 13:0.040162695 14:0.041198502 15:0.36920585 16:0.22222222 18:0.23076923 20:0.57311096 21:0.46242976 22:0.25591999 23:0.11085093 24:0.10272317 25:0.55549309 26:0.54221467 27:0.36931437 28:0.45363869 29:0.54403117 30:0.38822045 31:0.32571369 32:0.52706208 33:0.17354422 34:0.27067572 35:0.29514236 36:0.095238095 38:0.33333333 40:0.31703961 41:0.27659574 42:0.41666667 45:0.13333333 47:0.058823529 51:0.5 54:0.27272727 55:0.28571429 56:0.5 58:0.2 60:0.5 
-8 0:0.61637427 1:0.47188865 2:0.81111111 4:0.40314136 5:0.82692308 6:1 7:0.15555556 8:0.20833333 9:0.76974372 10:0.10944518 11:0.65956631 12:0.50322581 13:0.14721961 14:0.048689139 15:0.46826483 16:0.44444444 17:0.21428571 18:0.61538462 19:0.66666667 20:0.65305106 21:0.43643231 22:0.84764535 23:0.11085093 24:0.26508052 25:0.70420522 26:0.86890302 27:0.28753711 28:0.35670129 29:0.50769481 30:0.3220208 31:0.47838925 32:0.35007941 33:0.036604455 34:0.010382442 35:0.28866868 36:0.33333333 37:0.11111111 38:0.66666667 39:0.66666667 40:0.44032369 41:0.38297872 42:0.083333333 44:0.28571429 45:0.2 46:0.5 47:0.11764706 48:0.33333333 49:0.4 51:0.33333333 53:0.375 56:0.5 57:0.090909091 58:0.2 59:0.33333333 61:0.33333333 
8 0:0.66081871 1:0.49031114 2:0.92222222 4:0.43979058 5:0.52884615 6:0.93636364 7:0.38518519 8:0.20833333 9:0.54876646 10:0.36326484 11:0.46552984 12:0.40967742 13:0.25816954 14:0.029962547 15:0.37259857 16:0.27777778 17:0.14285714 18:0.30769231 19:0.16666667 20:0.51372365 21:0.47433295 22:1 23:0.11085093 24:0.13611529 25:0.67974362 26:0.82897929 27:0.39757948 28:0.45363869 29:0.51078386 30:0.42908661 31:0.3813375 32:0.40909753 33:0.24645606 34:0.069715665 35:0.21957043 36:0.14285714 38:0.33333333 39:0.16666667 40:0.21858926 41:0.21276596 42:0.16666667 44:0.28571429 45:0.13333333 46:0.25 47:0.11764706 49:0.2 51:0.33333333 52:0.25 55:0.14285714 56:0.5 58:0.2 
-3.734254017894649 0:0.54035088 1:0.35283843 2:0.11111111 4:0.44764398 5:0.55769231 6:0.84545455 7:0.27777778 8:0.20833333 9:0.64707737 10:0.14646673 11:0.57563738 12:0.26451613 13:0.35833447 14:4.3613544e-016 15:0.39129342 16:0.38888889 17:0.21428571 18:0.30769231 19:0.16666667 20:0.43458685 21:0.4156667 22:0.369864 23:0.11085093 24:0.028124607 25:0.58652159 26:0.69788231 27:0.44081012 28:0.5114255 29:0.57250518 30:0.36009515 31:0.47714003 32:0.27474875 33:0.3679396 34:0.17941766 35:0.17549921 36:0.095238095 38:0.33333333 39:0.16666667 40:0.22410969 41:0.19148936 42:0.083333333 44:0.14285714 45:0.26666667 46:0.25 49:0.2 51:0.16666667 53:0.125 55:0.14285714 56:0.5 57:0.090909091 58:0.2 59:0.16666667 
6.94241757065017 0:0.69005848 1:0.51931475 2:0.7 3:0.92222222 4:0.59685864 5:0.58012821 6:0.69090909 7:0.34444444 8:0.20833333 9:0.65314753 10:0.30701116 11:0.46411416 12:0.2516129 13:0.51511028 14:0.014981273 15:0.46149335 16:0.27777778 17:0.21428571 18:0.38461538 20:0.66221469 21:0.74917653 22:0.46798374 23:1 24:0.16570585 25:0.67624201 26:0.54221467 27:0.73671298 28:0.79033515 29:0.75289133 30:0.5236295 31:0.4673742 32:0.50125956 33:0.47395641 34:0.053928534 35:0.43745208 36:0.047619048 38:0.41666667 40:0.17989713 41:0.14893617 42:0.083333333 44:0.14285714 45:0.33333333 47:0.058823529 51:0.83333333 
8 0:0.67017544 1:0.49361774 2:0.7 4:0.44502618 5:0.51602564 6:0.72727273 7:0.46666667 8:0.10416667 9:0.56025411 10:0.38114658 11:0.3560884 12:0.40967742 13:0.17477024 14:0.38202247 15:0.36193175 16:0.22222222 17:0.071428571 18:0.15384615 20:0.3661335 21:0.38249524 22:0.46798374 23:0.11085093 24:0.082852925 25:0.39845693 26:0.36514968 27:0.57241405 28:0.3564318 29:0.44180404 30:0.39408881 31:0.39770121 32:0.1442933 33:0.2974895 34:0.1395904 35:0.13036056 36:0.095238095 37:0.11111111 38:0.16666667 40:0.13801068 41:0.14893617 42:0.41666667 44:0.14285714 45:0.13333333 51:0.16666667 53:0.125 56:0.5 57:0.090909091 59:0.16666667 
-8 0:0.62105263 1:0.36872271 2:1 3:0.066666667 4:0.073298429 5:0.35897436 6:0.84545455 7:0.34074074 8:0.36458333 9:0.39475387 10:0.54171112 12:0.0093548387 13:0.0013411436 14:0.01835206 15:0.032112141 16:0.055555556 18:0.15384615 19:0.16666667 20:0.28496991 21:0.40806628 22:0.8012479 24:0.011110895 25:0.42133467 26:0.69788231 27:0.39157347 28:0.42094758 29:0.30908118 30:0.52757688 32:0.037995547 33:0.010585858 34:0.050207594 35:0.019922822 36:0.047619048 38:0.16666667 39:0.16666667 40:0.079595715 41:0.042553191 45:0.066666667 46:0.25 49:0.2 50:0.33333333 54:0.36363636 
-8 0:0.58362573 1:0.40131004 2:0.7 4:0.21989529 5:0.69230769 6:0.69090909 7:0.12222222 8:0.16666667 9:0.68142517 10:0.13362806 11:0.49079913 12:0.25806452 13:0.20096845 14:0.16853933 15:0.18134983 16:0.27777778 17:0.21428571 18:0.15384615 20:0.28835342 21:0.25871115 22:0.46798374 23:0.11085093 24:0.049035348 25:0.44404295 26:0.54221467 27:0.10223932 28:0.2379972 29:0.49462084 30:0.20907981 31:0.38243957 32:0.12171972 33:0.082209829 34:0.067013605 35:0.10337488 36:0.23809524 37:0.22222222 38:0.16666667 40:0.17878321 41:0.19148936 42:0.33333333 44:0.14285714 45:0.066666667 47:0.058823529 50:0.33333333 51:0.16666667 53:0.25 56:0.5 57:0.090909091 59:0.16666667 61:0.33333333 
-8 0:0.48654971 1:0.32031852 2:0.41111111 3:0.32222222 4:0.15706806 5:0.58653846 6:0.72727273 7:0.12962963 8:0.16666667 9:0.57019597 10:0.097802072 11:0.57383504 12:0.16129032 13:0.26450883 14:0.0037453184 15:0.28800402 16:0.27777778 17:0.21428571 18:0.23076923 20:0.36381103 21:0.3091763 22:0.26220726 23:0.39399324 24:0.040275993 25:0.47319726 26:0.5497774 27:0.35617626 28:0.28506521 29:0.41832784 30:0.29519987 31:0.22844642 32:0.21218815 33:0.038463404 34:0.051152392 35:0.16127022 36:0.095238095 38:0.25 40:0.27790519 41:0.23404255 42:0.083333333 44:0.14285714 45:0.26666667 48:0.33333333 50:0.33333333 51:0.16666667 54:0.18181818 57:0.18181818 59:0.33333333 61:0.66666667 
8 0:0.48421053 1:0.28995633 2:0.11111111 3:0.066666667 4:0.22774869 5:0.44230769 6:0.97272727 7:0.24444444 8:0.16666667 9:0.49687903 10:0.097802072 11:0.5026707 12:0.40645161 13:0.12791951 14:0.0037453184 15:0.24731933 16:0.33333333 17:0.21428571 18:0.23076923 19:0.16666667 20:0.35867158 21:0.33418518 22:0.37366982 24:0.0087049089 25:0.40702679 26:0.52007915 27:0.38148456 28:0.39923376 29:0.40687561 30:0.43608761 31:0.15649217 32:0.28301886 33:0.083521748 34:0.10517146 35:0.053128475 36:0.047619048 38:0.25 39:0.16666667 40:0.25444747 41:0.19148936 44:0.28571429 45:0.13333333 49:0.2 50:0.33333333 54:0.090909091 55:0.28571429 58:0.2 59:0.33333333 61:1 
-8 0:0.45146199 1:0.18449782 2:0.41111111 4:0.073298429 5:0.33653846 6:0.4 7:0.14444444 8:0.20833333 9:0.40295303 10:0.20839935 11:0.30417561 12:0.23870968 13:0.1980649 14:0.086142322 15:0.07180554 16:0.22222222 17:0.14285714 18:0.076923077 20:0.16407244 21:0.13658765 22:0.26220726 23:0.11085093 24:0.17970872 25:0.21142219 26:0.20010739 27:0.32161311 28:0.3985803 29:0.35621189 30:0.30001291 31:0.15603041 32:0.42832385 33:0.11737563 34:0.45613939 35:0.10242995 36:0.19047619 38:0.083333333 40:0.095141369 41:0.12765957 45:0.13333333 46:0.25 47:0.11764706 53:0.125 54:0.090909091 55:0.14285714 56:0.5 57:0.18181818 61:0.33333333 
-6.234431787440969 0:0.82222222 1:0.61980254 2:1 4:0.15706806 5:0.74358974 6:1 7:0.45555556 8:0.10416667 9:0.67206732 10:0.47014501 11:0.35268252 12:0.56774194 13:0.076771911 14:0.074906367 15:0.37484642 16:0.16666667 17:0.071428571 18:0.53846154 19:0.5 20:0.540138 21:0.37288073 22:0.8012479 23:0.11085093 24:0.24684534 25:0.51900754 26:0.69788231 27:0.38764977 28:0.3564318 29:0.51042535 30:0.39489262 31:0.39969675 32:0.31452567 33:0.18902857 34:0.0032557866 35:0.24581654 36:0.28571429 37:0.11111111 38:0.58333333 39:0.5 40:0.39932182 41:0.36170213 42:0.25 45:0.13333333 46:0.25 47:0.17647059 48:0.33333333 49:0.8 53:0.125 54:0.090909091 56:0.5 57:0.090909091 58:0.6 59:0.33333333 
7.480969144636445 0:0.69473684 1:0.5253611 2:0.11111111 4:0.09947644 5:0.53525641 6:0.49090909 7:0.64444444 8:0.5 9:0.59644478 10:0.40028639 11:0.27877801 12:0.61290323 13:0.041859868 14:0.51310861 15:0.2206523 16:0.055555556 18:0.23076923 20:0.39023809 21:0.41234754 22:0.37366982 23:0.11085093 24:0.33485872 25:0.42764921 26:0.36514968 27:0.44493065 28:0.53199217 29:0.54315186 30:0.34360629 31:0.20368057 32:0.93964258 33:0.083035037 34:0.81500278 35:0.43980148 36:0.14285714 38:0.25 40:0.13884612 41:0.14893617 42:0.083333333 44:0.14285714 47:0.11764706 51:0.5 54:0.090909091 56:0.5 57:0.18181818 58:0.4 
8 0:0.61754386 1:0.41703057 2:0.81111111 3:0.066666667 4:0.31413613 5:0.56089744 6:0.78181818 7:0.25555556 8:0.16666667 9:0.5365655 10:0.16063136 11:0.74822641 12:0.15483871 13:0.77045258 14:0.14606742 15:0.27961298 16:0.22222222 17:0.14285714 18:0.30769231 19:0.16666667 20:0.42831475 21:0.49110901 22:0.84764535 24:0.22257393 25:0.7375789 26:0.86890302 27:0.27979355 28:0.39516758 29:0.56784093 30:0.32276025 31:0.7324102 32:0.45147624 33:0.73248445 34:0.477396 35:0.25636278 36:0.19047619 37:0.11111111 38:0.41666667 39:0.33333333 40:0.18087999 41:0.12765957 42:0.083333333 45:0.066666667 46:0.75 50:0.66666667 51:0.16666667 53:0.25 54:0.090909091 60:0.5 
-8 0:0.58830409 1:0.32532751 2:0.42222222 4:0.09947644 5:0.43589744 6:0.87272727 7:0.25185185 8:0.20833333 9:0.35483016 10:0.48802675 12:0.0093548387 13:0.0013411436 14:0.01835206 15:0.11903831 16:0.16666667 17:0.071428571 18:0.15384615 19:0.16666667 20:0.29666687 21:0.3925652 22:0.32925631 23:0.11085093 24:0.016508715 25:0.45674462 26:1 27:0.27906553 28:0.3985803 29:0.18770353 30:0.37409577 32:0.037995547 33:0.010585858 34:0.050207594 35:0.085713036 36:0.095238095 38:0.16666667 39:0.16666667 40:0.057038954 41:0.063829787 45:0.2 47:0.058823529 51:0.33333333 56:0.5 57:0.090909091 58:0.2 
-8 0:0.61403509 1:0.40154823 2:1 4:0.36387435 5:0.30448718 6:1 7:0.30740741 8:0.10416667 9:0.57803019 10:0.010895875 11:0.60134708 12:0.48709677 13:0.67839837 14:0.57303371 15:0.2754384 16:0.27777778 17:0.21428571 18:0.30769231 19:0.16666667 20:0.45584013 21:0.56874768 22:0.8012479 23:0.11085093 24:0.0082543574 25:0.47508231 26:0.65795858 27:0.62225487 28:0.51360218 29:0.54272336 30:0.3624526 31:0.35518883 32:0.43640596 33:0.40871081 34:0.56265994 35:0.15297357 36:0.047619048 38:0.33333333 39:0.16666667 40:0.14171281 41:0.10638298 44:0.28571429 45:0.2 46:0.25 49:0.4 51:0.16666667 56:0.5 58:0.2 
8 0:0.45964912 1:0.1959607 2:0.42222222 3:0.066666667 4:0.2617801 5:0.2275641 6:0.37272727 7:0.35925926 8:0.16666667 9:0.50002324 10:0.21702911 11:0.34664574 12:0.56129032 13:0.28343018 14:0.48689139 15:0.21531889 16:0.33333333 17:0.21428571 18:0.076923077 20:0.21672786 21:0.20723293 22:0.32925631 24:0.019955736 25:0.15751449 26:0.32668836 27:0.37812706 28:0.35178178 29:0.39369218 30:0.31892182 31:0.33022027 32:0.20975839 33:0.32952823 34:0.15648096 35:0.080606841 36:0.095238095 38:0.083333333 40:0.13122891 41:0.12765957 42:0.16666667 44:0.14285714 45:0.26666667 46:0.25 50:0.66666667 58:0.4 
-8 0:0.76491228 1:0.5996179 2:0.45555556 3:0.066666667 4:0.23560209 5:0.68910256 6:0.93636364 7:0.64444444 8:0.40625 9:0.64644286 10:0.34519019 11:0.43034263 12:0.16451613 13:0.069555134 14:0.011235955 15:0.29488719 16:0.11111111 18:0.38461538 19:0.33333333 20:0.47654378 21:0.4369211 22:0.16867106 25:0.6409175 26:1 27:0.46385826 28:0.2801457 29:0.56919367 30:0.26388784 31:0.40175485 32:0.30728671 33:0.12894791 34:0.011261063 35:0.14092924 36:0.095238095 38:0.41666667 39:0.33333333 40:0.2303345 41:0.21276596 42:0.083333333 44:0.28571429 47:0.058823529 49:0.4 50:0.33333333 51:0.33333333 54:0.090909091 57:0.36363636 58:0.2 59:0.16666667 
-8 0:0.50643275 1:0.32819323 2:0.92222222 3:0.066666667 4:0.14659686 5:0.55128205 6:0.69090909 7:0.17407407 8:0.16666667 9:0.54733582 10:0.09750318 11:0.34009742 12:0.3516129 13:0.11687231 14:0.25842697 15:0.17995365 16:0.33333333 17:0.21428571 18:0.15384615 20:0.33072302 21:0.2901905 22:1 24:0.15651196 25:0.490923 26:0.54221467 27:0.28075304 28:0.39516758 29:0.6310812 30:0.29189719 31:0.60126732 32:0.43508681 33:0.33357162 34:0.16357366 35:0.1841208 36:0.19047619 38:0.16666667 40:0.17591652 41:0.21276596 42:0.16666667 44:0.42857143 45:0.2 47:0.17647059 50:0.33333333 51:0.33333333 58:0.4 
-8 0:0.57192982 1:0.38820961 2:0.11111111 4:0.20942408 5:0.54166667 6:0.72727273 7:0.29259259 8:0.20833333 9:0.58842061 10:0.29148246 11:0.51537816 12:0.45806452 13:0.34909022 14:0.13108614 15:0.25293198 16:0.22222222 17:0.071428571 18:0.15384615 20:0.28489642 21:0.25500067 22:0.37366982 23:0.11085093 24:0.1279368 25:0.1989929 26:0.36514968 27:0.3437332 28:0.57537796 29:0.31923031 30:0.32574861 31:0.20579548 32:0.33483881 33:0.076985646 34:0.031028222 35:0.17238139 36:0.14285714 38:0.16666667 40:0.15794647 41:0.19148936 42:0.16666667 44:0.28571429 45:0.13333333 47:0.11764706 51:0.16666667 56:0.5 57:0.18181818 58:0.4 59:0.16666667 
-8 0:0.51695906 1:0.33924672 2:0.4 3:0.066666667 4:0.65706806 5:0.36858974 6:0.51818182 7:0.35925926 8:0.20833333 9:0.61227085 10:0.11875966 11:0.60947337 12:0.40322581 13:0.41379364 14:0.11610487 15:0.55710376 16:0.38888889 17:0.21428571 18:0.30769231 20:0.44081082 21:0.40096518 22:0.62533784 24:0.13146134 25:0.4214201 26:0.46106014 27:0.56281124 28:0.57537796 29:0.46547817 30:0.40706835 31:0.37286596 32:0.20464413 33:0.19885579 34:0.023694486 35:0.23803927 36:0.095238095 38:0.41666667 40:0.244799 41:0.21276596 44:0.57142857 45:0.2 47:0.058823529 49:0.2 50:0.33333333 51:0.16666667 54:0.090909091 57:0.090909091 59:0.33333333 60:0.5 
-8 0:0.6245614 1:0.45223799 2:0.41111111 3:0.066666667 4:0.047120419 5:0.51923077 6:0.50909091 7:0.3962963 8:0.16666667 9:0.61601725 10:0.31199171 11:0.46275303 12:0.13548387 13:0.28350104 14:0.026217228 15:0.12636826 16:0.11111111 17:0.071428571 20:0.31051881 21:0.26986024 22:0.26220726 24:0.0082543574 25:0.23295058 26:0.084429332 27:0.41062096 28:0.39516758 29:0.35720001 30:0.36417108 31:0.21498495 32:0.089680248 33:0.030240528 34:0.012239193 36:0.047619048 40:0.20754841 41:0.21276596 42:0.58333333 45:0.13333333 50:0.33333333 54:0.36363636 57:0.090909091 58:0.2 
8 0:0.76725146 1:0.58197697 2:0.81111111 3:0.066666667 4:0.32722513 5:0.79487179 6:0.90909091 7:0.31481481 8:0.36458333 9:0.64015042 10:0.31784452 11:0.4489147 12:0.65806452 13:0.12680301 14:0.018726592 15:0.36402602 16:0.16666667 18:0.61538462 19:0.66666667 20:0.60201166 21:0.43146248 22:0.84764535 24:0.41078082 25:0.71762135 26:1 27:0.19469268 28:0.18021039 29:0.51599506 30:0.38877026 31:0.30648208 32:0.60841023 33:0.023918409 34:0.031814707 35:0.35275126 36:0.38095238 37:0.22222222 38:0.66666667 39:0.66666667 40:0.38828097 41:0.34042553 45:0.066666667 46:0.5 47:0.29411765 49:0.2 50:0.66666667 51:0.5 53:0.125 54:0.36363636 58:0.2 59:0.33333333 
-8 0:0.67836257 1:0.48908297 2:0.92222222 3:0.066666667 4:0.15706806 5:0.51602564 6:0.49090909 7:0.3962963 8:0.36458333 9:0.39475387 10:0.54171112 12:0.0093548387 13:0.0013411436 14:0.01835206 15:0.17020831 16:0.055555556 18:0.15384615 20:0.27600659 21:0.39002779 22:1 24:0.011110895 25:0.39845693 26:0.36514968 27:0.41062096 28:0.42094758 29:0.30908118 30:0.52757688 32:0.037995547 33:0.010585858 34:0.050207594 35:0.082202997 36:0.047619048 38:0.16666667 40:0.059741834 41:0.042553191 42:0.083333333 45:0.066666667 50:0.33333333 51:0.16666667 54:0.18181818 57:0.090909091 59:0.16666667 
8 0:0.49239766 1:0.21576022 2:0.11111111 3:0.066666667 4:0.09947644 5:0.40384615 6:0.87272727 7:0.12962963 8:0.16666667 9:0.44014396 10:0.30504932 11:0.4562892 12:0.093548387 13:0.51507758 14:0.11610487 15:0.11367698 16:0.22222222 17:0.21428571 18:0.15384615 19:0.16666667 20:0.29082632 21:0.32723001 22:0.37366982 24:0.10221818 25:0.40932547 26:1 27:0.33377127 28:0.39516758 29:0.49184622 30:0.46820914 31:0.51966141 32:0.072850776 33:0.59306526 34:0.095039866 35:0.17071264 36:0.095238095 38:0.16666667 39:0.16666667 40:0.1266422 41:0.10638298 44:0.14285714 45:0.2 48:0.33333333 50:0.33333333 51:0.33333333 54:0.18181818 57:0.090909091 
5.645063047945516 0:0.69473684 1:0.52557704 2:0.7 3:0.066666667 4:0.41361257 5:0.59294872 6:0.90909091 7:0.45925926 8:0.20833333 9:0.73112215 10:0.32128177 11:0.72444873 12:0.33548387 13:0.50366627 14:0.11985019 15:0.40512957 16:0.22222222 17:0.071428571 18:0.30769231 19:0.16666667 20:0.38377572 21:0.38119374 22:0.46798374 24:0.10272317 25:0.60845706 26:0.69109986 27:0.39453647 28:0.45363869 29:0.6255387 30:0.38235842 31:0.57341416 32:0.24969136 33:0.51630662 34:0.12452031 35:0.24030257 36:0.095238095 38:0.33333333 39:0.16666667 40:0.1911837 41:0.17021277 42:0.16666667 44:0.14285714 47:0.058823529 50:0.33333333 51:0.33333333 55:0.42857143 57:0.090909091 58:0.2 59:0.33333333 
8 0:0.75906433 1:0.56310044 2:0.96666667 4:0.79842932 5:0.86217949 6:0.97272727 7:0.37037037 8:0.20833333 9:0.84725962 10:0.17231794 11:0.73088885 12:0.50645161 13:0.23992814 14:0.02247191 15:0.80156093 16:0.44444444 17:0.21428571 18:0.69230769 19:0.5 20:0.79059008 21:0.43900519 22:0.641011 23:0.11085093 24:0.085893121 25:0.60680344 26:0.82897929 27:0.26530395 28:0.36042077 29:0.66624212 30:0.27299743 31:0.59812673 32:0.37813065 33:0.054516905 34:0.020716914 35:0.37327002 36:0.19047619 37:0.11111111 38:0.75 39:0.5 40:0.58424794 41:0.5106383 42:0.25 44:0.14285714 45:0.2 47:0.17647059 49:0.4 51:0.5 52:0.25 54:0.18181818 55:0.57142857 56:0.5 57:0.18181818 58:0.2 59:0.66666667 
8 0:0.45380117 1:0.18777293 2:0.7 4:0.43455497 5:0.15064103 6:0.20909091 7:0.23333333 8:0.10416667 9:0.47713077 10:0.1234169 11:0.41327361 12:0.20322581 13:0.2025328 14:0.1423221 15:0.32970792 16:0.38888889 17:0.28571429 18:0.076923077 20:0.27670117 21:0.28769627 22:0.46798374 23:0.11085093 24:0.099812191 25:0.25261061 26:0.45778533 27:0.4345319 28:0.51360218 29:0.41844993 30:0.35729063 31:0.32597196 32:0.19741036 33:0.22463626 34:0.24618193 35:0.13790896 36:0.095238095 38:0.083333333 40:0.12000786 41:0.12765957 42:0.25 44:0.14285714 45:0.26666667 51:0.16666667 55:0.14285714 56:1 
-8 0:0.75906433 1:0.60277604 2:0.71111111 4:0.094240838 5:0.54487179 6:0.90909091 7:0.65555556 8:0.20833333 9:0.667349 10:0.53348515 11:0.3191275 12:0.23870968 13:0.090248114 14:0.056179775 15:0.14821847 16:0.11111111 17:0.071428571 18:0.23076923 19:0.16666667 20:0.42567234 21:0.42937435 22:0.5667134 23:0.11085093 24:0.16570585 25:0.37701188 26:0.69109986 27:0.57935434 28:0.3985803 29:0.63308909 30:0.42164173 31:0.46550185 32:0.5320238 33:0.40251726 34:0.4286691 35:0.20490713 36:0.14285714 38:0.25 39:0.16666667 40:0.15321233 41:0.17021277 42:0.16666667 44:0.14285714 45:0.066666667 47:0.11764706 51:0.33333333 52:0.5 56:0.5 57:0.18181818 59:0.16666667 
-6.678356795187714 0:0.45146199 1:0.29912664 2:0.81111111 3:0.066666667 4:0.57591623 5:0.54166667 6:0.72727273 7:0.24814815 8:0.125 9:0.72106515 10:0.14640422 11:0.7775163 12:0.30645161 13:0.4162419 14:0.037453184 15:0.49127387 16:0.5 17:0.28571429 18:0.30769231 20:0.30343682 21:0.24245667 22:0.84764535 24:0.1792673 25:0.33387268 26:0.28676463 27:0.34644824 28:3.9044381e-016 29:0.45396407 30:0.21365203 31:0.51550371 32:0.37202095 33:0.13398862 34:0.0074886577 35:0.18556135 36:0.23809524 37:0.11111111 38:0.33333333 40:0.29351636 41:0.25531915 42:0.083333333 44:0.14285714 45:0.2 46:0.25 47:0.058823529 49:0.2 50:0.66666667 53:0.25 54:0.090909091 55:0.28571429 58:0.2 59:0.33333333 
