svm_type epsilon_svr
kernel_type rbf
gamma 0.03125
nr_class 2
total_sv 423
rho 0.531086
SV
-32 0:0.57565069 1:0.43853036 2:0.71869388 3:0.17043323 4:0.081864993 5:0.41618377 6:0.47055958 7:0.31318992 8:0.6102565 9:0.53310746 10:0.44581414 11:0.289106 12:0.54536238 13:0.034203682 14:0.042803636 15:0.33206454 16:0.083333333 18:0.61538462 19:0.4 20:0.3902439 25:0.23076923 27:0.29411765 29:0.25 31:0.33333333 32:0.16666667 34:0.5 36:0.11111111 41:0.125 42:0.16666667 43:1 
-15.20440339378951 0:0.66771795 1:0.4194684 2:0.71869388 4:0.43076093 5:0.5527926 6:0.51490516 7:0.27479141 8:0.052327235 9:0.69969693 10:0.076314943 11:0.94152809 12:0.51467528 13:0.17240948 14:0.028507149 15:0.65810399 16:0.41666667 17:0.2 18:0.76923077 19:0.4 20:0.53658537 21:0.11764706 24:0.5 25:0.15384615 27:0.058823529 28:0.5 29:1 30:0.4 32:0.33333333 34:0.25 35:0.25 36:0.33333333 42:0.16666667 43:0.5 45:0.25 
-20.83619731509474 0:0.39133059 1:0.44700526 2:0.76217589 3:0.27488589 4:0.30995742 5:0.55289261 6:0.47055958 7:0.44236287 8:0.55014184 9:0.76726526 10:0.45626593 11:0.49774166 12:0.30648786 13:0.41719791 14:0.10973339 15:0.22071239 16:0.25 18:0.30769231 19:0.2 20:0.17073171 21:0.058823529 24:0.5 25:0.15384615 29:0.25 31:0.33333333 32:0.16666667 37:0.11111111 40:0.5 43:0.16666667 45:0.25 
19.37895496813567 0:0.37810043 1:0.43180265 2:0.35112457 4:0.026340648 5:0.48546077 6:0.54712448 7:0.47618765 8:0.43551128 9:0.56146877 10:0.57513773 11:0.28403869 12:0.085762855 13:0.20972611 14:0.053568489 15:0.14436899 16:0.083333333 18:0.38461538 19:0.4 20:0.17073171 24:0.16666667 25:0.15384615 26:0.66666667 27:0.11764706 29:0.25 30:0.2 36:0.11111111 41:0.125 43:0.16666667 44:0.5 
-25.35120116398136 0:0.63360494 1:0.49490669 2:0.51563932 3:0.26272583 4:0.26481968 5:0.50951779 6:0.75745258 7:0.30768942 8:0.35232263 9:0.78544801 10:0.27610013 11:0.66495953 12:0.2341628 13:0.064976535 14:0.037433095 15:0.6594212 16:0.25 18:0.53846154 19:0.4 20:0.36585366 24:0.16666667 25:0.076923077 27:0.23529412 28:0.25 29:0.25 32:0.83333333 34:0.5 36:0.11111111 37:0.11111111 39:0.5 41:0.25 43:0.16666667 
4.238078537524721 0:0.36056371 1:0.39084459 2:0.71869388 4:0.14700097 5:0.35432832 6:0.36501288 7:0.29449249 8:0.37965482 9:0.5120618 10:0.30554348 11:0.33365374 12:0.21900767 13:0.18559806 14:0.0045302388 15:0.11848982 16:0.25 18:0.46153846 19:0.4 20:0.19512195 24:0.16666667 25:0.15384615 29:0.5 30:0.2 35:0.25 37:0.11111111 41:0.125 42:0.16666667 43:0.16666667 44:0.5 45:0.5 
-32 0:0.25559301 1:0.49015206 2:0.79376777 3:0.26272583 4:0.29704655 5:0.38242446 6:0.54712448 7:0.52705704 8:0.56675225 9:0.32855685 10:0.489753 12:0.020217353 13:0.0031532142 14:0.024340091 15:0.10286159 16:0.25 17:0.2 18:0.23076923 19:0.2 26:0.66666667 29:0.25 37:0.22222222 39:0.5 
18.81851297794882 0:0.12909068 1:0.16736563 2:0.061245534 3:0.26272583 4:0.30585124 5:0.24172625 6:0.75745258 7:0.26167484 8:0.33570336 9:0.32855685 10:0.489753 12:0.020217353 13:0.0031532142 14:0.024340091 15:0.2291163 16:0.33333333 17:0.2 18:0.15384615 19:0.2 20:0.024390244 25:0.076923077 28:0.5 29:0.25 32:0.16666667 37:0.11111111 39:0.5 
-20.85637419219273 0:0.52100752 1:0.48409543 2:0.36782385 3:0.17043323 4:0.43455623 5:0.36529907 6:0.50277889 7:0.48911359 8:0.59529489 9:0.67262211 10:0.50557212 11:0.35031158 12:0.25177269 13:0.12600634 14:0.056738542 15:0.28370857 16:0.25 18:0.46153846 19:0.4 20:0.26829268 21:0.058823529 25:0.23076923 26:0.33333333 27:0.058823529 29:0.25 31:0.33333333 32:0.16666667 35:0.25 36:0.11111111 37:0.11111111 41:0.125 42:0.16666667 43:0.33333333 45:0.25 
32 0:0.52047171 1:0.463443 2:0.51563932 4:0.05581811 5:0.71597449 6:0.75745258 7:0.25911986 8:0.44055424 9:0.75721497 10:0.50486637 11:0.3790072 12:0.55706146 13:0.030566336 14:0.33922051 15:0.35715105 16:0.16666667 18:0.38461538 19:0.4 20:0.29268293 21:0.058823529 24:0.5 25:0.15384615 27:0.11764706 29:0.25 30:0.2 32:0.5 35:0.25 41:0.375 43:0.16666667 
-32 0:0.430074 1:0.80966976 2:1 3:0.17043323 4:0.081864993 5:0.68584365 6:0.75745258 7:0.75448181 8:0.75965641 9:0.32855685 10:0.489753 12:0.020217353 13:0.0031532142 14:0.024340091 15:0.13673412 16:0.083333333 18:0.30769231 19:0.4 20:0.024390244 24:0.16666667 25:0.076923077 29:0.25 31:0.33333333 32:0.33333333 43:0.16666667 
13.72203112577427 0:0.47964229 1:0.67692131 2:0.47347106 3:0.17043323 4:0.15661404 5:0.54585443 6:1 7:0.53319459 8:0.67965021 9:0.81520897 10:0.6767517 12:0.020217353 13:0.0031532142 14:0.024340091 15:0.27164498 16:0.083333333 18:0.38461538 19:0.4 20:0.097560976 24:0.33333333 27:0.058823529 31:0.33333333 32:0.5 42:0.16666667 45:0.5 
-10.91103920788828 0:0.71914861 1:0.4469069 2:0.71869388 3:0.27488589 4:0.45911192 5:0.43925478 6:0.50601968 7:0.47110378 8:0.58337152 9:0.72651231 10:0.37703427 11:0.49135603 12:0.57031599 13:0.094266548 14:0.009476687 15:0.31543897 16:0.5 18:0.61538462 19:0.4 20:0.53658537 21:0.17647059 24:0.16666667 25:0.23076923 26:0.33333333 27:0.11764706 29:0.25 32:0.16666667 33:0.33333333 35:0.5 36:0.44444444 37:0.33333333 40:0.5 41:0.125 43:0.66666667 
-6.97321953744314 0:0.47910368 1:0.46770634 2:1 4:0.026340648 5:0.60643078 6:0.75745258 7:0.32809091 8:0.29529949 9:0.71539337 10:0.42866064 11:0.29854121 12:0.17836489 13:0.081346519 14:0.0078289314 15:0.063401679 16:0.25 17:0.4 18:0.30769231 19:0.2 20:0.24390244 21:0.17647059 25:0.23076923 29:0.25 30:0.2 32:0.16666667 35:0.5 36:0.22222222 42:0.16666667 43:0.33333333 
32 0:0.4017787 1:0.39551317 2:0.36313991 3:0.17043323 4:0.095930062 5:0.39244836 6:0.47055958 7:0.3367522 8:0.58616975 9:0.54870609 10:0.34845447 11:0.41376477 12:0.22151068 13:0.041119877 14:0.072792923 15:0.19413234 16:0.16666667 18:0.23076923 19:0.2 20:0.24390244 21:0.11764706 24:0.5 25:0.15384615 27:0.058823529 29:0.25 31:0.33333333 32:0.16666667 34:0.25 36:0.11111111 40:0.5 42:0.16666667 43:0.16666667 
-32 0:0.41653808 1:0.5826554 2:1 3:0.17043323 4:0.11012314 5:0.4538851 6:1 7:0.50555904 8:0.60956249 9:0.72731456 10:0.67276807 12:0.020217353 13:0.0031532142 14:0.024340091 15:0.1563934 16:0.16666667 18:0.30769231 19:0.2 20:0.097560976 24:0.16666667 25:0.076923077 29:0.25 31:0.33333333 32:0.33333333 35:0.25 41:0.125 42:0.16666667 43:0.16666667 
-25.65695664850133 0:0.7233617 1:0.73411364 2:1 3:0.27488589 4:0.27794219 5:0.79849721 6:1 7:0.61634135 8:0.58616975 9:0.98785664 10:0.63494819 11:0.69162521 12:0.27883854 13:0.37468906 14:0.084850137 15:0.3250421 16:0.16666667 18:0.46153846 19:0.4 20:0.2195122 21:0.11764706 25:0.23076923 29:0.25 31:0.33333333 32:0.66666667 33:0.33333333 36:0.22222222 40:0.5 
-32 0:0.3852072 1:0.32810432 2:0.71869388 3:0.26272583 4:0.33672418 5:0.3791572 6:0.35526851 7:0.36903566 8:0.35232263 9:0.65903467 10:0.26244096 11:0.56634491 12:0.44085105 13:0.29107632 14:0.0051317705 15:0.38335764 16:0.33333333 18:0.46153846 20:0.34146341 21:0.11764706 27:0.29411765 28:0.25 29:0.5 32:0.16666667 33:0.33333333 35:0.5 36:0.11111111 39:0.5 41:0.25 43:0.33333333 
-32 0:0.42413043 1:0.36964057 2:0.76217589 3:0.17043323 4:0.35435784 5:0.53434713 6:1 7:0.29529712 8:0.45587662 9:0.65233713 10:0.28813637 11:0.43786592 12:0.22671592 13:0.16506682 14:0.065499429 15:0.25893768 16:0.5 17:0.4 18:0.38461538 19:0.4 20:0.31707317 21:0.11764706 25:0.15384615 26:0.33333333 27:0.058823529 28:0.25 29:0.25 31:0.33333333 32:0.33333333 34:0.25 35:0.5 36:0.11111111 37:0.11111111 40:0.5 42:0.16666667 45:0.25 
-30.67437732541998 0:0.56516244 1:0.46251408 2:0.33167283 3:0.27488589 4:0.18810719 5:0.67257293 6:0.713107 7:0.33346485 8:0.45685357 9:0.6116464 10:0.24251985 11:0.53324597 12:0.57576987 13:0.074587106 14:0.029193394 15:0.29145249 16:0.25 18:0.53846154 19:0.8 20:0.34146341 21:0.11764706 24:0.16666667 25:0.15384615 26:0.66666667 27:0.11764706 28:0.25 29:0.5 32:0.16666667 33:0.33333333 37:0.11111111 40:0.5 41:0.125 42:0.33333333 43:0.16666667 
6.642502539877111 0:0.68547098 1:0.57511109 2:1 4:0.29171349 5:0.5144717 6:1 7:0.44572981 8:0.48483367 9:0.68406274 10:0.25059403 11:0.75394894 12:0.65697743 13:0.16214808 14:0.20796678 15:0.36125343 16:0.16666667 18:0.38461538 19:0.2 20:0.31707317 21:0.23529412 24:0.5 27:0.11764706 29:0.25 30:0.2 32:0.66666667 35:0.25 36:0.22222222 42:0.16666667 
-32 0:0.33751353 1:0.40723218 2:0.56746543 4:0.21243215 5:0.68399764 6:0.713107 7:0.49405141 9:0.60308994 10:0.29170414 11:0.52806129 12:0.23311341 13:0.28995538 14:0.15881782 15:0.20274009 16:0.25 17:0.2 18:0.30769231 19:0.6 20:0.14634146 21:0.11764706 25:0.15384615 26:0.33333333 30:0.4 32:0.16666667 35:0.25 42:0.16666667 43:0.33333333 
-32 0:0.64244895 1:0.48388678 2:1 4:0.32276891 5:0.60721857 6:1 7:0.36623068 8:0.48783852 9:0.7731526 10:0.21544194 11:0.61787108 12:0.30143595 13:0.091767772 14:0.098850942 15:0.41389151 16:0.33333333 18:0.61538462 19:0.6 20:0.3902439 21:0.17647059 24:0.33333333 26:0.33333333 27:0.058823529 28:0.25 29:0.25 30:0.2 32:0.5 35:0.25 36:0.11111111 37:0.11111111 41:0.375 43:0.33333333 45:0.25 
32 0:0.39542975 1:0.45171555 2:0.33167283 3:0.27488589 4:0.31038354 5:0.54844932 6:0.55887507 7:0.47275375 8:0.54912123 9:0.64830931 10:0.3277877 11:0.54172539 12:0.3899828 13:0.31594578 14:0.30370379 15:0.20334865 16:0.33333333 18:0.38461538 19:0.2 20:0.17073171 21:0.058823529 25:0.076923077 27:0.058823529 29:0.25 32:0.16666667 35:0.5 37:0.11111111 40:0.5 41:0.125 43:0.33333333 45:0.25 
32 0:0.54638214 1:0.625173 2:0.56746543 4:0.29171349 5:0.57022417 6:0.75745258 7:0.70648048 8:0.78013316 9:0.67802054 10:0.67540647 11:0.35732208 12:0.38483003 13:0.17083526 14:0.09446853 15:0.43867297 16:0.16666667 18:0.38461538 19:0.2 20:0.17073171 21:0.058823529 24:0.33333333 25:0.15384615 29:0.25 30:0.2 32:0.5 35:0.25 41:0.125 43:0.16666667 
-32 0:0.40385595 1:0.75371994 3:0.26272583 4:0.31322809 5:0.88438052 6:1 7:0.79324667 8:0.85438449 9:0.32855685 10:0.489753 12:0.020217353 13:0.0031532142 14:0.024340091 15:0.31480353 16:0.16666667 18:0.30769231 19:0.4 20:0.024390244 25:0.076923077 30:0.2 32:0.5 39:0.5 43:0.16666667 
4.119474499694152 0:0.11539574 1:0.12865522 2:0.61520257 4:0.1982944 5:0.36317987 6:0.5 7:0.15327146 8:0.31426299 9:0.60678787 11:0.72473653 12:0.45893287 13:0.52999238 14:0.3073853 15:0.30737142 16:0.25 18:0.15384615 20:0.2195122 21:0.11764706 24:0.16666667 28:0.5 30:0.2 32:0.16666667 36:0.22222222 41:0.625 45:0.25 
-16.45207372862086 0:0.27244716 1:0.31039783 2:0.36782385 3:0.17043323 4:0.086989971 5:0.34598541 6:0.50601968 7:0.24112139 8:0.45685357 9:0.61134015 10:0.26220892 11:0.78178527 12:0.20584964 13:0.59240853 14:0.1939209 15:0.28919201 16:0.25 18:0.15384615 20:0.17073171 21:0.058823529 24:0.5 25:0.076923077 28:0.25 31:0.33333333 32:0.33333333 34:0.25 37:0.11111111 41:0.125 42:0.16666667 
3.3044570037277 0:0.40619044 1:0.52657594 2:0.51563932 4:0.21243215 5:0.53197021 6:0.50601968 7:0.5479329 8:0.44055424 9:0.55331862 10:0.54645277 11:0.16157131 12:0.30105877 13:0.1662881 14:0.35034474 15:0.24724678 16:0.16666667 18:0.23076923 20:0.12195122 25:0.38461538 30:0.2 32:0.33333333 35:0.25 36:0.11111111 43:0.16666667 
-32 0:0.31365163 1:0.50611389 2:0.061245534 3:0.17043323 4:0.25003313 5:0.54992669 6:0.713107 7:0.54238057 8:0.7035185 9:0.32855685 10:0.489753 12:0.020217353 13:0.0031532142 14:0.024340091 15:0.22600253 16:0.16666667 18:0.30769231 19:0.4 20:0.048780488 24:0.16666667 28:0.25 29:0.25 31:0.33333333 32:0.16666667 36:0.11111111 43:0.33333333 
-32 0:0.36493315 1:0.76237499 2:0.56746543 3:0.27488589 4:0.15661404 5:0.62314736 6:0.55887507 7:0.81866246 8:0.88110849 9:0.32855685 10:0.489753 12:0.020217353 13:0.0031532142 14:0.024340091 15:0.19044386 16:0.083333333 18:0.15384615 21:0.058823529 25:0.15384615 32:0.33333333 40:0.5 
-8.019137051982845 0:0.80924006 1:0.34353084 2:0.56746543 3:0.26272583 4:0.20468887 5:0.5253994 6:0.713107 7:0.3320704 8:0.48483367 9:0.58525746 10:0.31696619 11:0.37520107 12:0.27135349 13:0.020646186 14:0.0092199121 15:0.44262895 16:0.25 18:0.38461538 19:0.2 20:1 21:0.35294118 24:0.5 25:0.69230769 27:0.58823529 29:0.5 30:0.2 32:0.33333333 36:1 37:0.11111111 39:0.5 41:0.25 43:0.16666667 
-7.617065505148842 0:0.25024674 1:0.24617423 4:0.04168036 5:0.32483124 6:0.31632766 7:0.33096582 8:0.31426299 9:0.55187154 10:0.18075755 11:0.52234732 12:0.48617934 13:0.34680865 14:0.023444943 15:0.22248713 16:0.16666667 18:0.30769231 20:0.26829268 21:0.17647059 24:0.33333333 27:0.17647059 29:0.5 30:0.4 34:0.25 41:0.25 43:0.33333333 
-32 0:0.35086308 1:0.52501516 2:0.50973687 3:0.17043323 4:0.1745516 5:0.61228625 6:0.713107 7:0.59185863 8:0.52527033 9:0.37292488 10:0.54500116 12:0.020217353 13:0.0031532142 14:0.024340091 15:0.096303848 16:0.16666667 18:0.23076923 19:0.4 20:0.073170732 21:0.11764706 31:0.33333333 32:0.16666667 36:0.11111111 37:0.11111111 42:0.16666667 43:0.33333333 
32 0:0.45578607 1:0.40976063 2:1 3:0.26272583 4:0.27522523 5:0.33990379 6:0.66030193 7:0.25575856 8:0.52446426 9:0.66009634 10:0.15536867 11:0.65881363 12:0.44941309 13:0.34822833 14:0.096734092 15:0.31091249 16:0.33333333 18:0.46153846 19:0.4 20:0.29268293 21:0.11764706 24:0.16666667 25:0.076923077 27:0.23529412 28:0.25 29:0.25 32:0.33333333 33:0.33333333 35:0.25 37:0.11111111 39:0.5 43:0.16666667 44:0.5 
10.02587063040285 0:0.51371245 1:0.42408574 2:0.36313991 3:0.26272583 4:0.56642354 5:0.47024446 6:0.78967189 7:0.38339745 8:0.59363723 9:0.56311457 10:0.33129816 11:0.35427025 12:0.6397839 13:0.04682532 14:0.086140362 15:0.47321778 16:0.41666667 18:0.38461538 19:0.2 20:0.34146341 21:0.11764706 25:0.076923077 26:0.33333333 27:0.11764706 32:0.5 34:0.75 35:0.25 36:0.11111111 37:0.33333333 39:0.5 41:0.125 43:0.16666667 
9.574812672407017 0:0.31122513 1:0.22552185 2:0.35112457 3:0.17043323 4:0.016704046 5:0.235982 6:0.213107 7:0.33426431 8:0.4456109 9:0.46832343 10:0.2568263 11:0.40453382 12:0.17085409 13:0.07666725 14:0.002786158 15:0.11794643 16:0.16666667 18:0.076923077 20:0.56097561 21:0.29411765 24:0.16666667 25:0.076923077 27:0.58823529 31:0.33333333 36:0.88888889 40:0.5 42:0.16666667 43:0.16666667 
8.229432325326618 0:0.29883027 1:0.31133318 2:0.36782385 4:0.026340648 5:0.30742785 6:0.213107 7:0.38810148 8:0.43551128 9:0.58089922 10:0.3014599 11:0.30156486 12:0.6382462 13:0.087567303 14:0.41789235 15:0.16745602 16:0.083333333 18:0.23076923 20:0.2195122 21:0.11764706 25:0.15384615 27:0.058823529 29:0.25 30:0.2 36:0.22222222 41:0.5 43:0.33333333 
32 0:0.5015006 1:0.54122559 2:0.56746543 3:0.17043323 4:0.40664718 5:0.50206708 6:0.713107 7:0.39223974 8:0.58337152 9:0.74480595 10:0.32133775 11:0.69117442 12:0.37156667 13:0.61446581 14:0.026006949 15:0.34136903 16:0.25 18:0.46153846 19:0.4 20:0.19512195 21:0.058823529 25:0.076923077 27:0.11764706 29:0.25 31:0.33333333 32:0.33333333 37:0.22222222 41:0.125 43:0.5 
7.837451855053922 0:0.48849946 1:0.55866075 2:0.44436062 4:0.081864993 5:0.5952539 6:0.713107 7:0.46882536 8:0.61404091 9:0.81482263 10:0.35392685 11:0.73074167 12:0.1451059 13:0.5035611 14:0.033648769 15:0.25252449 16:0.083333333 18:0.38461538 19:0.4 20:0.17073171 21:0.058823529 25:0.23076923 30:0.2 32:0.33333333 41:0.125 42:0.33333333 43:0.33333333 45:0.25 
-22.23776355711549 0:0.3116799 1:0.35547967 2:0.33167283 3:0.27488589 4:0.090305624 5:0.45510525 6:0.78967189 7:0.36263344 8:0.63938457 9:0.5257891 10:0.35315956 11:0.41430627 12:0.096597291 13:0.25749292 14:0.073120919 15:0.081562597 16:0.25 18:0.23076923 19:0.4 20:0.17073171 24:0.5 26:0.33333333 27:0.058823529 32:0.16666667 33:0.33333333 37:0.22222222 40:0.5 42:0.5 
-32 0:0.38924668 1:0.44461066 2:0.51563932 3:0.34562834 4:0.19002213 5:0.41404859 6:0.46301393 7:0.49080292 8:0.55014184 9:0.53989868 10:0.4114195 11:0.21487498 12:0.30379793 13:0.18250752 14:0.26512256 15:0.33683084 16:0.16666667 18:0.23076923 20:0.17073171 24:0.33333333 25:0.15384615 29:0.25 31:0.33333333 32:0.33333333 35:0.25 41:0.25 42:0.33333333 
-32 0:0.38355639 1:0.46454838 2:0.71869388 4:0.18683818 5:0.66477182 6:0.78967189 7:0.29326347 8:0.59059899 9:0.61097572 10:0.4793749 11:0.37405335 12:0.41707734 13:0.20852391 14:0.43950501 15:0.18903932 16:0.25 17:0.2 18:0.38461538 19:0.4 20:0.14634146 21:0.058823529 24:0.16666667 26:0.33333333 29:0.25 30:0.2 32:0.16666667 33:0.33333333 35:0.5 41:0.125 42:0.16666667 43:0.16666667 
-32 0:0.56209506 1:0.64322852 2:0.51563932 3:0.26272583 4:0.25003313 5:0.81979823 6:1 7:0.44555196 8:0.57867562 9:0.8301131 10:0.5548642 11:0.6198055 12:0.49698076 13:0.36753259 14:0.26947799 15:0.29188517 16:0.25 17:0.2 18:0.38461538 19:0.2 20:0.17073171 21:0.058823529 25:0.076923077 29:0.25 32:0.5 35:0.25 36:0.11111111 37:0.11111111 39:0.5 41:0.125 42:0.16666667 43:0.16666667 
-15.59511909395101 0:0.37064931 1:0.29155155 3:0.26272583 4:0.31322809 5:0.37563364 6:0.55887507 7:0.22092323 8:0.36659023 9:0.54126213 10:0.19185245 11:0.3845397 12:0.6630245 13:0.017602978 14:0.16265599 15:0.45870328 16:0.25 18:0.38461538 20:0.41463415 21:0.17647059 24:0.33333333 27:0.23529412 28:0.25 29:0.25 30:0.2 32:0.33333333 34:0.75 36:0.11111111 39:0.5 41:0.125 42:0.16666667 43:0.16666667 45:0.25 
-32 0:0.22245429 1:0.27706002 2:0.71869388 3:0.26272583 4:0.35980718 5:0.25071059 6:0.33823758 7:0.36044007 8:0.33570336 9:0.420071 10:0.38092682 11:0.22373266 12:0.023402528 13:0.22905101 14:0.028037488 15:0.33005629 16:0.33333333 17:0.2 18:0.23076923 20:0.12195122 21:0.058823529 25:0.15384615 27:0.058823529 28:0.5 29:0.25 32:0.16666667 37:0.11111111 39:0.5 43:0.16666667 
32 0:0.31696493 1:0.46875127 2:1 3:0.17043323 4:0.31322809 5:0.49206786 6:0.55887507 7:0.32624703 8:0.19794274 9:0.29159937 10:0.44373266 12:0.020217353 13:0.0031532142 14:0.024340091 15:0.29326456 16:0.25 17:0.2 18:0.23076923 20:0.073170732 21:0.11764706 26:0.33333333 27:0.058823529 28:0.25 31:0.33333333 32:0.33333333 37:0.11111111 
13.43205881858678 0:0.31599863 1:0.31542603 2:1 4:0.26166445 5:0.41473626 6:0.50601968 7:0.26293075 8:0.34762673 9:0.45657421 10:0.25426249 11:0.34178733 12:0.44334757 13:0.035453975 14:0.036756701 15:0.20107995 16:0.41666667 17:0.2 18:0.46153846 19:0.4 20:0.24390244 21:0.058823529 24:0.16666667 25:0.076923077 28:0.25 29:0.25 30:0.2 32:0.16666667 34:0.25 35:0.75 41:0.125 43:0.16666667 45:0.75 
-15.25362341882908 0:0.3889482 1:0.3680531 2:0.61520257 3:0.56746543 5:0.26899851 6:0.35526851 7:0.36431353 8:0.59999078 9:0.59694648 10:0.34700768 11:0.42990876 12:0.37946268 13:0.26602296 14:0.2438702 15:0.1719831 18:0.23076923 20:0.26829268 21:0.23529412 25:0.076923077 27:0.17647059 32:0.16666667 36:0.11111111 41:0.625 43:0.16666667 45:0.25 
-4.435648981611478 0:0.79319864 1:0.35330122 2:0.79376777 4:0.70649186 5:0.72288523 6:1 7:0.32616176 8:0.49288148 9:0.81535589 10:0.25572273 11:0.7377551 12:0.46714156 13:0.015540985 14:0.025003572 15:1 16:0.5 17:0.2 18:1 19:0.2 20:0.92682927 25:0.076923077 26:1 27:1 28:0.25 29:0.25 30:0.2 32:0.66666667 35:0.5 36:0.55555556 37:0.22222222 41:0.25 43:0.66666667 45:0.25 
-11.80279588642528 0:0.86112584 1:0.42479646 2:0.36782385 3:0.26272583 4:0.36266724 5:0.6289704 6:0.78967189 7:0.3443746 8:0.57867562 9:0.69791774 10:0.41382898 11:0.4988628 12:0.48892405 13:0.034179934 14:0.037618889 15:0.50917645 16:0.5 17:0.2 18:0.61538462 19:0.2 20:0.75609756 21:0.17647059 24:0.66666667 25:0.30769231 26:0.66666667 27:0.17647059 29:0.5 32:0.5 34:0.75 35:0.75 36:0.22222222 37:0.22222222 39:0.5 41:0.125 42:0.5 43:0.16666667 
6.605262151031858 0:0.22045992 1:0.30857297 2:0.79376777 4:0.0089687788 5:0.26454581 6:0.213107 7:0.3708783 8:0.37965482 9:0.20810625 10:0.33976501 12:0.020217353 13:0.0031532142 14:0.024340091 15:0.13955579 16:0.083333333 18:0.23076923 20:0.073170732 26:0.33333333 27:0.058823529 29:0.25 30:0.2 36:0.11111111 41:0.25 42:0.16666667 43:0.16666667 
5.04064447059859 0:0.45490672 1:0.49150948 2:0.56746543 3:0.27488589 4:0.44918079 5:0.48210824 6:0.47055958 7:0.46237515 8:0.67541248 9:0.60210789 10:0.44848465 11:0.28427838 12:0.19256289 13:0.12939816 14:0.021689728 15:0.1410095 16:0.33333333 18:0.46153846 19:0.4 20:0.19512195 21:0.058823529 25:0.15384615 29:0.5 35:0.75 40:0.5 42:0.16666667 43:0.33333333 44:1 
-18.89505391290235 0:0.30767196 1:0.30765198 3:0.34562834 4:0.33590482 5:0.63087312 6:0.75745258 7:0.26220442 8:0.29529949 9:0.74785054 10:0.29891764 11:0.70363667 12:0.29445854 13:0.47505023 14:0.04290562 15:0.37338775 16:0.41666667 17:0.2 18:0.30769231 19:0.4 20:0.24390244 21:0.11764706 22:1 25:0.076923077 28:0.25 29:0.25 30:0.4 32:0.33333333 35:0.5 36:0.11111111 41:0.125 43:0.16666667 
31.69907773809748 0:0.21772463 1:0.25811364 2:0.17043323 3:0.17043323 4:0.1403237 5:0.27712188 6:0.50601968 7:0.39024596 8:0.52527033 9:0.44926301 10:0.41374207 11:0.27895945 12:0.24960101 13:0.24539488 14:0.077356101 15:0.16954284 16:0.33333333 18:0.15384615 20:0.14634146 21:0.11764706 25:0.076923077 27:0.058823529 31:0.66666667 32:0.16666667 35:0.25 36:0.11111111 40:0.5 42:0.16666667 45:0.25 
32 0:0.5485541 1:0.53254757 2:0.36782385 3:0.17043323 4:0.081864993 5:0.80793358 6:1 7:0.37305681 8:0.61425839 9:0.83894407 10:0.41567927 11:0.57589912 12:0.26127272 13:0.30778834 14:0.0066901766 15:0.161842 16:0.083333333 18:0.38461538 19:0.4 20:0.24390244 21:0.11764706 24:0.16666667 25:0.15384615 26:0.33333333 27:0.058823529 29:0.25 31:0.33333333 32:0.33333333 41:0.375 42:0.16666667 43:0.16666667 
-19.30096988053728 0:0.42414419 1:0.34590895 2:0.56746543 4:0.60311377 5:0.5238084 6:0.50601968 7:0.31354986 8:0.28337612 9:0.78541006 10:0.28287563 11:0.64593664 12:0.78966613 13:0.1720394 14:0.14148898 15:0.58709504 16:0.5 17:0.2 18:0.23076923 20:0.36585366 21:0.17647059 25:0.30769231 30:0.4 32:0.5 36:0.33333333 37:0.44444444 41:0.25 
-32 0:0.40762457 1:0.76176225 2:0.61520257 3:0.26272583 5:0.74167068 6:1 7:0.84929 8:0.53873187 9:0.32855685 10:0.489753 12:0.020217353 13:0.0031532142 14:0.024340091 15:0.067640971 16:0.083333333 18:0.30769231 19:0.4 20:0.024390244 29:0.25 32:0.33333333 36:0.11111111 39:0.5 41:0.125 45:0.25 
-26.93209441420231 0:0.45753697 1:0.3821279 2:0.56746543 3:0.26272583 4:0.19165215 5:0.32263095 6:0.50277889 7:0.39071112 8:0.6102565 9:0.53408427 10:0.3035994 11:0.45364365 12:0.45564826 13:0.1435666 14:0.021872239 15:0.24775461 16:0.16666667 18:0.46153846 19:0.6 20:0.34146341 21:0.11764706 25:0.38461538 26:0.66666667 27:0.17647059 28:0.25 34:0.25 39:0.5 41:0.125 43:0.33333333 44:0.5 45:0.25 
10.2088331967755 0:0.57047065 1:0.43501308 2:0.33167283 3:0.26272583 4:0.66861561 5:0.39469895 6:0.5 7:0.42573253 8:0.36659023 9:0.62726895 10:0.31183867 11:0.50431611 12:0.91236842 13:0.06161765 14:0.10346458 15:0.83425686 16:0.5 18:0.46153846 20:0.3902439 21:0.17647059 24:0.33333333 25:0.076923077 27:0.058823529 28:0.25 29:0.25 30:0.2 32:0.66666667 33:0.33333333 35:0.5 36:0.11111111 37:0.11111111 39:0.5 41:0.125 42:0.16666667 
32 0:0.30571061 1:0.39012311 2:0.36782385 3:0.27488589 4:0.081864993 5:0.49552612 6:0.47055958 7:0.51167903 8:0.53485363 9:0.42877357 10:0.43156188 11:0.17010471 12:0.058750418 13:0.17490408 14:0.069069814 15:0.0470161 16:0.16666667 18:0.30769231 19:0.4 20:0.12195122 24:0.33333333 25:0.076923077 27:0.058823529 29:0.25 37:0.11111111 40:0.5 41:0.125 43:0.33333333 45:0.25 
-2.525622985147057 0:0.37212592 1:0.32875372 2:0.36782385 3:0.26272583 4:0.26638809 5:0.27197286 6:0.35526851 7:0.46091835 8:0.61425839 9:0.52873516 10:0.43661593 11:0.33676037 12:0.16134403 13:0.017785379 14:0.0073751263 15:0.21301802 16:0.16666667 18:0.15384615 20:0.31707317 21:0.11764706 24:0.16666667 25:0.30769231 27:0.17647059 32:0.16666667 35:0.25 36:0.22222222 39:0.5 41:0.25 42:0.16666667 43:0.16666667 
-6.717409817117685 0:0.55455565 1:0.42420669 2:0.35112457 3:0.27488589 4:0.32255529 5:0.49019632 6:0.55887507 7:0.39822379 8:0.49288148 9:0.59572897 10:0.33620956 11:0.41990981 12:0.3194777 13:0.12128948 14:0.014973812 15:0.33764912 16:0.25 18:0.30769231 20:0.3902439 21:0.11764706 24:0.5 25:0.46153846 27:0.058823529 28:0.25 29:0.25 32:0.33333333 34:0.25 35:0.25 36:0.11111111 40:0.5 42:0.16666667 43:0.16666667 
-32 0:0.20398721 1:0.36166967 2:0.26272583 4:0.10238787 5:0.37443321 6:0.51490516 7:0.61511481 8:0.6041237 9:0.32855685 10:0.489753 12:0.020217353 13:0.0031532142 14:0.024340091 15:0.10935298 16:0.16666667 18:0.23076923 19:0.4 29:0.75 30:0.2 39:0.5 42:0.16666667 
-15.22160355129111 0:0.64356651 1:0.45428811 2:0.71869388 4:0.17920937 5:0.49743518 6:0.61254551 7:0.34500667 8:0.5371609 9:0.7338899 10:0.35705103 11:0.77975686 12:0.38671252 13:0.065183371 14:0.095405734 15:0.45436264 16:0.16666667 18:0.69230769 19:0.4 20:0.43902439 21:0.058823529 24:0.16666667 25:0.15384615 26:0.33333333 27:0.23529412 28:0.25 30:0.2 32:0.33333333 33:0.66666667 36:0.33333333 41:0.125 42:0.16666667 43:0.66666667 
-32 0:0.17752674 1:0.20807353 2:0.62009071 4:0.04168036 5:0.38133533 6:0.51490516 7:0.32056791 8:0.29999539 9:0.40475631 10:0.36522351 11:0.33860854 12:0.11256998 13:0.17751534 14:0.042252794 15:0.1158177 16:0.16666667 18:0.23076923 19:0.2 20:0.14634146 21:0.17647059 27:0.23529412 28:0.25 29:0.5 30:0.2 33:0.33333333 
32 0:0.4092596 1:0.46760724 2:0.62009071 4:0.15423306 5:0.53312683 6:0.61254551 7:0.54022425 8:0.28337612 9:0.66783095 10:0.34313391 11:0.52871938 12:0.13975705 13:0.40066903 14:0.0071193525 15:0.12773554 16:0.25 17:0.2 18:0.38461538 19:0.2 20:0.17073171 21:0.17647059 24:0.33333333 30:0.2 32:0.16666667 33:0.66666667 37:0.22222222 43:0.33333333 
1.596249303851207 0:0.53463483 1:0.29777631 2:0.44436062 3:0.26272583 4:0.63174686 5:0.44817708 6:0.50601968 7:0.23555605 8:0.36659023 9:0.50206547 10:0.18618069 11:0.28420796 12:0.49255755 13:0.045291995 14:0.022007645 15:0.66127678 16:0.5 18:0.53846154 19:0.2 20:0.73170732 24:0.16666667 25:0.38461538 26:0.33333333 27:0.11764706 28:0.5 29:0.25 32:0.33333333 35:0.5 36:0.44444444 39:1 41:1 42:0.5 43:0.5 
10.13479361145974 0:0.64529138 1:0.65636532 2:0.47347106 3:0.26272583 4:0.025672824 5:0.88438052 6:1 7:0.31406764 8:0.53873187 9:0.73123948 10:0.38623219 11:0.25347202 12:0.30883367 13:0.06323356 14:0.11669829 15:0.20809638 16:0.16666667 18:0.46153846 19:0.6 20:0.2195122 24:0.33333333 25:0.076923077 27:0.058823529 32:0.66666667 37:0.11111111 39:0.5 41:0.125 42:0.33333333 43:0.33333333 
-32 0:0.36389397 1:0.50401493 2:0.36313991 3:0.26272583 4:0.027909055 5:0.59385114 6:0.55887507 7:0.40442063 8:0.507845 9:0.61412764 10:0.6480911 12:0.020217353 13:0.0031532142 14:0.024340091 15:0.19178942 16:0.16666667 17:0.2 18:0.15384615 20:0.097560976 21:0.058823529 25:0.15384615 32:0.33333333 34:0.25 36:0.11111111 37:0.11111111 39:0.5 42:0.16666667 
-32 0:0.33230138 1:0.4262337 2:0.33167283 3:0.26272583 4:0.23997476 5:0.53898062 6:0.75745258 7:0.36450785 8:0.53873187 9:0.49060372 10:0.60797901 11:0.20864901 12:0.086626118 13:0.21382139 14:0.10142832 15:0.10856751 16:0.25 18:0.23076923 19:0.4 20:0.12195122 21:0.11764706 24:0.16666667 27:0.058823529 29:0.25 32:0.16666667 35:0.25 37:0.11111111 39:0.5 41:0.125 43:0.16666667 
19.9664870989561 0:0.52943891 1:0.69394885 2:1 3:0.26272583 4:0.081864993 5:0.68149666 6:0.78967189 7:0.42411935 8:0.44893775 9:0.72087045 10:0.57988184 11:0.33060646 12:0.48118857 13:0.33695907 14:0.55944193 15:0.29195723 16:0.16666667 17:0.2 18:0.38461538 19:0.2 20:0.12195122 24:0.5 26:0.33333333 32:0.5 39:1 41:0.125 43:0.16666667 
-13.89952751473404 0:0.41881727 1:0.89652967 2:0.76217589 3:0.17043323 4:0.15661404 5:0.78717252 6:1 7:0.8540152 8:1 9:0.32855685 10:0.489753 12:0.020217353 13:0.0031532142 14:0.024340091 15:0.14346635 16:0.083333333 18:0.30769231 19:0.4 24:0.16666667 29:0.5 31:0.33333333 32:0.33333333 
11.05135139624645 0:0.41534036 1:0.40817478 2:0.35112457 3:0.26272583 4:0.044613101 5:0.68942455 6:0.75745258 7:0.25321122 8:0.40452633 9:0.52540815 10:0.49563051 11:0.24428763 12:0.19212287 13:0.091830748 14:0.075343416 15:0.24024799 16:0.16666667 18:0.38461538 19:0.4 20:0.24390244 21:0.058823529 24:0.33333333 25:0.076923077 26:0.33333333 27:0.11764706 29:0.75 30:0.2 32:0.16666667 39:0.5 41:0.25 42:0.16666667 
-25.9858327820962 0:0.49879877 1:0.70553752 2:0.56743967 3:0.26272583 4:0.34113714 5:0.53197021 6:0.5588488 7:0.6757308 8:0.73585374 9:0.69569542 10:0.71272351 12:0.020217353 13:0.0031532142 14:0.024340091 15:0.32299789 16:0.16666667 18:0.23076923 20:0.097560976 21:0.058823529 24:0.16666667 25:0.15384615 32:0.5 35:0.25 38:1 39:0.5 
32 0:0.39220733 1:0.42460863 2:0.47347106 3:0.17043323 5:0.39617707 6:0.5 7:0.5554133 8:0.4456109 9:0.62097351 10:0.50498714 11:0.48987856 12:0.16628868 13:0.16761634 14:0.017142879 15:0.23446458 16:0.083333333 18:0.23076923 20:0.19512195 24:0.16666667 25:0.15384615 27:0.058823529 31:0.33333333 32:0.33333333 34:0.25 36:0.22222222 41:0.25 42:0.16666667 43:0.16666667 
30.75256795624411 0:0.41927467 1:0.36582289 2:0.71869388 3:0.27488589 4:0.068049695 5:0.52870815 6:0.78967189 7:0.14118587 8:0.43198206 9:0.55473491 10:0.25713109 11:0.38862425 12:0.54056504 13:0.18796076 14:0.081804819 15:0.21772282 16:0.25 18:0.38461538 19:0.4 20:0.31707317 21:0.11764706 24:0.5 25:0.076923077 26:0.33333333 27:0.058823529 28:0.5 32:0.16666667 36:0.11111111 40:0.5 42:0.5 43:0.33333333 45:0.25 
29.88666571994103 0:0.44931258 1:0.75942905 2:0.56746543 3:0.17043323 4:0.15661404 5:0.76539766 6:0.75745258 7:0.75112154 8:0.88936 9:0.32855685 10:0.489753 12:0.020217353 13:0.0031532142 14:0.024340091 15:0.19686304 16:0.083333333 18:0.30769231 19:0.4 20:0.048780488 21:0.11764706 24:0.16666667 29:0.25 31:0.33333333 32:0.33333333 45:0.25 
-32 0:0.29802721 1:0.5278794 2:0.061245534 3:0.27488589 4:0.081864993 5:0.61638051 6:0.78967189 7:0.68373704 8:0.35232263 9:0.32855685 10:0.489753 12:0.020217353 13:0.0031532142 14:0.024340091 15:0.079583566 16:0.16666667 18:0.30769231 19:0.6 20:0.024390244 26:0.33333333 27:0.058823529 28:0.25 32:0.16666667 40:0.5 43:0.33333333 
32 0:0.47767004 1:0.51579816 2:0.33167283 3:0.17043323 4:0.23997476 5:0.63555808 6:0.75745258 7:0.55686526 8:0.59763912 9:0.8267489 10:0.39270532 11:0.87248098 12:0.14987195 13:0.55879864 14:0.01980673 15:0.37783264 16:0.25 18:0.30769231 19:0.2 20:0.19512195 21:0.11764706 25:0.076923077 27:0.11764706 29:0.25 31:0.33333333 32:0.5 35:0.25 37:0.11111111 41:0.125 42:0.16666667 
-2.036054629212879 0:0.231236 1:0.35222193 2:0.56743967 4:0.21086375 5:0.35418381 6:0.50601968 7:0.3143108 8:0.43551128 9:0.32855685 10:0.489753 12:0.020217353 13:0.0031532142 14:0.024340091 15:0.15089867 16:0.16666667 18:0.076923077 20:0.048780488 25:0.15384615 30:0.2 32:0.16666667 35:0.25 36:0.22222222 38:1 
32 0:0.33803314 1:0.38576184 2:0.51563932 5:0.59001868 6:0.78967189 7:0.23238236 8:0.29999539 9:0.60240418 10:0.5354058 11:0.29957164 12:0.30479837 13:0.041855193 14:0.22180934 15:0.15188454 16:0.083333333 18:0.23076923 19:0.2 20:0.17073171 21:0.058823529 24:0.5 25:0.076923077 26:0.66666667 27:0.11764706 30:0.2 32:0.16666667 34:0.25 42:0.16666667 
-32 0:0.37319847 1:0.48177244 2:0.33167283 4:0.25265954 5:0.52472233 6:0.55887507 7:0.45590352 8:0.48483367 9:0.73981441 10:0.28768869 11:0.8781279 12:0.21295116 13:0.88977905 14:0.24806819 15:0.283394 16:0.25 18:0.30769231 19:0.2 20:0.12195122 21:0.058823529 25:0.076923077 30:0.2 32:0.33333333 35:0.25 36:0.11111111 37:0.11111111 41:0.125 43:0.16666667 45:0.25 
-20.31310543368299 0:0.38914585 1:0.38371872 4:0.10861484 5:0.54992669 6:0.713107 7:0.29056833 8:0.43551128 9:0.60995357 10:0.26803446 11:0.5191681 12:0.39695053 13:0.18957031 14:0.080482103 15:0.24998675 16:0.25 18:0.46153846 19:0.6 20:0.24390244 24:0.16666667 25:0.076923077 26:0.33333333 27:0.058823529 29:0.25 30:0.4 32:0.16666667 36:0.22222222 37:0.11111111 41:0.125 42:0.16666667 43:0.33333333 45:0.25 
-32 0:0.38156906 1:0.36156895 2:0.36313991 4:0.035309427 5:0.50267595 6:0.5 7:0.32930549 8:0.37965482 9:0.54686288 10:0.26837831 11:0.4665501 12:0.41247449 13:0.13237787 14:0.025965999 15:0.27662096 16:0.25 17:0.2 18:0.23076923 20:0.26829268 21:0.11764706 24:0.33333333 30:0.2 32:0.33333333 34:0.25 35:0.25 36:0.33333333 39:0.5 41:0.25 42:0.16666667 43:0.16666667 
-32 0:0.33442491 1:0.60555279 2:0.51563932 3:0.26272583 4:0.1492372 5:0.51641505 6:1 7:0.56943528 8:0.49288148 9:0.32855685 10:0.489753 12:0.020217353 13:0.0031532142 14:0.024340091 15:0.16802141 16:0.16666667 18:0.23076923 19:0.4 20:0.024390244 25:0.15384615 28:0.25 29:0.25 32:0.33333333 39:0.5 
-32 0:0.42804421 1:0.37271766 2:0.33167283 3:0.17043323 4:0.37454523 5:0.34127872 6:0.75745258 7:0.35832093 8:0.57867562 9:0.62952863 10:0.34268097 11:0.49081016 12:0.35420564 13:0.26609097 14:0.011358166 15:0.32858255 16:0.41666667 17:0.2 18:0.30769231 19:0.2 20:0.31707317 21:0.058823529 24:0.33333333 25:0.15384615 27:0.058823529 29:0.5 31:0.33333333 32:0.33333333 35:0.25 37:0.33333333 41:0.25 42:0.33333333 
-32 0:0.25553363 1:0.30517996 2:0.76217589 4:0.16372999 5:0.42408812 6:0.75745258 7:0.26703195 8:0.29999539 9:0.60997203 10:0.15356144 11:0.5274726 12:0.10891582 13:0.53228741 14:0.10109106 15:0.11738296 16:0.25 18:0.23076923 19:0.2 20:0.14634146 24:0.16666667 25:0.076923077 27:0.058823529 29:0.25 30:0.2 32:0.16666667 34:0.25 35:0.25 36:0.11111111 37:0.11111111 41:0.125 43:0.16666667 
-32 0:0.48430017 1:0.6326499 2:0.79376777 3:0.17043323 4:0.31356749 5:0.59236016 6:0.713107 7:0.51539247 8:0.55014184 9:0.75731331 10:0.30598173 11:0.67302373 12:0.11284982 13:0.68269002 14:0.13186916 15:0.23673794 16:0.25 18:0.38461538 19:0.4 20:0.12195122 21:0.058823529 24:0.33333333 26:0.33333333 31:0.33333333 32:0.33333333 37:0.22222222 43:0.33333333 
-15.48202107006601 0:0.44976647 1:0.58575272 2:1 3:0.26272583 4:0.036877834 5:0.41958566 6:1 7:0.3440314 8:0.6041237 9:0.78883622 10:0.35694039 11:0.58480231 12:0.12747689 13:0.59361486 14:0.14884846 15:0.13298045 16:0.16666667 18:0.30769231 19:0.4 20:0.12195122 25:0.076923077 32:0.5 35:0.25 39:0.5 41:0.375 42:0.16666667 43:0.16666667 
32 0:0.58751397 1:0.5689218 2:0.27488589 3:0.17043323 4:0.15661404 5:0.63391574 6:0.61254551 7:0.50651959 8:0.29123101 9:0.72335037 10:0.37068465 11:0.60186561 12:0.35280413 13:0.073854802 14:0.0012683492 15:0.25639529 16:0.25 17:0.2 18:0.53846154 19:0.6 20:0.24390244 21:0.17647059 24:0.16666667 25:0.076923077 27:0.058823529 29:0.25 31:0.66666667 32:0.33333333 33:0.33333333 40:0.5 43:0.5 
-11.35328870236288 0:0.44269749 1:0.43371631 2:0.76217589 3:0.17043323 4:0.25885716 5:0.46286214 6:0.47055958 7:0.38069387 8:0.53485363 9:0.70483239 10:0.44153607 11:0.43995402 12:0.43483838 13:0.17562951 14:0.16134579 15:0.17347395 16:0.25 18:0.46153846 19:0.4 20:0.24390244 24:0.16666667 25:0.15384615 27:0.11764706 29:1 31:0.33333333 33:0.33333333 35:0.25 36:0.22222222 40:0.5 43:0.16666667 
-32 0:0.26755594 1:0.51993604 2:0.33167283 3:0.26272583 4:0.18367872 5:0.40930883 6:0.50277889 7:0.71370218 8:0.89741703 9:0.32855685 10:0.489753 12:0.020217353 13:0.0031532142 14:0.024340091 15:0.075502041 16:0.16666667 18:0.23076923 19:0.2 25:0.076923077 26:0.33333333 37:0.11111111 39:0.5 43:0.33333333 
-32 0:0.56614809 1:0.52376107 2:0.51563932 3:0.27488589 4:0.4084823 5:0.47286477 6:0.51490516 7:0.52427024 8:0.45685357 9:0.65790961 10:0.40763606 11:0.44573961 12:0.31270622 13:0.28396392 14:0.022904267 15:0.43361489 16:0.33333333 18:0.46153846 19:0.2 20:0.26829268 21:0.11764706 24:0.5 25:0.076923077 28:0.25 29:0.5 32:0.33333333 35:0.25 37:0.11111111 40:0.5 42:0.16666667 43:0.33333333 
32 0:0.4900708 1:0.64048648 2:1 3:0.17043323 4:0.32993213 5:0.82222419 6:1 7:0.61374223 8:0.4598785 9:0.5641061 10:0.34843531 11:0.73669571 12:0.0033489236 13:0.74697818 14:0.0047589831 15:0.32361048 16:0.25 18:0.30769231 19:0.2 20:0.12195122 21:0.058823529 24:0.16666667 25:0.076923077 31:0.66666667 32:0.66666667 35:0.25 41:0.125 
32 0:0.4180849 1:0.43009594 2:0.34562834 3:0.17043323 4:0.33089197 5:0.42601326 6:0.75745258 7:0.38485076 8:0.56675225 9:0.75237125 10:0.34196801 11:0.53664591 12:0.35838674 13:0.37819963 14:0.22183026 15:0.28659902 16:0.41666667 17:0.2 18:0.30769231 19:0.2 20:0.2195122 22:0.5 24:0.33333333 25:0.076923077 26:0.33333333 29:0.25 31:0.33333333 32:0.33333333 35:0.25 36:0.11111111 37:0.33333333 41:0.125 
-31.25029463350773 0:0.31230873 1:0.39908344 2:0.17043323 3:0.27488589 4:0.25667881 5:0.53020383 6:1 7:0.44748645 8:0.29123101 9:0.52638304 10:0.38850547 11:0.30795979 12:0.12504156 13:0.31409323 14:0.1460215 15:0.16765235 16:0.33333333 17:0.2 18:0.15384615 19:0.2 20:0.12195122 21:0.17647059 24:0.16666667 25:0.076923077 31:0.66666667 32:0.33333333 37:0.11111111 40:0.5 
32 0:0.3769025 1:0.45626532 2:0.47347106 4:0.25518308 5:0.47337104 6:0.713107 7:0.40160419 8:0.40452633 9:0.70293041 10:0.48808552 11:0.42155685 12:0.40206436 13:0.24871998 14:0.31320875 15:0.42284299 16:0.16666667 18:0.30769231 19:0.2 20:0.14634146 21:0.11764706 24:0.33333333 25:0.076923077 30:0.4 32:0.33333333 41:0.125 43:0.33333333 
32 0:0.62905743 1:0.47479385 2:0.33167283 3:0.26272583 4:0.35493198 5:0.6845376 6:0.75745258 7:0.39514245 8:0.61425839 9:0.7321026 10:0.17250866 11:0.43843727 12:0.68595981 13:0.10794444 14:0.0064058005 15:0.4197519 16:0.33333333 18:0.46153846 19:0.4 20:0.3902439 21:0.17647059 24:0.33333333 25:0.15384615 26:0.33333333 27:0.058823529 28:0.25 29:0.5 32:0.33333333 36:0.22222222 37:0.22222222 39:0.5 41:0.125 42:0.16666667 43:0.16666667 
32 0:0.51308809 1:0.43958065 2:0.51563932 3:0.17043323 4:0.45091119 5:0.62756323 6:0.75745258 7:0.27447689 8:0.58616975 9:0.78779973 10:0.43589374 11:0.51154297 12:0.26773232 13:0.069895062 14:0.039547347 15:0.3070951 16:0.25 18:0.38461538 19:0.2 20:0.31707317 21:0.11764706 25:0.30769231 27:0.058823529 29:0.25 31:0.33333333 32:0.33333333 34:0.25 37:0.22222222 41:0.25 42:0.16666667 43:0.16666667 45:0.25 
-32 0:0.1643129 1:0.20587807 2:0.44436062 4:0.15661404 5:0.38940742 6:0.50601968 7:0.37432481 8:0.052327235 9:0.32554056 10:0.15774066 12:0.020217353 13:0.0031532142 14:0.024340091 15:0.18809409 16:0.16666667 17:0.2 18:0.076923077 20:0.097560976 21:0.058823529 24:0.33333333 25:0.15384615 28:0.25 30:0.2 32:0.16666667 41:0.125 42:0.16666667 
32 0:0.11470501 1:0.12851103 2:0.34562834 3:0.26272583 4:0.11717442 5:0.16961237 6:0.28967189 7:0.36025499 8:0.22446887 9:0.52997336 10:0.2194315 11:0.44461226 12:0.17521141 13:0.3444579 14:0.065975229 15:0.18448 16:0.33333333 17:0.2 18:0.15384615 20:0.19512195 21:0.058823529 24:0.16666667 26:0.33333333 28:0.25 30:0.2 35:0.25 36:0.22222222 39:0.5 41:0.375 42:0.16666667 43:0.16666667 
32 0:0.58260927 1:0.62776931 2:0.56746543 3:0.26272583 4:0.34113714 5:0.54893815 6:0.55887507 7:0.64185621 8:0.66502312 9:0.7505535 10:0.55151885 11:0.24105451 12:0.5496336 13:0.19578581 14:0.43247796 15:0.30642174 16:0.16666667 18:0.38461538 19:0.2 20:0.19512195 21:0.11764706 24:0.16666667 25:0.23076923 26:0.33333333 32:0.33333333 37:0.11111111 39:0.5 41:0.125 43:0.33333333 
1.375506344572146 0:0.87880055 1:0.64437094 2:0.56746543 4:0.43561423 5:0.72447623 6:1 7:0.50379224 8:0.48783852 9:0.88327011 10:0.36807432 11:0.62297935 12:1 13:0.21146484 14:0.42090479 15:0.70069984 16:0.25 18:0.69230769 19:0.4 20:0.3902439 21:0.17647059 25:0.076923077 28:0.25 29:0.5 30:0.2 32:0.83333333 34:0.25 35:0.25 36:0.44444444 41:0.125 43:0.16666667 45:0.25 
32 0:0.39193253 1:0.6522852 2:0.66691713 4:0.026340648 5:0.65071559 6:0.713107 7:0.61769043 8:0.43551128 9:0.32855685 10:0.489753 12:0.020217353 13:0.0031532142 14:0.024340091 15:0.10144134 16:0.083333333 18:0.38461538 19:0.6 20:0.048780488 30:0.2 32:0.16666667 36:0.22222222 43:0.5 44:0.5 
-23.06420183567994 0:0.33691918 1:0.6108756 2:0.71869388 4:0.31322809 5:0.54654589 6:1 7:0.50241482 8:0.35232263 9:0.32855685 10:0.489753 12:0.020217353 13:0.0031532142 14:0.024340091 15:0.41320728 16:0.16666667 18:0.30769231 19:0.4 20:0.024390244 27:0.058823529 28:0.25 30:0.2 32:0.5 43:0.16666667 
19.13239006481402 0:0.35170057 1:0.40146691 2:0.76217589 3:0.26272583 4:0.054249703 5:0.47005024 6:0.25745258 7:0.32630549 8:0.59529489 9:0.51323564 10:0.43457917 11:0.2409461 12:0.54610395 13:0.15268908 14:0.34264363 15:0.11883522 16:0.16666667 18:0.30769231 20:0.17073171 24:0.16666667 25:0.076923077 27:0.17647059 29:0.75 35:0.25 36:0.22222222 39:0.5 43:0.16666667 
32 0:0.41004499 1:0.33587963 2:0.47347106 4:0.38049441 5:0.38402729 6:0.5 7:0.35867917 8:0.57867562 9:0.48971348 10:0.37134489 11:0.37799715 12:0.43421091 13:0.016968062 14:0.0016070575 15:0.37765584 16:0.41666667 17:0.2 18:0.30769231 20:0.36585366 24:1 25:0.076923077 26:0.66666667 27:0.058823529 30:0.2 32:0.16666667 35:0.75 36:0.33333333 37:0.11111111 41:0.125 43:0.16666667 
-32 0:0.45467029 1:0.46653044 2:0.44436062 3:0.27488589 4:0.14799352 5:0.49953268 6:0.713107 7:0.38159617 8:0.60956249 9:0.6053561 10:0.42512577 11:0.30116789 12:0.18768194 13:0.069665115 14:0.026707523 15:0.091003889 16:0.25 18:0.30769231 19:0.2 20:0.2195122 21:0.23529412 32:0.16666667 33:0.33333333 35:0.5 36:0.11111111 40:0.5 41:0.125 42:0.33333333 43:0.33333333 
22.66179472846102 0:0.50964157 1:0.49621753 2:0.35112457 3:0.17043323 4:0.37847722 5:0.52680216 6:0.713107 7:0.43414282 8:0.440915 9:0.56786502 10:0.5809173 11:0.26882321 12:0.34407703 13:0.024764655 14:0.15169659 15:0.43203281 16:0.33333333 17:0.2 18:0.53846154 19:0.4 20:0.24390244 24:0.33333333 25:0.076923077 27:0.058823529 28:0.25 29:0.5 31:0.33333333 32:0.33333333 35:0.25 37:0.11111111 41:0.125 43:0.5 
-32 0:0.2383423 1:0.36549129 4:0.18683818 5:0.47590571 6:0.47055958 7:0.54113617 8:0.65119126 9:0.32855685 10:0.489753 12:0.020217353 13:0.0031532142 14:0.024340091 15:0.20352415 16:0.16666667 18:0.30769231 19:0.4 20:0.048780488 21:0.058823529 24:0.16666667 29:0.5 30:0.4 43:0.33333333 
32 1:0.0061196875 2:0.44436062 3:0.26272583 4:0.087990722 5:0.0028529492 7:0.14859668 8:0.33570336 9:0.32888533 10:0.016214257 11:0.42694033 12:0.2997421 13:0.34855569 14:0.28054647 15:0.13425506 16:0.33333333 17:0.2 20:0.19512195 27:0.11764706 28:0.25 30:0.2 36:0.55555556 37:0.11111111 39:0.5 41:0.125 42:0.33333333 
-18.37730791317474 0:0.22704663 1:0.28329647 2:0.35112457 3:0.17043323 4:0.15661404 5:0.50752788 6:0.50601968 7:0.38548559 8:0.29123101 9:0.50520306 10:0.36845211 11:0.32656644 12:0.27993242 13:0.33287995 14:0.32582098 15:0.16445132 16:0.16666667 17:0.2 18:0.15384615 20:0.12195122 21:0.058823529 25:0.15384615 27:0.11764706 31:0.66666667 32:0.16666667 41:0.125 42:0.16666667 43:0.16666667 
32 0:0.50402544 1:0.46917304 2:0.47347106 4:0.4396335 5:0.62184131 6:1 7:0.37702457 8:0.48483367 9:0.71008882 10:0.39602299 11:0.43287164 12:0.26184436 13:0.062365773 14:0.066501953 15:0.33968193 16:0.41666667 18:0.38461538 19:0.4 20:0.26829268 21:0.11764706 24:0.16666667 25:0.076923077 26:0.33333333 27:0.058823529 30:0.2 32:0.5 35:0.5 36:0.11111111 37:0.11111111 39:0.5 41:0.125 43:0.16666667 
-22.77136228333824 0:0.38506822 1:0.29339304 4:0.20046552 5:0.38362697 6:0.47055958 7:0.3516273 8:0.43551128 9:0.51304462 10:0.35600089 11:0.28321163 12:0.16997425 13:0.070667586 14:0.0029193725 15:0.17757854 16:0.33333333 17:0.2 18:0.38461538 19:0.2 20:0.43902439 24:0.5 25:0.46153846 27:0.058823529 29:0.25 30:0.4 34:0.25 35:0.25 36:0.44444444 37:0.11111111 43:0.16666667 44:1 45:0.25 
-22.60409463369884 0:0.4369721 1:0.61318001 2:0.79376777 4:0.016704046 5:0.50988925 6:0.78967189 7:0.56412256 8:0.40452633 9:0.53725171 10:0.5175683 12:0.020217353 13:0.0031532142 14:0.024340091 15:0.19834073 16:0.083333333 18:0.38461538 19:0.6 20:0.097560976 24:0.16666667 26:0.66666667 27:0.058823529 29:0.25 30:0.2 32:0.33333333 41:0.25 
-32 0:0.29556549 1:0.52262604 2:1 3:0.27488589 4:0.027909055 5:0.42408812 6:0.46301393 7:0.50917651 8:0.67541248 9:0.32855685 10:0.489753 12:0.020217353 13:0.0031532142 14:0.024340091 15:0.070693163 16:0.083333333 18:0.15384615 20:0.024390244 24:0.16666667 25:0.15384615 29:0.25 32:0.16666667 34:0.25 40:0.5 
-25.59262492515812 0:0.51122335 1:0.58477248 2:0.76217589 4:0.098569038 5:0.57076413 6:0.75745258 7:0.54710678 8:0.29999539 9:0.73376307 10:0.52592894 11:0.30986951 12:0.18593124 13:0.15197581 14:0.087029485 15:0.22460059 16:0.16666667 18:0.46153846 19:0.2 20:0.17073171 21:0.058823529 24:0.5 27:0.058823529 29:0.5 30:0.2 32:0.33333333 33:0.33333333 35:0.25 43:0.16666667 
10.06161871872957 0:0.3706099 1:0.42319537 2:0.51563932 4:0.082274192 5:0.47155051 6:0.60756029 7:0.33309106 8:0.36659023 9:0.63593627 10:0.58088907 11:0.16952175 12:0.8496136 13:0.12526214 14:0.64095201 15:0.43817279 16:0.16666667 18:0.30769231 19:0.2 20:0.17073171 24:0.16666667 25:0.23076923 27:0.058823529 28:0.25 30:0.2 32:0.5 34:0.25 41:0.125 45:0.25 
21.45531771189315 0:0.29989919 1:0.34194261 2:0.51563932 3:0.26272583 4:0.53347436 5:0.53312515 6:0.75745258 7:0.15684134 8:0.28337612 9:0.47700844 10:0.37872965 11:0.24580001 12:0.55984839 13:0.2420931 14:0.45473894 15:0.44682328 16:0.41666667 17:0.2 18:0.30769231 19:0.2 20:0.17073171 24:0.16666667 25:0.076923077 28:0.25 29:0.5 30:0.2 32:0.33333333 35:0.25 36:0.11111111 37:0.11111111 39:0.5 41:0.125 
32 0:0.37628409 1:0.29521125 2:0.36313991 4:0.96086527 5:0.45966812 6:0.5 7:0.27195164 8:0.44055424 9:0.60226645 10:0.34382084 11:0.66448165 12:0.45021414 13:0.01201527 14:0.052332239 15:0.67216968 16:0.58333333 17:0.2 18:0.30769231 20:0.41463415 21:0.058823529 24:0.16666667 25:0.15384615 28:0.25 30:0.2 32:0.5 34:0.25 35:0.75 36:0.33333333 37:0.22222222 41:0.5 43:0.16666667 
32 0:0.39932839 1:0.41141679 2:0.35112457 3:0.17043323 4:0.26481968 5:0.40571578 6:0.5 7:0.49950667 8:0.58112679 9:0.56985929 10:0.53735071 11:0.25884805 12:0.088519945 13:0.069546977 14:0.022739943 15:0.33416085 16:0.16666667 18:0.30769231 20:0.2195122 24:0.16666667 27:0.11764706 31:0.33333333 32:0.33333333 34:0.25 35:0.25 36:0.33333333 41:0.25 43:0.33333333 
2.21576156908212 0:0.56419836 1:0.47976443 2:1 3:0.27488589 4:0.64316022 5:0.58451478 6:1 7:0.13800273 8:0.33570336 9:0.64650471 10:0.33814379 11:0.52642735 12:0.66166664 13:0.014781554 14:0.18265851 15:0.47566872 16:0.58333333 17:0.8 18:0.38461538 19:0.2 20:0.31707317 24:0.33333333 25:0.30769231 28:0.25 31:0.33333333 32:0.83333333 35:0.25 37:0.33333333 40:0.5 42:0.16666667 
-12.84829927700916 0:0.53267157 1:0.75613715 2:0.71869388 3:0.27488589 4:0.016704046 5:0.80793358 6:1 7:0.69836247 8:0.63938457 9:0.66176765 10:0.5436177 12:0.020217353 13:0.0031532142 14:0.024340091 15:0.075616018 16:0.083333333 18:0.38461538 19:0.6 20:0.097560976 21:0.058823529 24:0.33333333 29:0.25 32:0.33333333 40:0.5 42:0.16666667 43:0.33333333 
17.09322415044785 0:0.73535391 1:0.51141863 2:0.76217589 3:0.17043323 4:0.8462887 5:0.5431371 6:0.55887507 7:0.43966021 8:0.43198206 9:0.8911905 10:0.24180328 11:0.923285 12:0.6905513 13:0.27555035 14:0.059549224 15:0.96239252 16:0.5 17:0.2 18:0.61538462 19:0.2 20:0.43902439 21:0.058823529 24:0.16666667 25:0.076923077 26:0.33333333 27:0.17647059 28:0.25 29:0.25 31:0.66666667 32:1 34:0.25 35:0.75 36:0.11111111 41:0.125 42:0.16666667 
32 0:0.45361541 1:0.40795921 2:0.71869388 5:0.50622183 6:0.50277889 7:0.25818966 8:0.29529949 9:0.63020768 10:0.43475084 11:0.34917756 12:0.21130211 13:0.1655597 14:0.0099302211 15:0.098262694 16:0.16666667 17:0.2 18:0.38461538 19:0.2 20:0.29268293 21:0.11764706 24:0.16666667 25:0.23076923 26:0.33333333 27:0.17647059 29:0.25 30:0.2 35:0.25 36:0.22222222 43:0.5 
32 0:0.47633076 1:0.54467785 2:0.51563932 3:0.26272583 4:0.054365137 5:0.57255012 6:1 7:0.52094806 8:0.75008841 9:0.6709853 10:0.50730763 11:0.37420193 12:0.12272887 13:0.33802025 14:0.0058756072 15:0.12626949 16:0.083333333 18:0.30769231 19:0.4 20:0.17073171 24:0.16666667 25:0.38461538 32:0.33333333 39:0.5 41:0.125 42:0.16666667 45:0.5 
-32 0:0.37820265 1:0.52538943 2:0.56746543 3:0.26272583 4:0.061317146 5:0.55693301 6:0.713107 7:0.56296821 8:0.61425839 9:0.6574897 10:0.78569212 12:0.020217353 13:0.0031532142 14:0.024340091 15:0.18213548 16:0.16666667 18:0.23076923 19:0.2 20:0.097560976 21:0.058823529 24:0.16666667 25:0.076923077 27:0.058823529 32:0.33333333 37:0.11111111 39:0.5 41:0.125 43:0.16666667 
-18.04635444089637 0:0.36842659 1:0.42068656 4:0.1845231 5:0.51689766 6:0.50601968 7:0.50750375 8:0.44055424 9:0.58373383 10:0.67194492 11:0.45796472 12:0.39175512 13:0.28342265 14:0.24058984 15:0.55019902 16:0.16666667 18:0.30769231 20:0.17073171 24:0.33333333 25:0.15384615 27:0.11764706 30:0.4 32:0.5 41:0.125 43:0.16666667 
32 0:0.47127771 1:0.46039975 2:0.56746543 4:0.16558282 5:0.52397501 6:1 7:0.47950939 8:0.29999539 9:0.77103599 10:0.30760558 11:0.6333062 12:0.27559932 13:0.44872975 14:0.099756914 15:0.22185907 16:0.16666667 18:0.38461538 19:0.4 20:0.24390244 21:0.11764706 25:0.076923077 27:0.11764706 29:0.5 30:0.2 32:0.33333333 34:0.25 35:0.25 41:0.125 42:0.33333333 43:0.16666667 
22.798044006586 0:0.49282949 1:0.56363634 2:0.56743967 3:0.26272583 4:0.32333548 5:0.56882582 6:0.55887507 7:0.58111131 8:0.62852599 9:0.91028536 10:0.37827991 11:0.80061738 12:0.11283409 13:0.58560236 14:0.063771533 15:0.31917092 16:0.25 18:0.23076923 20:0.17073171 21:0.17647059 25:0.076923077 32:0.5 37:0.22222222 38:1 39:0.5 41:0.25 
-32 0:0.22268776 1:0.26429196 2:0.66691713 4:0.2291362 5:0.20830984 6:0.66030193 7:0.2601456 8:0.34762673 9:0.54887889 10:0.21283318 11:0.47854411 12:0.24880989 13:0.45640941 14:0.22119102 15:0.24503418 16:0.33333333 17:0.2 18:0.23076923 19:0.2 20:0.14634146 21:0.058823529 24:0.16666667 25:0.15384615 28:0.25 30:0.2 32:0.16666667 34:0.25 35:0.25 37:0.11111111 43:0.16666667 44:0.5 
32 0:0.49694687 1:0.41156341 2:0.56746543 4:0.04168036 5:0.52680216 6:0.713107 7:0.38293321 8:0.48483367 9:0.75351767 10:0.22684821 11:0.75785791 12:0.16497561 13:0.053568944 14:0.0099440093 15:0.25602746 16:0.16666667 18:0.38461538 19:0.2 20:0.34146341 21:0.11764706 24:0.33333333 25:0.15384615 26:0.33333333 27:0.058823529 29:0.5 30:0.2 32:0.16666667 34:0.25 35:0.25 36:0.11111111 41:0.25 42:0.33333333 43:0.16666667 
-32 0:0.56697796 1:0.5783749 2:0.44436062 3:0.17043323 4:0.0089687788 5:0.55310428 6:0.713107 7:0.59494894 8:0.52527033 9:0.83431015 10:0.56626394 11:0.54750213 12:0.41758282 13:0.29211859 14:0.17872251 15:0.25841914 16:0.083333333 18:0.38461538 19:0.2 20:0.2195122 21:0.058823529 22:0.5 24:0.16666667 26:0.66666667 27:0.058823529 31:0.33333333 32:0.33333333 36:0.22222222 42:0.5 43:0.16666667 
-13.2724376337365 0:0.36637982 1:0.76597674 2:0.51563932 3:0.26272583 4:0.10181373 5:0.63139637 6:0.78967189 7:0.83979866 8:0.90265175 9:0.32855685 10:0.489753 12:0.020217353 13:0.0031532142 14:0.024340091 15:0.10916961 16:0.083333333 18:0.23076923 19:0.2 25:0.15384615 26:0.66666667 32:0.16666667 39:0.5 
32 0:0.23571089 1:0.26818466 2:0.44436062 3:0.27488589 4:0.27570596 5:0.51821956 6:0.51490516 7:0.26458145 8:0.35232263 9:0.48004582 10:0.31019658 11:0.46362534 12:0.20116723 13:0.4273873 14:0.019031324 15:0.19939496 16:0.33333333 18:0.23076923 19:0.2 20:0.17073171 24:0.16666667 25:0.076923077 27:0.11764706 28:0.25 29:0.5 32:0.16666667 35:0.25 37:0.11111111 40:0.5 41:0.125 42:0.16666667 
32 0:0.57508101 1:0.61973659 2:0.51563932 3:0.27488589 4:0.29923864 5:0.60969172 6:0.713107 7:0.60650269 8:0.72393037 9:0.84002253 10:0.49984522 11:0.69734704 12:0.25188461 13:0.5607431 14:0.076525695 15:0.28600513 16:0.25 18:0.46153846 19:0.4 20:0.19512195 21:0.058823529 25:0.23076923 26:0.33333333 27:0.058823529 29:0.25 32:0.33333333 35:0.25 37:0.11111111 40:0.5 43:0.16666667 45:0.25 
32 0:0.35534465 1:0.53245364 4:0.026340648 5:0.86704896 6:1 7:0.60485864 8:0.29999539 10:0.080626072 12:0.020217353 13:0.0031532142 14:0.024340091 15:0.23885954 16:0.16666667 18:0.30769231 19:0.4 20:0.073170732 24:0.16666667 27:0.058823529 30:0.4 32:0.5 36:0.11111111 43:0.16666667 
32 0:0.47929992 1:0.54808968 2:0.79376777 3:0.26272583 4:0.24559498 5:0.43673317 6:0.426214 7:0.50118058 8:0.83850978 9:0.59656276 10:0.44009198 11:0.29176902 12:0.39583577 13:0.18145527 14:0.1318337 15:0.15262088 16:0.16666667 18:0.46153846 19:0.2 20:0.17073171 24:0.16666667 25:0.15384615 26:0.33333333 34:0.25 35:0.25 36:0.11111111 39:0.5 43:0.83333333 
32 0:0.71351826 1:0.72431079 2:0.33167283 3:0.27488589 4:0.23847904 5:0.64585115 6:1 7:0.56379985 8:0.79909666 9:0.71255645 10:0.50534792 11:0.36473737 12:0.44964649 13:0.20806455 14:0.00011481144 15:0.21124961 16:0.16666667 18:0.46153846 19:0.8 20:0.2195122 21:0.23529412 25:0.15384615 29:0.25 32:0.5 37:0.11111111 40:0.5 41:0.125 43:0.33333333 
-32 0:0.47194392 1:0.44098258 2:0.71869388 3:0.27488589 4:0.1845231 5:0.5199386 6:0.47055958 7:0.43335483 8:0.58337152 9:0.87249339 10:0.38175409 11:0.72445454 12:0.56608714 13:0.25521383 14:0.081127408 15:0.32629208 16:0.16666667 18:0.38461538 19:0.2 20:0.26829268 22:0.5 24:0.16666667 25:0.15384615 27:0.23529412 29:0.25 32:0.33333333 34:0.25 37:0.11111111 40:0.5 42:0.16666667 43:0.33333333 
32 0:0.26267303 1:0.37863797 2:0.47347106 4:0.23885166 5:0.52738931 6:0.75745258 7:0.47673143 8:0.37965482 9:0.063803665 10:0.16007594 12:0.020217353 13:0.0031532142 14:0.024340091 15:0.18268391 16:0.25 18:0.23076923 19:0.2 20:0.073170732 24:0.16666667 29:0.5 30:0.2 32:0.16666667 36:0.11111111 37:0.11111111 39:0.5 42:0.16666667 
-4.653236050569534 0:0.64886266 1:0.85612775 2:1 3:0.27488589 4:0.32993213 5:0.74016961 6:1 7:0.60015462 8:0.68790246 9:1 10:0.47632502 11:0.6318164 12:0.23393388 13:0.64108392 14:0.27242522 15:0.40099459 16:0.16666667 18:0.38461538 19:0.2 20:0.12195122 24:0.16666667 25:0.15384615 32:0.83333333 37:0.11111111 40:0.5 41:0.125 
4.586540144043199 0:0.20644598 1:0.26881704 2:0.51563932 3:0.17043323 4:0.027909055 5:0.16895595 6:0.16632161 7:0.45035001 8:0.58616975 9:0.36705935 10:0.38185541 12:0.020217353 13:0.0031532142 14:0.024340091 15:0.022272137 16:0.083333333 18:0.076923077 20:0.097560976 25:0.30769231 27:0.058823529 31:0.33333333 36:0.11111111 42:0.33333333 44:0.5 
-8.59953228215457 0:0.24674817 1:0.41844896 2:0.79376777 4:0.24559498 5:0.343904 6:0.78967189 7:0.30140331 8:0.34762673 9:0.32855685 10:0.489753 12:0.020217353 13:0.0031532142 14:0.024340091 15:0.20925751 16:0.25 17:0.2 18:0.30769231 19:0.4 20:0.024390244 26:0.33333333 28:0.25 30:0.2 32:0.16666667 35:0.25 43:0.33333333 
-32 0:0.44322074 1:0.45512811 2:0.71869388 3:0.27488589 4:0.18091745 5:0.63190666 6:0.713107 7:0.41459015 8:0.58337152 9:0.54036893 10:0.41847928 11:0.31369398 12:0.27398152 13:0.12131599 14:0.012001366 15:0.1093569 16:0.25 18:0.38461538 19:0.4 20:0.2195122 21:0.11764706 25:0.076923077 27:0.11764706 32:0.16666667 33:0.33333333 35:0.25 36:0.22222222 37:0.11111111 40:0.5 43:0.33333333 45:0.25 
-2.520390566419764 0:0.53398181 1:0.70011816 2:0.76217589 4:0.058384405 5:0.93238288 6:1 7:0.26369529 8:0.29999539 9:0.84835141 10:0.63847267 11:0.43915243 12:0.36360855 13:0.44655547 14:0.4229534 15:0.23026777 16:0.16666667 18:0.38461538 19:0.6 20:0.12195122 21:0.058823529 24:0.16666667 27:0.11764706 29:0.25 30:0.2 32:0.66666667 35:0.25 
32 0:0.39071888 1:0.42302044 2:0.33167283 3:0.26272583 4:0.50500935 5:0.48407301 6:0.78967189 7:0.44318391 8:0.59763912 9:0.70235794 10:0.2651392 11:0.65069434 12:0.35569516 13:0.49249939 14:0.25511192 15:0.2100543 16:0.41666667 18:0.30769231 19:0.2 20:0.19512195 21:0.11764706 25:0.15384615 26:0.33333333 29:0.25 32:0.16666667 33:0.33333333 37:0.44444444 39:0.5 41:0.125 
-2.117190563536326 0:0.53948625 1:0.46033534 2:0.51563932 3:0.17043323 4:0.34663618 5:0.59152519 6:0.75745258 7:0.29664998 8:0.55014184 9:0.63897466 10:0.38045636 11:0.38594027 12:0.35540452 13:0.23913754 14:0.0076080646 15:0.27236594 16:0.25 18:0.38461538 19:0.2 20:0.31707317 21:0.11764706 24:0.83333333 25:0.076923077 27:0.058823529 29:0.25 31:0.33333333 32:0.33333333 35:0.5 41:0.25 43:0.33333333 
-32 0:0.51958179 1:0.73658346 2:1 3:0.26272583 4:0.027909055 5:0.68888459 6:0.713107 7:0.56985074 8:0.66502312 9:0.72309548 10:0.54290249 12:0.020217353 13:0.0031532142 14:0.024340091 15:0.11711726 16:0.083333333 18:0.38461538 19:0.6 20:0.097560976 24:0.16666667 25:0.15384615 27:0.058823529 29:0.5 32:0.33333333 39:0.5 43:0.16666667 
-28.72777247074851 0:0.34081843 1:0.26585099 2:0.061245534 4:0.34593467 5:0.48629299 6:0.60756029 7:0.27154864 8:0.29999539 9:0.58334709 10:0.18061023 11:0.45362419 12:0.51616222 13:0.11434839 14:0.14239417 15:0.41532063 16:0.41666667 18:0.30769231 19:0.2 20:0.43902439 21:0.23529412 24:0.33333333 25:0.15384615 27:0.11764706 28:0.25 30:0.4 32:0.33333333 35:0.5 36:0.22222222 41:0.25 42:0.16666667 45:0.5 
-3.612322275179859 0:0.31960757 1:0.40899535 2:0.061245534 3:0.26272583 4:0.11975974 5:0.45535631 6:0.55887507 7:0.43633483 8:0.48783852 9:0.55857875 10:0.45781687 11:0.26309793 12:0.50183433 13:0.26879723 14:0.58340782 15:0.2167174 16:0.16666667 18:0.23076923 20:0.12195122 21:0.058823529 26:0.33333333 27:0.11764706 28:0.25 29:0.25 32:0.16666667 36:0.33333333 39:0.5 
-21.65624783941959 0:0.29260308 1:0.39751965 2:0.33167283 3:0.27488589 4:0.11676881 5:0.31474186 6:0.55887507 7:0.47784765 8:0.68790246 9:0.38983666 10:0.55906698 12:0.020217353 13:0.0031532142 14:0.024340091 15:0.14462597 16:0.25 18:0.15384615 20:0.097560976 21:0.11764706 24:0.33333333 32:0.16666667 35:0.25 37:0.11111111 40:0.5 41:0.125 43:0.16666667 
-32 0:0.52925547 1:0.69369973 2:1 3:0.26272583 4:0.04168036 5:0.62509009 6:1 7:0.62772411 8:0.70930254 9:0.85494649 10:0.54756682 11:0.51220402 12:0.2422332 13:0.520314 14:0.2820592 15:0.12815569 16:0.083333333 18:0.38461538 19:0.2 20:0.12195122 21:0.058823529 24:0.16666667 29:0.25 32:0.33333333 36:0.11111111 39:0.5 41:0.125 42:0.16666667 43:0.33333333 
-14.55724959764453 0:0.25926442 1:0.27193051 2:1 3:0.17043323 4:0.31804569 5:0.36989395 6:0.75745258 7:0.054135226 8:0.10465447 9:0.43918145 10:0.091414923 11:0.37149478 12:0.47968004 13:0.28033173 14:0.034358586 15:0.225346 16:0.66666667 17:1 18:0.30769231 19:0.2 20:0.2195122 21:0.058823529 26:0.33333333 28:0.5 29:0.25 31:0.33333333 32:0.33333333 35:0.5 37:0.33333333 42:0.33333333 
-32 0:0.68570498 1:0.51325788 2:0.56746543 4:0.44011538 5:0.64585115 6:1 7:0.33637237 8:0.51976837 9:0.84667202 10:0.16094927 11:0.7792767 12:0.48411286 13:0.53809324 14:0.039504264 15:0.48377307 16:0.41666667 17:0.2 18:0.53846154 19:0.2 20:0.3902439 21:0.11764706 24:0.16666667 25:0.23076923 30:0.2 32:0.66666667 35:0.75 36:0.11111111 39:0.5 41:0.25 42:0.16666667 43:0.33333333 45:0.25 
32 0:0.22602063 1:0.34248345 2:0.35112457 3:0.26272583 4:0.10181373 5:0.29967164 6:0.28967189 7:0.48709535 8:0.73550667 9:0.32855685 10:0.489753 12:0.020217353 13:0.0031532142 14:0.024340091 15:0.078327933 16:0.083333333 18:0.15384615 20:0.048780488 24:0.16666667 26:0.33333333 27:0.058823529 36:0.22222222 39:0.5 41:0.125 44:0.5 
-32 0:0.54502732 1:0.62361619 2:0.35112457 4:0.093419092 5:0.80489263 6:0.55887507 7:0.48085222 8:0.65119126 9:0.73625639 10:0.4618435 11:0.45770825 12:0.59874486 13:0.00077250304 14:0.56622932 15:0.38686801 16:0.083333333 18:0.38461538 19:0.2 20:0.17073171 21:0.058823529 24:0.33333333 25:0.076923077 26:0.33333333 27:0.11764706 29:0.25 30:0.2 32:0.5 42:0.16666667 
-7.203192104222346 0:0.36251069 1:0.43834976 2:0.47347106 3:0.17043323 4:0.21474724 5:0.40260008 6:0.51490516 7:0.37763254 8:0.57867562 9:0.6504446 10:0.47537862 11:0.41859001 12:0.13774571 13:0.30482562 14:0.0820494 15:0.10769862 16:0.25 17:0.2 18:0.38461538 19:0.6 20:0.14634146 24:0.16666667 25:0.15384615 27:0.058823529 29:0.75 31:0.33333333 35:0.25 37:0.11111111 43:0.16666667 45:0.25 
-32 0:0.34738385 1:0.41951919 2:0.51563932 4:0.016704046 5:0.37346869 6:0.75745258 7:0.32911118 8:0.40452633 9:0.73581068 10:0.22455324 11:0.6505249 12:0.22378249 13:0.47263117 14:0.12497766 15:0.18594255 16:0.16666667 18:0.23076923 19:0.2 20:0.14634146 21:0.058823529 24:0.33333333 25:0.076923077 29:0.25 30:0.2 32:0.33333333 35:0.25 41:0.375 
-1.152890517345468 0:0.63743443 1:0.53734391 2:1 4:0.016704046 5:0.64854265 6:1 7:0.52403392 9:0.75001347 10:0.47597047 11:0.31458746 12:0.35125336 13:0.026519349 14:0.01535839 15:0.38158145 16:0.16666667 17:0.2 18:0.53846154 19:0.6 20:0.31707317 21:0.058823529 24:0.5 25:0.076923077 26:0.33333333 27:0.17647059 30:0.4 32:0.83333333 41:0.25 45:0.25 
-32 0:0.39120332 1:0.44685901 2:0.33167283 3:0.26272583 4:0.30841754 5:0.41061453 6:0.55887507 7:0.44035221 8:0.45685357 9:0.7378777 10:0.44739887 11:0.55178429 12:0.70143259 13:0.3257708 14:0.72467613 15:0.42139447 16:0.25 18:0.30769231 19:0.2 20:0.17073171 21:0.11764706 24:0.16666667 27:0.11764706 28:0.25 29:0.25 32:0.33333333 37:0.11111111 39:0.5 42:0.16666667 43:0.16666667 
-30.65135038405022 0:0.22475603 1:0.29616882 2:0.47347106 3:0.35112457 4:0.0089687788 5:0.36680034 6:0.50277889 7:0.27674192 8:0.35232263 9:0.37063516 10:0.41066931 12:0.020217353 13:0.0031532142 14:0.024340091 15:0.0517222 16:0.083333333 18:0.15384615 19:0.2 20:0.097560976 24:0.5 25:0.076923077 26:0.33333333 27:0.058823529 28:0.25 42:0.33333333 43:0.16666667 
-32 0:0.64618284 1:0.50385384 2:0.66691713 3:0.17043323 4:0.18295469 5:0.65064058 6:0.46301393 7:0.45640225 8:0.4598785 9:0.71904629 10:0.43198013 11:0.26677938 12:0.66738838 13:0.10231158 14:0.042846018 15:0.35421012 16:0.16666667 18:0.46153846 20:0.36585366 24:0.66666667 25:0.30769231 29:0.25 31:0.66666667 32:0.33333333 36:0.44444444 41:0.125 43:0.33333333 44:0.5 
-32 0:0.42828612 1:0.65352134 2:0.71869388 4:0.15661404 5:0.68536982 6:0.55887507 7:0.66942709 8:0.83988253 9:0.45265867 10:0.64428759 12:0.020217353 13:0.0031532142 14:0.024340091 15:0.27975804 16:0.083333333 18:0.38461538 19:0.2 20:0.073170732 21:0.11764706 30:0.2 32:0.33333333 41:0.125 43:0.16666667 45:0.5 
24.25318837233145 0:0.42497889 1:0.59526439 2:0.56743967 3:0.17043323 4:0.016704046 5:0.65368152 6:0.713107 7:0.57018456 8:0.55014184 9:0.61805174 10:0.73916947 12:0.020217353 13:0.0031532142 14:0.024340091 15:0.08589273 16:0.083333333 18:0.30769231 19:0.4 20:0.097560976 24:0.33333333 25:0.076923077 29:0.25 31:0.33333333 32:0.16666667 38:1 42:0.16666667 43:0.33333333 
-11.3368946305433 0:0.21417793 1:0.20457224 2:0.33167283 3:0.17043323 4:0.34215494 5:0.24355497 6:0.46301393 7:0.25530166 8:0.56675225 9:0.33413567 10:0.2468383 11:0.29237266 12:0.23808363 13:0.1188249 14:0.060807541 15:0.28313705 16:0.5 17:0.2 18:0.15384615 20:0.31707317 21:0.058823529 24:0.16666667 25:0.30769231 26:0.33333333 27:0.058823529 31:0.66666667 32:0.16666667 37:0.44444444 41:0.5 
-2.241229694208977 0:0.58774638 1:0.43255263 2:0.44436062 4:0.28633683 5:0.56455491 6:0.713107 7:0.32395149 8:0.49288148 9:0.74029863 10:0.26358415 11:0.72795828 12:0.48857735 13:0.20716789 14:0.0055389412 15:0.64595704 16:0.16666667 18:0.46153846 19:0.2 20:0.41463415 21:0.058823529 23:1 24:0.16666667 25:0.076923077 26:0.33333333 27:0.058823529 28:0.25 30:0.2 32:0.66666667 41:0.375 42:1 43:0.16666667 
32 0:0.31372736 1:0.3776221 2:0.36782385 4:0.04168036 5:0.51823788 6:0.54712448 7:0.3194582 8:0.48483367 9:0.49928321 10:0.48566988 11:0.25670775 12:0.17597837 13:0.11351759 14:0.0038618986 15:0.13781539 16:0.083333333 18:0.30769231 19:0.2 20:0.14634146 21:0.058823529 25:0.076923077 26:0.33333333 27:0.058823529 29:0.5 30:0.2 36:0.11111111 41:0.25 42:0.16666667 45:0.25 
-32 0:0.30028077 1:0.34238107 2:0.36782385 3:0.17043323 4:0.11012314 5:0.4227306 6:0.51490516 7:0.39483731 8:0.4456109 9:0.65394326 10:0.17370094 11:0.58416517 12:0.03995611 13:0.37640979 14:0.017103387 15:0.16173303 16:0.16666667 18:0.30769231 19:0.2 20:0.17073171 24:0.33333333 25:0.15384615 27:0.11764706 29:0.75 31:0.66666667 41:0.125 43:0.16666667 
-32 0:0.41971341 1:0.37982406 2:0.62009071 3:0.26272583 4:0.40958442 5:0.57274578 6:0.75745258 7:0.29816663 8:0.40452633 9:0.55937705 10:0.20755867 11:0.61698374 12:0.22867722 13:0.10031744 14:0.018878186 15:0.30503132 16:0.5 17:0.2 18:0.46153846 19:0.6 20:0.29268293 24:0.33333333 27:0.058823529 29:0.5 30:0.2 32:0.33333333 33:0.33333333 35:0.5 36:0.11111111 37:0.22222222 39:0.5 41:0.125 42:0.16666667 43:0.16666667 
-32 0:0.19940704 1:0.27362955 3:0.26272583 4:0.19580696 5:0.38489956 6:0.47055958 7:0.49784681 8:0.29999539 9:0.27299261 10:0.42056308 12:0.020217353 13:0.0031532142 14:0.024340091 15:0.11428794 16:0.25 18:0.23076923 19:0.2 20:0.073170732 21:0.058823529 27:0.058823529 29:0.5 30:0.2 37:0.11111111 39:0.5 42:0.16666667 43:0.16666667 
-2.719545229665941 0:0.39258326 1:0.42500975 2:0.71869388 3:0.26272583 4:0.15661404 5:0.65314156 6:0.713107 7:0.14145418 8:0.35232263 9:0.57842816 10:0.16491265 11:0.45063682 12:0.53399468 13:0.31929009 14:0.39313073 15:0.28887169 16:0.25 18:0.46153846 19:0.6 20:0.19512195 21:0.058823529 25:0.076923077 27:0.11764706 28:0.5 32:0.33333333 39:0.5 41:0.125 43:0.5 45:0.25 
-13.47139395648252 0:0.43200264 1:0.34099246 2:0.35112457 4:0.12647809 5:0.37080788 6:0.26347226 7:0.40270877 8:0.40452633 9:0.55793034 10:0.40497067 11:0.33137277 12:0.46431647 13:0.16877886 14:0.026941439 15:0.22297752 16:0.16666667 18:0.46153846 20:0.3902439 21:0.11764706 24:0.33333333 25:0.076923077 27:0.23529412 29:0.25 30:0.2 36:0.22222222 37:0.11111111 41:0.125 42:0.33333333 43:0.5 44:0.5 45:0.25 
-1.921854287741261 0:0.24737095 1:0.25135295 2:0.61520257 5:0.28055759 6:0.46301393 7:0.41770805 8:0.28337612 9:0.47151251 10:0.44360051 11:0.19805694 12:0.21849864 14:0.097600021 15:0.16413517 16:0.25 17:0.2 18:0.30769231 19:0.2 20:0.24390244 24:0.16666667 25:0.076923077 27:0.11764706 30:0.2 32:0.16666667 35:0.25 37:0.11111111 41:0.5 42:0.16666667 43:0.33333333 45:0.25 
-32 0:0.24647544 1:0.28055406 2:0.061245534 4:0.1614401 5:0.5967994 6:0.75745258 7:0.20401322 8:0.29999539 9:0.74774536 10:0.26709899 11:0.7593536 12:0.51662253 13:0.41574267 14:0.41906313 15:0.31533473 16:0.25 18:0.23076923 19:0.2 20:0.17073171 21:0.058823529 25:0.076923077 27:0.17647059 28:0.25 29:0.25 30:0.2 32:0.33333333 36:0.11111111 39:0.5 41:0.125 
-23.24639689781822 0:0.4879404 1:0.52675673 2:0.36782385 3:0.27488589 4:0.21086375 5:0.7253112 6:1 7:0.50572314 8:0.4598785 9:0.67994599 10:0.69745899 11:0.23179601 12:0.093331774 13:0.19317217 14:0.057280704 15:0.20313155 16:0.25 18:0.38461538 19:0.4 20:0.19512195 25:0.076923077 29:0.25 31:0.33333333 32:0.5 36:0.11111111 37:0.11111111 40:0.5 41:0.375 42:0.16666667 43:0.16666667 
1.213685356069107 0:0.66126281 1:0.37906594 2:0.50973687 4:0.094361655 5:0.44147061 6:0.78967189 7:0.19115283 8:0.43551128 9:0.83346423 10:0.34453063 11:0.59859037 12:0.79601229 13:0.17535996 14:0.029272289 15:0.65639688 16:0.41666667 17:0.4 18:0.46153846 19:0.2 20:0.63414634 21:0.29411765 26:0.66666667 27:0.52941176 30:0.2 32:0.66666667 35:0.5 36:0.33333333 37:0.22222222 41:0.125 42:0.5 
-32 0:0.27202476 1:0.32570886 2:0.36782385 3:0.26272583 4:0.14349409 5:0.46029884 6:0.46301393 7:0.42816728 8:0.31426299 9:0.53670384 10:0.38066446 11:0.36265109 12:0.054612969 13:0.32154671 14:0.019991179 15:0.26001695 16:0.25 17:0.2 18:0.15384615 20:0.14634146 21:0.17647059 24:0.16666667 25:0.076923077 26:0.33333333 30:0.2 32:0.16666667 35:0.25 39:0.5 41:0.25 
-2.106322043769883 0:0.44559817 1:0.48157716 2:0.76217589 4:0.3129803 5:0.48791312 6:0.55887507 7:0.44385966 8:0.44055424 9:0.61206992 10:0.53159183 11:0.22395201 12:0.66206789 13:0.084731124 14:0.47654972 15:0.38568798 16:0.25 18:0.38461538 20:0.19512195 21:0.058823529 24:0.16666667 25:0.15384615 27:0.11764706 29:0.25 30:0.2 32:0.33333333 35:0.25 37:0.11111111 43:0.16666667 44:0.5 
32 0:0.17865767 1:0.20262553 2:0.35112457 3:0.26272583 4:0.11263411 5:0.41063517 6:0.55887507 7:0.18811911 8:0.29999539 9:0.60226708 10:0.19573093 11:0.63180255 12:0.34426696 13:0.51267734 14:0.15255439 15:0.18393882 16:0.33333333 18:0.15384615 20:0.17073171 21:0.058823529 24:0.16666667 25:0.076923077 27:0.11764706 30:0.2 32:0.16666667 36:0.11111111 37:0.22222222 39:0.5 41:0.125 44:0.5 
32 0:0.62228992 1:0.60138979 2:0.76217589 3:0.26272583 4:0.29313794 5:0.61347155 6:0.60756029 7:0.44458651 8:0.66502312 9:0.73455002 10:0.65196621 11:0.25307338 12:0.45151399 13:0.076670596 14:0.064127125 15:0.37793885 16:0.25 18:0.46153846 19:0.2 20:0.24390244 25:0.15384615 29:0.5 32:0.5 35:0.25 36:0.22222222 37:0.11111111 39:0.5 41:0.125 42:0.33333333 45:0.25 
-17.26744790687566 0:0.80443518 1:0.50618739 2:0.56746543 3:0.27488589 4:0.043044694 5:0.54025593 6:0.61254551 7:0.48797583 8:0.59529489 9:0.71999973 10:0.39661821 11:0.4732493 12:0.34007263 13:0.040062046 14:0.023289552 15:0.18461124 16:0.16666667 18:0.46153846 19:0.4 20:0.51219512 21:0.41176471 24:0.33333333 26:0.66666667 27:0.11764706 32:0.16666667 33:0.33333333 35:0.25 36:0.77777778 40:0.5 42:0.16666667 43:0.33333333 
0.1437088481924269 0:0.48965719 1:0.43787015 2:0.26272583 3:0.26272583 4:0.097409831 5:0.62455013 6:1 7:0.27214596 8:0.22446887 9:0.66720341 10:0.22976139 11:0.57847766 12:0.24414424 13:0.052499402 14:0.019693119 15:0.22160089 16:0.33333333 17:0.2 18:0.46153846 19:0.6 20:0.29268293 24:0.16666667 25:0.15384615 27:0.058823529 30:0.2 32:0.5 35:0.25 36:0.22222222 39:1 41:0.25 43:0.16666667 44:0.5 45:0.25 
32 0:0.30505129 1:0.38922775 2:0.44436062 3:0.27488589 4:0.12525343 5:0.39496997 6:0.3699981 7:0.39589139 8:0.51823436 9:0.54837552 10:0.40539456 11:0.41121092 12:0.050213712 13:0.41834356 14:0.059160286 15:0.054569741 16:0.25 17:0.2 18:0.23076923 19:0.2 20:0.12195122 21:0.058823529 24:0.16666667 25:0.15384615 29:0.5 33:0.33333333 37:0.22222222 40:0.5 42:0.16666667 
32 0:0.51498235 1:0.72971276 2:1 3:0.17043323 4:0.21499845 5:0.61023168 6:0.75745258 7:0.65245556 8:0.63044917 9:0.61420011 10:0.43187238 12:0.020217353 13:0.0031532142 14:0.024340091 15:0.23184576 16:0.16666667 18:0.30769231 19:0.2 20:0.097560976 21:0.058823529 24:0.16666667 25:0.15384615 29:0.25 31:0.33333333 32:0.5 37:0.11111111 
0.363041499249876 0:0.61216248 1:0.53953683 3:0.26272583 4:0.11012314 5:0.76626006 6:1 7:0.35722291 8:0.62899521 9:0.88136076 10:0.5696887 11:0.46387156 12:0.52857303 13:0.27853785 14:0.042313814 15:0.28788842 16:0.16666667 18:0.46153846 19:0.6 20:0.29268293 24:0.66666667 25:0.076923077 27:0.058823529 29:0.75 30:0.2 32:0.5 36:0.11111111 39:0.5 42:0.5 
-32 0:0.45086535 1:0.4413421 2:0.36782385 3:0.26272583 4:0.18295469 5:0.47121665 6:0.50601968 7:0.4028525 8:0.59529489 9:0.60429702 10:0.3999739 11:0.48280512 12:0.24918826 13:0.1533791 14:0.054874861 15:0.27008392 16:0.16666667 18:0.23076923 20:0.24390244 21:0.11764706 25:0.23076923 27:0.17647059 32:0.33333333 35:0.25 36:0.22222222 39:0.5 41:0.125 43:0.16666667 
32 0:0.36490776 1:0.54832642 2:0.47347106 3:0.26272583 4:0.13803219 5:0.49461219 6:0.50601968 7:0.56296821 8:0.66502312 9:0.23626435 10:0.37482815 12:0.020217353 13:0.0031532142 14:0.024340091 15:0.12669823 16:0.16666667 18:0.23076923 19:0.2 20:0.073170732 21:0.058823529 24:0.33333333 25:0.076923077 29:0.25 32:0.16666667 37:0.11111111 39:0.5 43:0.16666667 
32 0:0.32415695 1:0.48068853 2:0.51563932 3:0.26272583 4:0.093419092 5:0.54336763 6:0.54712448 7:0.62933556 8:0.53873187 9:0.37833282 10:0.55173524 12:0.020217353 13:0.0031532142 14:0.024340091 15:0.051840806 16:0.16666667 18:0.30769231 19:0.6 20:0.073170732 25:0.076923077 26:0.33333333 29:0.5 37:0.11111111 39:0.5 41:0.25 43:0.16666667 
32 0:0.2074077 1:0.22742567 2:0.51563932 3:0.17043323 4:0.081864993 5:0.37597961 6:0.17612093 7:0.31927923 8:0.58337152 9:0.49882679 10:0.36742948 11:0.27404599 12:0.39244621 13:0.086711482 14:0.20438729 15:0.13603063 16:0.16666667 18:0.23076923 20:0.19512195 24:0.16666667 25:0.076923077 27:0.23529412 31:0.33333333 36:0.11111111 37:0.11111111 41:0.25 43:0.5 
28.91395308564677 0:0.62557324 1:0.55066637 2:0.51563932 3:0.17043323 4:0.016704046 5:0.66799242 6:0.66030193 7:0.41043753 8:0.55014184 9:0.76219025 10:0.45107263 11:0.44077397 12:0.33414039 13:0.19606328 14:0.020789027 15:0.25565508 16:0.083333333 18:0.30769231 19:0.2 20:0.29268293 21:0.23529412 24:0.5 25:0.076923077 27:0.058823529 31:0.33333333 32:0.5 36:0.22222222 41:0.125 42:0.16666667 44:0.5 
-26.05911651242522 0:0.12947337 1:0.15755416 2:0.62009071 4:0.12029682 5:0.32208533 6:0.21912667 7:0.36017557 8:0.28337612 9:0.26575803 10:0.4115544 12:0.020217353 13:0.0031532142 14:0.024340091 15:0.16121162 16:0.25 17:0.2 18:0.23076923 20:0.073170732 21:0.058823529 25:0.076923077 30:0.4 33:0.66666667 37:0.11111111 42:0.16666667 43:0.16666667 
-0.5946729161966106 0:0.25286367 1:0.2878947 2:0.51563932 4:0.15145441 5:0.2115377 6:0.21912667 7:0.35710723 8:0.48483367 9:0.41510572 10:0.33332386 11:0.37267384 12:0.07889368 13:0.077275753 14:0.023425569 15:0.12089833 16:0.16666667 18:0.15384615 20:0.17073171 21:0.11764706 25:0.23076923 27:0.058823529 30:0.2 37:0.11111111 42:0.5 43:0.33333333 
18.2729531654077 0:0.36959459 1:0.40048062 2:0.36313991 3:0.17043323 4:0.063218482 5:0.68686354 6:0.78967189 7:0.30127017 8:0.440915 9:0.54793066 10:0.4974272 11:0.18465172 12:0.3530473 13:0.028893342 14:0.34807505 15:0.12023967 16:0.25 17:0.2 18:0.23076923 19:0.4 20:0.19512195 25:0.15384615 26:0.33333333 31:0.33333333 32:0.33333333 34:0.25 35:0.5 36:0.11111111 41:0.25 42:0.33333333 
4.099748744849228 0:0.59003799 1:0.60133982 2:0.71869388 4:0.081864993 5:0.52680216 6:0.75745258 7:0.48246175 8:0.61404091 9:0.67836998 10:0.53933597 11:0.28299538 12:0.40787896 13:0.14808433 14:0.059374323 15:0.19924056 16:0.083333333 18:0.53846154 19:0.6 20:0.2195122 21:0.11764706 25:0.23076923 27:0.058823529 29:0.5 30:0.2 32:0.16666667 41:0.125 43:0.66666667 
-26.83541831386957 0:0.33188058 1:0.68008438 2:0.56746543 4:0.41504182 5:0.66184882 6:0.78967189 7:0.75471765 8:0.85438449 9:0.32855685 10:0.489753 12:0.020217353 13:0.0031532142 14:0.024340091 15:0.31328787 16:0.16666667 18:0.23076923 19:0.2 21:0.058823529 26:0.33333333 30:0.2 32:0.33333333 37:0.11111111 
32 0:0.39492425 1:0.37330434 2:0.71869388 3:0.17043323 4:0.25662093 5:0.36003431 6:0.51490516 7:0.3349515 8:0.45685357 9:0.63024869 10:0.26054487 11:0.56810311 12:0.088044802 13:0.3450468 14:0.0091826181 15:0.1987702 16:0.25 18:0.38461538 19:0.2 20:0.26829268 21:0.11764706 24:0.16666667 25:0.23076923 27:0.058823529 28:0.25 29:0.5 31:0.33333333 33:0.33333333 35:0.25 42:0.33333333 43:0.33333333 
-1.923923275160897 0:0.30972627 1:0.33660056 2:0.61520257 4:0.6093874 5:0.49154383 6:0.60756029 7:0.24845775 8:0.31426299 9:0.46600597 10:0.14880213 11:0.40719161 12:0.39778092 13:0.071245008 14:0.0026121492 15:0.48705279 16:0.5 17:0.2 18:0.30769231 19:0.2 20:0.19512195 25:0.23076923 30:0.4 32:0.5 37:0.44444444 41:0.125 45:0.25 
-32 0:0.22765121 1:0.27047068 2:0.35112457 4:0.016704046 5:0.33384633 6:0.29569157 7:0.31981644 8:0.29529949 9:0.5476145 10:0.2732809 11:0.45560452 12:0.11301758 13:0.31404026 14:0.076247702 15:0.084814793 16:0.16666667 17:0.2 18:0.15384615 20:0.14634146 21:0.058823529 24:0.16666667 25:0.15384615 26:0.33333333 27:0.11764706 30:0.2 35:0.25 36:0.11111111 42:0.16666667 43:0.16666667 
26.88063472037331 0:0.51738829 1:0.67758396 2:0.47347106 4:0.51677031 5:1 6:1 7:0.44306082 8:0.57867562 9:0.88488177 10:0.55971265 11:0.57507584 12:0.38342972 13:0.58379426 14:0.44596209 15:0.3836222 16:0.33333333 17:0.2 18:0.38461538 19:0.4 20:0.12195122 24:0.16666667 25:0.076923077 29:0.25 30:0.2 32:0.66666667 35:0.25 37:0.22222222 
32 0:0.46769763 1:0.41964599 2:0.061245534 3:0.26272583 4:0.10238787 5:0.66101385 6:0.75745258 7:0.40540187 8:0.6041237 9:0.67542403 10:0.36333299 11:0.43293463 12:0.33632798 13:0.20380851 14:0.080101092 15:0.19284549 16:0.16666667 18:0.30769231 19:0.2 20:0.29268293 21:0.11764706 24:0.5 25:0.15384615 26:0.33333333 28:0.25 29:0.5 32:0.16666667 36:0.11111111 39:0.5 41:0.25 42:0.33333333 
-32 0:0.47352244 1:0.44236964 2:0.71869388 4:0.26162832 5:0.50206708 6:0.55887507 7:0.40596751 8:0.37965482 9:0.64241072 10:0.2589162 11:0.42355945 12:0.6129177 13:0.10093507 14:0.084379122 15:0.32181761 16:0.33333333 17:0.2 18:0.46153846 19:0.2 20:0.26829268 21:0.11764706 25:0.076923077 27:0.11764706 29:0.25 30:0.2 32:0.33333333 34:0.25 35:0.25 37:0.22222222 42:0.16666667 43:0.33333333 45:0.25 
32 0:0.57787187 1:0.45526154 2:0.17043323 3:0.27488589 4:0.65102372 5:0.5954011 6:0.75745258 7:0.36917938 8:0.49288148 9:0.82764117 10:0.44776402 11:0.68420729 12:0.31309289 13:0.037973063 14:0.038124887 15:0.48454787 16:0.5 18:0.61538462 19:0.4 20:0.36585366 21:0.058823529 24:0.33333333 25:0.076923077 26:0.33333333 27:0.058823529 28:0.25 29:0.5 31:0.33333333 32:0.33333333 35:0.5 37:0.11111111 40:0.5 41:0.125 42:0.16666667 43:0.5 
-17.59889902449623 0:0.32876205 1:0.45153441 2:0.33167283 3:0.17043323 4:0.20162473 5:0.35268682 6:0.51490516 7:0.52706409 8:0.53485363 9:0.46992544 10:0.58599156 12:0.020217353 13:0.0031532142 14:0.024340091 15:0.11709558 16:0.25 18:0.38461538 19:0.6 20:0.097560976 27:0.058823529 29:0.5 31:0.33333333 36:0.11111111 37:0.11111111 40:0.5 43:0.5 
32 0:0.49873869 1:0.48603825 2:1 4:0.372846 5:0.55539359 6:0.55887507 7:0.31146112 8:0.37965482 9:0.70945763 10:0.40671788 11:0.71612927 12:0.47449961 13:0.39231637 14:0.18610795 15:0.36023003 16:0.25 18:0.46153846 19:0.4 20:0.24390244 21:0.11764706 25:0.076923077 27:0.058823529 28:0.25 29:0.25 30:0.2 32:0.33333333 36:0.11111111 37:0.11111111 42:0.33333333 43:0.5 
32 0:0.38337634 1:0.57898043 2:0.36313991 3:0.17043323 4:0.23847904 5:0.62711683 6:0.713107 7:0.63207965 8:0.6055606 9:0.33011546 10:0.49169382 12:0.020217353 13:0.0031532142 14:0.024340091 15:0.21067482 16:0.16666667 18:0.23076923 19:0.2 20:0.073170732 21:0.11764706 24:0.16666667 31:0.33333333 32:0.33333333 34:0.25 35:0.25 43:0.16666667 
32 0:0.61647574 1:0.50084032 2:1 3:0.17043323 4:0.061650075 5:0.70114391 6:0.713107 7:0.34960324 8:0.4456109 9:0.66579476 10:0.3509397 11:0.40710012 12:0.44893933 13:0.10115133 14:0.00093569237 15:0.34908991 16:0.25 18:0.53846154 19:0.4 20:0.34146341 25:0.076923077 27:0.29411765 29:0.5 31:0.33333333 32:0.5 35:0.25 36:0.33333333 40:0.5 42:0.16666667 43:0.33333333 
6.234348736970333 0:0.042753606 1:0.051738191 4:0.52252342 5:0.40276951 6:0.50601968 7:0.12691863 9:0.62098177 10:0.13581905 11:0.69808553 12:0.87423894 13:0.43460871 14:0.2097747 15:0.66122023 16:0.41666667 17:0.2 18:0.15384615 20:0.19512195 24:0.16666667 25:0.30769231 27:0.058823529 30:1 32:0.33333333 36:0.11111111 
32 0:0.46339141 1:0.65264553 2:0.34562834 3:0.26272583 4:0.31322809 5:0.64444838 6:0.55887507 7:0.60722119 8:0.67965021 9:0.77042652 10:0.88177415 12:0.020217353 13:0.0031532142 14:0.024340091 15:0.33729611 16:0.16666667 18:0.23076923 20:0.097560976 21:0.11764706 25:0.076923077 27:0.058823529 32:0.5 35:0.25 39:0.5 42:0.16666667 
3.082865643003807 0:0.82471957 1:0.36966888 2:0.51563932 3:0.27488589 4:0.31996997 5:0.42622705 6:0.55887507 7:0.27816937 8:0.19794274 9:0.6669106 10:0.35857763 11:0.45848196 12:0.57123779 13:0.019422122 14:0.027247274 15:0.51915628 16:0.5 17:0.4 18:0.76923077 20:0.90243902 21:0.17647059 22:1 24:0.66666667 25:0.23076923 26:0.66666667 27:0.11764706 28:0.25 29:0.5 31:0.33333333 32:0.16666667 34:0.5 35:0.75 36:0.33333333 40:0.5 41:0.375 42:0.83333333 43:0.83333333 
28.20995891675573 0:0.397927 1:0.51535409 2:1 3:0.17043323 4:0.32034403 5:0.43035803 6:0.37340893 7:0.54249713 8:0.75965641 9:0.49182406 10:0.64645961 11:0.12171968 12:0.23542358 13:0.12605081 14:0.2741545 15:0.24473459 16:0.16666667 18:0.38461538 19:0.2 20:0.12195122 24:0.16666667 25:0.076923077 31:0.66666667 32:0.16666667 36:0.11111111 42:0.16666667 43:0.5 44:0.5 
32 0:0.17462359 1:0.23249417 2:0.47347106 3:0.17043323 4:0.21193687 5:0.21342718 6:0.14016344 7:0.46537271 8:0.4456109 9:0.35240226 10:0.51944589 12:0.020217353 13:0.0031532142 14:0.024340091 15:0.12456834 16:0.25 18:0.15384615 20:0.073170732 24:0.33333333 26:0.33333333 27:0.058823529 29:0.25 31:0.33333333 34:0.25 35:0.25 37:0.11111111 
-32 0:0.5035693 1:0.54343291 2:0.79376777 3:0.26272583 4:0.22694847 5:0.54038798 6:0.78967189 7:0.37975739 8:0.43198206 9:0.64625367 10:0.53601861 11:0.26704194 12:0.39397999 13:0.11162478 14:0.065265094 15:0.25497895 16:0.25 18:0.46153846 19:0.6 20:0.19512195 24:0.16666667 25:0.076923077 26:0.33333333 28:0.25 32:0.33333333 36:0.11111111 37:0.11111111 39:0.5 41:0.125 42:0.16666667 43:0.5 
5.710555731973781 0:0.71780679 1:0.40546161 2:0.79376777 3:0.26272583 4:0.72516595 5:0.46426939 6:0.713107 7:0.37112409 8:0.48783852 9:0.69554916 10:0.21106264 11:0.82943383 12:0.37286873 13:0.085132135 14:0.0075506296 15:0.7489855 16:0.5 18:0.61538462 19:0.2 20:0.63414634 21:0.058823529 22:0.5 24:0.16666667 25:0.38461538 26:0.66666667 27:0.11764706 28:0.75 29:0.25 32:0.5 35:0.25 36:0.66666667 37:0.11111111 39:0.5 41:0.25 43:0.33333333 
32 0:0.44533289 1:0.43617681 2:0.36782385 3:0.27488589 4:0.13902474 5:0.48863053 6:0.61254551 7:0.27594926 8:0.59999078 9:0.82775731 10:0.38812026 11:0.54432855 12:0.45463839 13:0.29978894 14:0.29336425 15:0.18171523 16:0.16666667 18:0.38461538 19:0.4 20:0.24390244 21:0.11764706 25:0.15384615 27:0.23529412 32:0.33333333 33:1 35:0.25 40:0.5 41:0.125 
14.82386753164766 0:0.23443609 1:0.25626522 2:0.34562834 3:0.27488589 4:0.12957378 5:0.27187497 6:0.5 7:0.28866875 8:0.38047374 9:0.50707689 10:0.24387292 11:0.23287408 12:0.3449502 13:0.13190306 14:0.090459169 15:0.18000567 16:0.41666667 17:0.2 18:0.15384615 20:0.19512195 25:0.23076923 29:0.25 31:0.66666667 32:0.16666667 35:0.25 36:0.11111111 37:0.11111111 40:0.5 42:0.5 
1.036044869960368 0:0.20591803 1:0.23395006 2:1 4:0.25755828 5:0.18131882 6:0.50601968 7:0.1944995 8:0.28337612 9:0.42594234 10:0.16471332 11:0.44600051 12:0.44095627 13:0.13650648 14:0.15045394 15:0.18133734 16:0.5 17:0.6 18:0.30769231 19:0.2 20:0.17073171 25:0.15384615 28:0.25 29:0.25 30:0.2 32:0.16666667 34:0.25 37:0.44444444 43:0.16666667 45:0.25 
-5.954665992070559 0:0.46579502 1:0.71577834 2:1 3:0.26272583 4:0.31322809 5:0.6568591 6:0.55887507 7:0.69033942 8:0.60956249 9:0.57757997 10:0.79984262 12:0.020217353 13:0.0031532142 14:0.024340091 15:0.3648582 16:0.16666667 18:0.30769231 20:0.073170732 21:0.058823529 27:0.058823529 29:0.25 32:0.5 35:0.25 39:0.5 41:0.125 
32 0:0.22217409 1:0.27667952 2:0.51563932 3:0.26272583 4:0.14778423 5:0.31471702 6:0.51490516 7:0.31988794 8:0.507845 9:0.44071226 10:0.37160338 11:0.25361726 12:0.078380558 13:0.25922481 14:0.091856754 15:0.043621435 16:0.25 17:0.2 18:0.23076923 19:0.4 20:0.12195122 24:0.16666667 25:0.076923077 27:0.058823529 29:0.5 34:0.5 35:0.25 37:0.11111111 39:0.5 45:0.25 
16.94184759303818 0:0.40548274 1:0.35497943 2:0.33167283 3:0.27488589 4:0.1376973 5:0.38362697 6:0.26347226 7:0.35623249 8:0.66303095 9:0.48749084 10:0.4291205 11:0.13630016 12:0.14076023 13:0.071186732 14:0.015634513 15:0.097309887 16:0.25 18:0.23076923 20:0.31707317 21:0.058823529 24:0.33333333 25:0.30769231 29:0.25 34:0.25 35:0.25 36:0.33333333 37:0.11111111 40:0.5 41:0.125 42:0.16666667 43:0.33333333 
32 0:0.28758653 1:0.50559879 2:0.51563932 3:0.26272583 4:0.32993213 5:0.41115485 6:0.31839951 7:0.56830723 8:0.68790246 9:0.32855685 10:0.489753 12:0.020217353 13:0.0031532142 14:0.024340091 15:0.18565051 16:0.16666667 18:0.15384615 20:0.024390244 24:0.16666667 25:0.15384615 29:0.25 32:0.16666667 37:0.11111111 39:0.5 
-32 0:0.34707162 1:0.29962059 2:0.44436062 4:0.098569038 5:0.41747809 6:0.713107 7:0.36834655 8:0.31426299 9:0.58466166 10:0.27547325 11:0.4361408 12:0.22922133 13:0.065967712 14:0.026239609 15:0.28597656 16:0.16666667 18:0.30769231 19:0.2 20:0.34146341 21:0.11764706 24:0.5 25:0.076923077 27:0.058823529 30:0.4 32:0.16666667 36:0.11111111 41:0.375 42:0.5 43:0.5 
32 0:0.6902298 1:0.44300164 2:0.56746543 3:0.27488589 4:0.19007063 5:0.46121178 6:0.713107 7:0.29710323 8:0.35232263 9:0.68885528 10:0.33352744 11:0.54349978 12:0.28835387 13:0.045074626 14:0.027300976 15:0.27714346 16:0.33333333 17:0.2 18:0.61538462 19:0.6 20:0.51219512 21:0.23529412 22:0.5 24:0.16666667 25:0.15384615 26:0.33333333 27:0.17647059 28:0.25 29:0.25 32:0.16666667 35:0.25 36:0.22222222 37:0.11111111 40:0.5 41:0.125 42:0.16666667 43:0.83333333 
-32 0:0.2158682 1:0.32352616 2:0.79376777 4:0.14642683 5:0.27035843 6:0.26347226 7:0.45095278 8:0.44055424 9:0.32855685 10:0.489753 12:0.020217353 13:0.0031532142 14:0.024340091 15:0.094743742 16:0.16666667 18:0.15384615 20:0.048780488 24:0.33333333 25:0.15384615 26:0.33333333 29:0.25 30:0.2 35:0.25 
32 0:0.32065616 1:0.31977446 2:0.56746543 4:0.15334338 5:0.58755572 6:0.75745258 7:0.21650325 8:0.44055424 9:0.63796663 10:0.34605803 11:0.43109756 12:0.29834878 13:0.31402082 14:0.015684045 15:0.26206276 16:0.25 18:0.30769231 19:0.2 20:0.24390244 21:0.058823529 24:0.33333333 25:0.30769231 27:0.058823529 29:0.25 30:0.4 32:0.16666667 35:0.25 41:0.125 43:0.16666667 45:0.25 
-7.403014154262668 0:0.55202304 1:0.51134919 2:0.71869388 3:0.17043323 4:0.50884028 5:0.54753539 6:0.713107 7:0.34731632 8:0.55014184 9:0.7366893 10:0.29059349 11:0.64276014 12:0.55037044 13:0.42236984 14:0.11641699 15:0.5412736 16:0.33333333 18:0.38461538 19:0.2 20:0.26829268 21:0.058823529 22:1 24:0.16666667 25:0.076923077 27:0.058823529 31:0.66666667 32:0.66666667 36:0.11111111 37:0.22222222 41:0.125 43:0.16666667 
-32 0:0.5419867 1:0.71098891 2:0.79376777 3:0.47347106 5:0.69882821 6:0.78967189 7:0.58239345 8:0.71478744 9:0.867693 10:0.53761269 11:0.55561849 12:0.12998132 13:0.56414862 14:0.15175564 15:0.14872631 18:0.30769231 19:0.2 20:0.12195122 21:0.058823529 24:0.5 25:0.15384615 26:0.33333333 32:0.33333333 34:0.25 43:0.16666667 
18.1453141882472 0:0.34173711 1:0.39001802 2:0.35112457 3:0.26272583 4:0.10181373 5:0.49038725 6:0.60756029 7:0.38958506 8:0.58337152 9:0.6305903 10:0.40475152 11:0.47611829 12:0.11723111 13:0.32028626 14:0.0063541288 15:0.15156388 16:0.16666667 18:0.30769231 19:0.2 20:0.17073171 24:0.16666667 25:0.15384615 26:0.33333333 27:0.17647059 32:0.16666667 37:0.11111111 39:0.5 42:0.16666667 45:0.5 
7.679670323280109 0:0.41898563 1:0.70280056 2:1 3:0.27488589 4:0.093419092 5:0.53565227 6:0.66030193 7:0.6938208 8:0.61425839 9:0.32855685 10:0.489753 12:0.020217353 13:0.0031532142 14:0.024340091 15:0.1734476 16:0.083333333 18:0.30769231 19:0.2 20:0.048780488 21:0.058823529 27:0.058823529 29:0.25 32:0.33333333 40:0.5 41:0.125 44:0.5 
32 0:0.69869253 1:0.47387001 2:1 3:0.27488589 4:0.46984213 5:0.42866741 6:0.713107 7:0.4384075 8:0.34762673 9:0.79509766 10:0.22528907 11:0.76557764 12:0.30497084 13:0.31395839 14:0.030812839 15:0.59034219 16:0.25 17:0.2 18:0.61538462 19:0.2 20:0.46341463 21:0.11764706 24:0.16666667 27:0.11764706 28:0.25 32:0.66666667 33:0.33333333 35:0.25 36:0.11111111 40:0.5 41:0.375 42:0.83333333 43:0.33333333 45:0.25 
-6.780768428925333 0:0.65514674 1:0.63206601 2:0.061245534 4:0.15661404 5:0.69882821 6:1 7:0.39865183 8:0.31426299 9:0.84695634 10:0.42056147 11:0.50998479 12:0.34863098 13:0.22518446 14:0.024611426 15:0.40734103 16:0.16666667 18:0.53846154 19:0.6 20:0.24390244 24:0.5 25:0.15384615 26:0.33333333 28:0.25 29:0.25 30:0.2 32:0.66666667 33:0.33333333 36:0.11111111 41:0.125 
-16.9108528416641 0:0.68624315 1:0.44079597 2:0.56746543 4:0.064786889 5:0.50510192 6:0.713107 7:0.36705811 8:0.37965482 9:0.62102463 10:0.29458979 11:0.30226279 12:0.53283505 13:0.045894777 14:0.019325482 15:0.2812244 16:0.16666667 18:0.38461538 19:0.2 20:0.51219512 21:0.23529412 24:0.16666667 25:0.61538462 27:0.11764706 30:0.2 32:0.33333333 34:0.25 36:0.22222222 37:0.11111111 41:0.125 42:0.16666667 43:0.5 
32 0:0.44525232 1:0.43610158 2:0.71869388 3:0.26272583 4:0.35980718 5:0.50981674 6:0.47055958 7:0.33318495 8:0.59763912 9:0.59553093 10:0.34658753 11:0.37706241 12:0.32705023 13:0.30049399 14:0.031819456 15:0.23540047 16:0.25 18:0.46153846 19:0.4 20:0.24390244 24:0.16666667 25:0.15384615 27:0.058823529 29:0.25 32:0.16666667 37:0.22222222 39:0.5 41:0.375 43:0.5 45:0.25 
-7.176422178015407 0:0.12306565 1:0.1362935 2:0.56743967 3:0.27488589 4:0.3261058 5:0.14210384 6:0.058875075 7:0.2455036 8:0.48783852 9:0.35596466 10:0.2672175 11:0.17879014 12:0.23176046 13:0.031000762 14:0.0057936931 15:0.14621039 16:0.66666667 17:0.8 18:0.076923077 20:0.2195122 21:0.058823529 28:0.25 35:0.5 36:0.44444444 37:0.44444444 38:1 40:0.5 43:0.16666667 
32 0:0.44595005 1:0.43675301 2:0.47347106 3:0.26272583 4:0.1982944 5:0.49253986 6:0.55887507 7:0.36127111 8:0.31426299 9:0.83529974 10:0.22368644 11:0.76591117 12:0.68551301 13:0.52881578 14:0.50704987 15:0.49095354 16:0.16666667 18:0.30769231 20:0.24390244 21:0.058823529 24:0.5 25:0.076923077 27:0.058823529 29:0.25 30:0.2 32:0.5 34:0.25 39:0.5 41:0.25 42:0.16666667 
-32 0:0.46568494 1:0.36386294 2:0.44436062 3:0.27488589 4:0.32774695 5:0.37215088 6:0.27198207 7:0.35032385 8:0.51823436 9:0.56832548 10:0.36992095 11:0.24688783 12:0.25901716 13:0.051612461 14:0.0011293392 15:0.20011918 16:0.41666667 17:0.2 18:0.38461538 20:0.3902439 21:0.11764706 24:0.16666667 25:0.076923077 26:0.33333333 27:0.11764706 29:0.5 35:0.25 36:0.22222222 37:0.33333333 40:0.5 42:0.66666667 43:0.33333333 
32 0:0.54516939 1:0.43199897 2:0.36782385 4:0.37248889 5:0.50806784 6:0.55887507 7:0.37851299 8:0.31426299 9:0.76964691 10:0.3249144 11:0.60858238 12:0.52484585 13:0.04108394 14:0.14820107 15:0.44536871 16:0.33333333 18:0.38461538 20:0.36585366 21:0.41176471 24:0.16666667 25:0.076923077 29:0.25 30:0.4 32:0.33333333 35:0.25 37:0.11111111 41:0.25 42:0.16666667 43:0.33333333 
-32 0:0.40045808 1:0.3942802 2:0.36782385 4:0.16558282 5:0.50510192 6:0.50601968 7:0.39130416 8:0.37965482 9:0.7375891 10:0.32346419 11:0.69557872 12:0.41773557 13:0.3776762 14:0.049352187 15:0.32440975 16:0.25 18:0.30769231 20:0.24390244 21:0.11764706 25:0.076923077 27:0.058823529 30:0.2 32:0.33333333 35:0.25 36:0.11111111 37:0.11111111 41:0.375 42:0.16666667 43:0.33333333 
8.25200132762933 0:0.34326308 1:0.47319624 2:0.36782385 3:0.17043323 5:0.494465 6:0.713107 7:0.59270727 8:0.49643266 9:0.33113064 10:0.43380425 12:0.020217353 13:0.0031532142 14:0.024340091 15:0.20513368 16:0.083333333 18:0.23076923 19:0.2 20:0.097560976 23:0.5 24:0.16666667 31:0.33333333 32:0.33333333 41:0.25 42:0.33333333 43:0.16666667 
32 0:0.45809888 1:0.59706823 2:0.76217589 3:0.26272583 4:0.53019253 5:0.43633178 6:0.713107 7:0.47138064 8:0.56675225 9:0.74899696 10:0.58831521 11:0.5483639 12:0.38206915 13:0.55682382 14:0.44438272 15:0.33490766 16:0.33333333 17:0.2 18:0.38461538 19:0.2 20:0.12195122 21:0.058823529 29:0.5 32:0.33333333 37:0.33333333 39:0.5 41:0.125 43:0.16666667 
32 0:0.19513802 1:0.18300777 2:0.34562834 4:0.05581811 5:0.30045585 6:0.27198207 7:0.20590524 9:0.44436434 10:0.23946194 11:0.26015516 12:0.23314694 13:0.076444606 14:0.012534391 15:0.088516125 16:0.41666667 17:0.4 18:0.15384615 20:0.36585366 21:0.11764706 24:0.16666667 25:0.30769231 27:0.058823529 29:0.25 30:0.4 35:0.5 36:0.11111111 37:0.11111111 41:0.25 42:0.5 43:0.16666667 
-32 0:0.26622581 1:0.33650228 2:0.76217589 3:0.26272583 4:0.10238787 5:0.32468439 6:0.50601968 7:0.38141212 8:0.507845 9:0.47006138 10:0.35499831 11:0.42022169 12:0.13541518 13:0.42744153 14:0.15806334 15:0.12047216 16:0.25 17:0.2 18:0.15384615 20:0.12195122 24:0.16666667 25:0.15384615 29:0.25 32:0.16666667 35:0.25 37:0.11111111 39:0.5 41:0.25 42:0.16666667 
-10.42569468789638 0:0.77234788 1:0.7414889 2:1 4:0.33956873 5:0.83962463 6:1 7:0.59464868 8:0.56675225 9:0.67581078 10:0.60758053 11:0.40495321 12:0.46519452 13:0.19598248 14:0.076857127 15:0.51521345 16:0.25 17:0.2 18:0.53846154 19:0.6 20:0.24390244 21:0.058823529 26:0.33333333 27:0.058823529 30:0.2 32:1 36:0.22222222 37:0.22222222 41:0.125 42:0.16666667 
-32 0:0.090097623 1:0.092198596 2:0.79376777 4:0.10181373 5:0.1542182 6:0.11272109 7:0.24291119 8:0.29999539 9:0.17885905 10:0.30334568 12:0.020217353 13:0.0031532142 14:0.024340091 15:0.19968038 16:0.16666667 18:0.15384615 20:0.073170732 25:0.076923077 26:0.33333333 27:0.058823529 29:0.25 30:0.4 41:0.25 42:0.16666667 
12.56557457478111 0:0.75693852 1:0.50867347 2:0.71869388 3:0.26272583 4:0.54066637 5:0.53197021 6:0.50601968 7:0.44932933 8:0.70930254 9:0.80915988 10:0.44303772 11:0.70182146 12:0.49780755 13:0.082321295 14:0.0063251074 15:0.36072723 16:0.41666667 18:0.61538462 19:0.2 20:0.46341463 21:0.23529412 24:0.33333333 25:0.23076923 29:0.5 32:0.33333333 35:0.5 36:0.11111111 37:0.22222222 39:0.5 41:0.25 43:0.33333333 45:0.5 
32 0:0.26061687 1:0.44804502 2:0.51563932 3:0.17043323 4:0.093419092 5:0.38847889 6:0.26347226 7:0.5261767 8:0.79680677 9:0.32855685 10:0.489753 12:0.020217353 13:0.0031532142 14:0.024340091 15:0.07090448 16:0.083333333 18:0.15384615 20:0.024390244 25:0.30769231 29:0.25 31:0.33333333 43:0.16666667 
-32 0:0.32483831 1:0.52700242 2:0.56746543 4:0.027909055 5:0.55968498 6:0.55887507 7:0.47705103 8:0.44055424 9:0.32855685 10:0.489753 12:0.020217353 13:0.0031532142 14:0.024340091 15:0.12368052 16:0.083333333 18:0.15384615 20:0.048780488 21:0.11764706 25:0.23076923 26:0.33333333 30:0.2 32:0.16666667 
-7.860243771960932 0:0.25943098 1:0.37325685 3:0.26272583 4:0.15661404 5:0.53422922 6:1 7:0.36109065 8:0.53873187 9:0.14726317 10:0.26400173 12:0.020217353 13:0.0031532142 14:0.024340091 15:0.21466527 16:0.16666667 18:0.15384615 19:0.2 20:0.073170732 25:0.23076923 27:0.058823529 30:0.2 32:0.33333333 39:0.5 41:0.125 
8.918809638373189 0:0.50147545 1:0.61133926 2:0.61520257 3:0.26272583 4:0.081864993 5:0.47991926 6:0.60756029 7:0.60545793 8:0.62852599 9:0.63187292 10:0.67858483 11:0.29050012 12:0.19987001 13:0.27145896 14:0.20770545 15:0.19703483 16:0.083333333 18:0.46153846 19:0.4 20:0.14634146 24:0.16666667 25:0.076923077 26:0.33333333 29:0.5 32:0.16666667 39:0.5 41:0.25 42:0.16666667 43:0.16666667 45:0.25 
32 0:0.064862306 1:0.06782383 4:0.32230722 5:0.32506565 6:0.713107 7:0.16966389 8:0.29999539 9:0.41175598 10:0.25223063 11:0.058000501 12:0.70043798 13:0.010706557 14:0.44936309 15:0.37605759 16:0.33333333 18:0.30769231 19:0.2 20:0.14634146 24:0.16666667 27:0.11764706 28:0.5 30:0.4 32:0.16666667 33:0.33333333 42:0.16666667 43:0.16666667 45:0.25 
3.524968093626093 0:0.23933599 1:0.28501642 2:0.17043323 3:0.27488589 4:0.23847904 5:0.40276951 6:0.50601968 7:0.44394425 8:0.29123101 9:0.49864225 10:0.35991399 11:0.4476731 12:0.13875475 13:0.40837226 14:0.0045530768 15:0.20759359 16:0.33333333 17:0.4 18:0.15384615 20:0.14634146 21:0.058823529 25:0.38461538 31:1 32:0.16666667 40:0.5 43:0.16666667 
-26.27805101933245 0:0.57000672 1:0.61432227 2:1 4:0.13768885 5:0.80092317 6:1 7:0.38540162 8:0.37965482 9:0.82878994 10:0.31902812 11:0.53469902 12:0.33086699 13:0.27765054 14:0.017092974 15:0.24620677 16:0.25 18:0.38461538 19:0.4 20:0.19512195 25:0.15384615 26:0.33333333 30:0.2 32:0.66666667 35:0.25 37:0.11111111 42:0.66666667 
17.10796906212475 0:0.32189151 1:0.26622634 2:0.35112457 4:0.1380923 5:0.35105309 6:0.27198207 7:0.2526153 8:0.44055424 9:0.46814698 10:0.19675823 11:0.33573053 12:0.26075064 13:0.036589235 14:0.0074922654 15:0.15413302 16:0.25 18:0.15384615 20:0.3902439 21:0.17647059 24:0.16666667 25:0.84615385 27:0.11764706 28:0.25 30:0.2 39:0.5 43:0.16666667 45:0.25 
-1.470994289879351 0:0.6579489 1:0.40412205 2:0.51563932 3:0.61520257 4:0.044613101 5:0.38269285 6:0.55887507 7:0.44466937 8:0.55014184 9:0.60407669 10:0.43248281 11:0.44748113 12:0.29490372 13:0.081370534 14:0.0079508026 15:0.23482551 16:0.083333333 18:0.46153846 20:0.56097561 21:0.11764706 24:0.5 25:0.84615385 27:0.23529412 31:0.33333333 32:0.16666667 34:0.25 41:0.125 43:0.5 45:0.5 
-0.6038953229715275 0:0.38968295 1:0.40181114 2:0.56746543 3:0.26272583 4:0.11012314 5:0.5253994 6:0.55887507 7:0.34621105 8:0.28337612 9:0.60809149 10:0.19955147 11:0.32527308 12:0.22780121 13:0.1946053 14:0.019660176 15:0.24788984 16:0.33333333 17:0.4 18:0.23076923 20:0.2195122 21:0.11764706 24:0.16666667 25:0.23076923 27:0.058823529 29:0.25 30:0.2 32:0.33333333 36:0.11111111 37:0.22222222 39:0.5 
14.37946862272082 0:0.42798222 1:0.55616944 2:0.56743967 3:0.27488589 4:0.23997476 5:0.58201422 6:0.60756029 7:0.6005284 8:0.7196919 9:0.51298451 10:0.47633832 11:0.4731468 12:0.39723901 13:0.48087881 14:0.46199211 15:0.20932609 16:0.16666667 18:0.23076923 19:0.2 20:0.12195122 21:0.058823529 25:0.23076923 32:0.33333333 37:0.11111111 38:1 40:0.5 41:0.125 45:0.25 
-32 0:0.54835865 1:0.55983238 2:0.76217589 3:0.71869388 5:0.38901886 6:0.51490516 7:0.54958551 8:0.69391782 9:0.55647568 10:0.49653003 11:0.18840468 12:0.3035686 13:0.092626484 14:0.12332176 15:0.057344678 18:0.46153846 19:0.4 20:0.2195122 21:0.058823529 24:0.66666667 25:0.15384615 26:0.33333333 29:0.5 41:0.125 42:0.16666667 43:0.16666667 45:0.5 
32 0:0.49585597 1:0.53520271 2:0.51563932 3:0.26272583 4:0.043044694 5:0.51689766 6:1 7:0.55129856 8:0.52446426 9:0.72048047 10:0.58649664 11:0.30623027 12:0.15124339 13:0.23571188 14:0.071754221 15:0.11309702 16:0.16666667 18:0.30769231 19:0.4 20:0.19512195 24:0.33333333 25:0.23076923 27:0.058823529 29:0.25 32:0.33333333 36:0.11111111 37:0.11111111 39:0.5 42:0.16666667 43:0.16666667 
-0.2685103097571294 0:0.35538744 1:0.73860914 2:0.50973687 3:0.27488589 4:0.10181373 5:0.60169523 6:0.51490516 7:0.82062081 8:0.91304111 9:0.32855685 10:0.489753 12:0.020217353 13:0.0031532142 14:0.024340091 15:0.044362708 16:0.083333333 18:0.30769231 19:0.6 26:0.33333333 29:0.5 36:0.11111111 40:0.5 43:0.16666667 
-3.59543230309833 0:0.45571092 1:0.44586608 2:0.17043323 3:0.17043323 4:0.1845231 5:0.44484918 6:0.55887507 7:0.44236287 8:0.58616975 9:0.62102463 10:0.41988889 11:0.44479299 12:0.36147877 13:0.12783573 14:0.0037688297 15:0.30062593 16:0.16666667 18:0.23076923 20:0.24390244 21:0.11764706 24:0.16666667 25:0.46153846 27:0.058823529 31:0.66666667 32:0.33333333 34:0.25 43:0.16666667 
32 0:0.42921575 1:0.65506434 2:0.34562834 3:0.27488589 4:0.31322809 5:0.58451478 6:1 7:0.58219098 8:0.51823436 9:0.33356977 10:0.49599521 12:0.020217353 13:0.0031532142 14:0.024340091 15:0.22682843 16:0.25 17:0.2 18:0.23076923 19:0.2 20:0.073170732 24:0.16666667 25:0.15384615 32:0.5 35:0.25 37:0.11111111 40:0.5 
32 0:0.44841721 1:0.84881452 2:1 4:0.15661404 5:0.68149666 6:0.78967189 7:0.80488954 8:0.85438449 9:0.32855685 10:0.489753 12:0.020217353 13:0.0031532142 14:0.024340091 15:0.32839058 16:0.083333333 18:0.30769231 19:0.2 20:0.024390244 24:0.33333333 26:0.33333333 30:0.2 32:0.5 
-8.040755245651061 0:0.61587782 1:0.41269265 2:0.35112457 3:0.26272583 4:0.38831654 5:0.58757601 6:0.75745258 7:0.29441214 8:0.40452633 9:0.59022857 10:0.36353074 11:0.50149692 12:0.37305801 13:0.08606637 14:0.014385922 15:0.37248543 16:0.25 18:0.46153846 19:0.6 20:0.48780488 21:0.23529412 24:0.83333333 25:0.076923077 26:0.33333333 27:0.11764706 29:0.25 30:0.2 32:0.33333333 34:0.25 35:0.25 36:0.11111111 39:0.5 41:0.25 42:0.16666667 43:0.16666667 44:0.5 
-27.56782916842106 0:0.36050802 1:0.39078517 2:0.33167283 4:0.40406186 5:0.63099274 6:0.713107 7:0.17439236 9:0.72720269 10:0.13665022 11:0.58889034 12:0.49266729 13:0.13576698 14:0.44787809 15:0.31388514 16:0.41666667 17:0.2 18:0.30769231 19:0.2 20:0.19512195 21:0.11764706 24:0.16666667 30:0.4 32:0.5 37:0.33333333 41:0.125 42:0.16666667 43:0.16666667 
32 0:0.33848513 1:0.46605887 2:0.34562834 3:0.26272583 4:0.10181373 5:0.66989184 6:0.78967189 7:0.42356333 8:0.507845 9:0.40782753 10:0.52800593 12:0.020217353 13:0.0031532142 14:0.024340091 15:0.062665968 16:0.25 17:0.2 18:0.30769231 19:0.6 20:0.097560976 26:0.66666667 27:0.058823529 32:0.16666667 35:0.25 36:0.11111111 37:0.11111111 39:0.5 41:0.125 45:0.25 
7.551453605093751 0:0.55528586 1:0.45513719 2:0.56746543 4:0.48156965 5:0.45153632 6:0.54712448 7:0.33841364 8:0.33570336 9:0.7798753 10:0.41323988 11:0.55451898 12:0.51146697 13:0.23364571 14:0.051175955 15:0.47930574 16:0.33333333 17:0.2 18:0.61538462 19:0.4 20:0.34146341 21:0.11764706 25:0.15384615 26:0.66666667 27:0.058823529 28:0.25 29:0.5 30:0.2 32:0.16666667 37:0.22222222 41:0.125 42:0.33333333 43:0.33333333 45:0.25 
32 0:0.31114953 1:0.35487023 2:0.47347106 4:0.10181373 5:0.30601936 6:0.55887507 7:0.45784823 8:0.29999539 9:0.61847063 10:0.24085871 11:0.54614144 12:0.11431836 13:0.42118545 14:0.040611826 15:0.20131488 16:0.16666667 18:0.30769231 19:0.2 20:0.17073171 21:0.058823529 24:0.16666667 25:0.076923077 26:0.33333333 27:0.11764706 30:0.2 32:0.16666667 37:0.11111111 41:0.25 43:0.16666667 45:0.25 
-32 0:0.54514142 1:0.43197908 2:0.76217589 4:0.12490969 5:0.55950203 6:0.78967189 7:0.44046692 8:0.43551128 9:0.74313362 10:0.45641208 11:0.53845576 12:0.45499955 13:0.20292869 14:0.026871649 15:0.27532514 16:0.25 18:0.46153846 19:0.2 20:0.36585366 24:0.66666667 25:0.15384615 26:0.33333333 27:0.058823529 29:0.25 30:0.2 32:0.33333333 35:0.25 36:0.22222222 37:0.11111111 41:0.375 43:0.16666667 44:0.5 
32 0:0.28348005 1:0.35993375 2:0.62009071 3:0.26272583 4:0.19884616 5:0.34420172 6:0.47055958 7:0.46213081 8:0.44055424 9:0.55579489 10:0.20095871 11:0.56465108 12:0.12169986 13:0.57326861 14:0.14214241 15:0.18664857 16:0.25 18:0.30769231 19:0.2 20:0.12195122 24:0.33333333 25:0.15384615 26:0.33333333 29:0.25 30:0.2 33:0.33333333 35:0.25 39:0.5 43:0.16666667 
-32 0:0.38641076 1:0.58401694 2:0.71869388 4:0.04168036 5:0.5288289 6:0.713107 7:0.5055002 8:0.48483367 9:0.442084 10:0.63111976 12:0.020217353 13:0.0031532142 14:0.024340091 15:0.10401926 16:0.083333333 18:0.23076923 19:0.2 20:0.073170732 21:0.23529412 25:0.076923077 30:0.2 32:0.16666667 43:0.33333333 
